{"external":{"0":{}},"internal":{"0":{"nonlinearity":{},"out_column":"predictions","softmax":{},"in_column":"embeddings","linear1":{"bias":[0.0125053609,0.0117971627,-0.0061958996,-0.014328762,0.0055742478,-0.0049147373,0.0159775373,-0.0026610589,-0.0143318856,-0.0010484296,0.0098883519,-0.0113271642,0.0038424307,-0.0091737257,-0.001609443,0.0118147321,0.0218512043,0.0026544153,0.004407967,-0.0036880476,-0.0052436148,0.0135210678,0.0011114273,0.0024212014,-0.0078129061,-0.000547308,-0.0034215527,0.016565416,0.0090622334,0.0147325825,0.011930068,0.0003830027,-0.0073142098,0.0201438405,0.0021759141,-0.0086871991,-0.0053520836,0.007420199,0.0065090088,-0.0058561829,0.0093245571,-0.0170389954,0.0004635869,0.0001081009,0.0022400799,0.0064806258,-0.0143334987,0.017540982,-0.0009245342,-0.0122473901,0.0013419646,0.0010798263,-0.0038801294,0.0035910641,0.0181349926,-0.0052417689,-0.0123714339,0.0081072692,-0.0107217981,0.016574258,0.009788366,0.0138881002,0.0074584875,-0.0069120126,-0.0070062489,0.0005696162,0.0102688009,0.0068420721,-0.0025195866,0.0133259315,0.0068110852,-0.0040285089,-0.00255373,-0.0074843313,0.0159678012,-0.0077323099,0.0059315367,0.0105361016,-0.0028803863,-0.0038112157,0.00842088,0.0062699709,0.0097983135,0.0037132071,-0.0065093273,-0.001428157,-0.0040481673,0.0083210971,0.0178061556,0.0021782201,-0.0007911614,0.0104592657,0.0102941636,0.0030501676,-0.0019098578,0.006764981,0.0000555014,0.0074909288,0.0143075828,-0.0050403392,0.0065245293,0.009078999,0.0006491412,0.0051174657,0.009931338,0.0040684058,-0.0047016749,0.0038294948,-0.0023677354,-0.0163774546,0.0031253351,-0.0067218891,0.0020549682,-0.0009216972,0.0170018412,-0.0109648947,0.0092664538,0.0025079977,0.0044637443,0.0009840953,0.0091434373,0.0010933077,0.0026151047,0.0029052461,0.0045106541,-0.0111920498,0.015761489,0.0014055769,-0.0088316984,0.0026101009,0.0133586526,0.0043577109,0.0028363739,0.0127684381,-0.0042164424,0.0077107893,-0.0066686226,-0.0109511688,-0.0120606683,-0.0053931768,-0.0001179743,-0.0048744567,-0.0024010404,0.0058916998,0.0211799592,-0.0069296253,-0.0003872942,0.0126146926,0.0103574796,-0.0055961814,-0.0127319414,0.0107932873,-0.0108539164,-0.0106835943,0.0092114834,0.0127508519,-0.002633187,0.0105147902,0.008883412,-0.0055210856,0.0011101038,0.0047276178,-0.0003590638,0.0022748536,0.0077600931,0.0072235796,0.000429182,0.0166533273,-0.0100294091,0.0092505915,0.0095635615,0.0180562567,0.0022552868,-0.0126718171,-0.012510363,-0.009523211,0.0069173374,-0.0079529872,0.0140996166,0.0036815808,0.0073120263,0.0032365539,-0.010517776,-0.0014383197,0.0059674517,-0.0020980223,0.0011680995,0.0220904145,-0.0114518115,-0.0106932381,0.0098864082,-0.0122120222,0.0013750596,-0.0036929683,-0.0019586463,0.0084419195,-0.0083665242,-0.0054237014,-0.0094817253,-0.0044144806,0.0010627722,-0.0028150862,0.0012227457,0.0090005957,-0.0006136895,0.0067637265,0.0008900838,0.003508928,0.0077285753,0.0081288703,-0.0100312773,0.0049977941,-0.0101897791,0.0060946727,0.0089537837,0.0065095127,0.0068710153,-0.0071886978,-0.0090575274,-0.015839057,0.0027893095,0.0116107576,-0.0168809891,0.0052325926,0.0068275132,-0.0047610374,-0.001325474,0.0000669842,-0.0085504614,0.0060664555,-0.0085953558,-0.0084501226,-0.0022522428,-0.0090332925,0.0011920164,-0.0088908719,-0.0032844662,-0.0000003386,-0.009974462,-0.0110712834,0.0005540049,-0.0020497206,0.0073726121,0.0028362276,0.0098334262,-0.0020738437,0.0014753659,0.0049346113,-0.005056872,-0.0024314234,0.0202951524,0.001316309,-0.0154673923,-0.014623045,-0.0052807741,0.0040514106],"weight":[[-0.0021918211,-0.0029758667,0.0147143612,0.0161490086,-0.0151027162,-0.0096583366,0.0003444206,-0.0099588092,-0.009445007,0.0183015727,-0.015665058,0.0147540579,0.013192567,0.0122488458,-0.0077690403,-0.012511692,-0.0022360138,0.0013500701,0.0043697599,-0.0038482107,-0.0041178348,0.0129447039,0.0163643137,-0.0023953619,0.0025104443,0.0037495887,-0.0055579995,0.0049240482,0.0124601023,0.0105527109,0.011812821,-0.0153954988,-0.0000620548,0.0049208812,-0.0045777117,0.0103858225,0.0098051559,0.0188848507,0.0183011666,0.0204211231,0.0311320424,0.005429253,0.0032727751,0.0042028148,0.0106440382,0.017281238,-0.0044322293,0.012468691,-0.0029483123,-0.0094380705,0.0057920329,0.0136260735,-0.0271622762,0.0076020285,-0.0007111855,0.0097382013,0.0145064928,-0.0008085007,-0.013635153,-0.0047613638,0.0057793604,-0.0012539327,-0.0016280779,-0.0226263609,0.0079942774,-0.0210366901,0.0030914971,0.0179424826,0.0068878457,-0.0075854971,0.032621216,-0.0137626491,0.0033287362,0.0141022857,0.0257434137,0.0114793461,0.0253686141,-0.0033867729,0.0118056228,0.0049059936,0.0101538785,0.0074367747,0.0083530145,0.001202252,-0.001162404,-0.0070009576,0.0097359521,0.0133922044,-0.0134000685,0.0109481476,-0.0075776302,-0.0068722018,0.0114584863,0.0010146389,-0.0092887487,0.0045376238,0.0011711825,0.0018697036,-0.0047244998,-0.0199239701,0.0066548856,-0.0097432304,0.0072017764,-0.0043186476,-0.0059345984,-0.0213502254,0.0213392116,-0.0143724484,-0.0006001856,-0.0223919656,0.0052675763,0.0033603229,-0.0018694882,-0.0110711521,-0.0039737066,0.0152582042,-0.0223079529,0.0020305074,-0.0231585465,0.0067317481,0.0075488631,0.0173275098,0.0050941147,-0.0018867834,-0.0004701204,-0.0020145078,0.005293414,0.0151036335,0.0094736507,0.009498097,-0.0009205497,0.0006756965,-0.002347149,-0.0092299804,0.0020562301,-0.0068846215,-0.0007188135,0.0213304553,0.0050900062,-0.0033847189,-0.0073790238,-0.0029473226,-0.0135963243,0.0114554679,-0.0019083859,-0.0103550907,-0.0090178875,0.0293879528,-0.006729824,-0.004039661,0.0022394001,0.0155911855,0.0055391076,0.0171031523,-0.0196656417,-0.002256569,0.0099508055,0.0024508603,0.0099882893,-0.0097189527,0.0147515777,0.0111920349,0.0070103225,0.0221107248,-0.0000540906,0.0001223816,-0.0068249484,0.0106374966,0.0033170166,0.02193949,0.0064168656,-0.0027915013,-0.0043653264,0.0177166611,0.0070971171,-0.0011290173,-0.0158373173,0.0043805852,0.011817784,0.0014479177,-0.0005218245,-0.0135190124,-0.0049744826,0.0042795939,0.0042831786,-0.0120811732,-0.0038748931,0.0166122969,-0.0256335568,0.0122799408,0.000522162,0.0036748908,0.0049190642,-0.0022498993,-0.0160107538,-0.0143593056,0.0062556001,0.0016977374,0.0036673117,-0.000776024,0.0090776226,-0.0010915215,-0.0014605637,0.0217582248,-0.0031830536,0.0052017076,-0.0076174499,-0.0089544607,0.0152664725,0.0065647298,0.0065747369,-0.0089324173,-0.0116938651,0.0190695655,-0.014473659,0.0028966314,-0.0011684397,-0.0155519703,-0.0170560312,0.0094580576,-0.0012293386,-0.0000616562,-0.0002804797,-0.0102687357,-0.0138127478,0.0136928027,-0.0050325179,0.0084336754,0.0080683939,0.0051453011,-0.0072952439,-0.0236937292,0.0028254476,-0.0012496492,0.0012124543,0.0242176,0.0109226909,-0.0150655797,0.0033473119,0.0210602712,-0.002028248,0.0190734565,-0.0046916264,0.0160784759,0.0216366798,0.0121663576,0.0078147817,0.0046048546,0.0063448776,0.0134493522,0.0109000895,0.0163962059,0.0068764682,0.0149606206,0.0363954641,-0.0080761155,0.0462040529,0.0035135825,0.0046448684,0.0084371027,0.005880842,0.0062153842,0.0064107534,-0.0013555046,-0.0059307031,-0.0091718007,-0.0005817278,0.0094602788,-0.0040234667,-0.0095623964,-0.0005092279,-0.004404461,0.0032503977,0.0059927129,-0.0082389265,-0.0055691618,0.0032385145,-0.0035534883,-0.0037753831,0.0021381255,-0.0088198343,-0.0114948973,-0.0066953371,-0.02638858,0.0039836578,-0.0147714671,0.0005504176,-0.0348762125,-0.0014933604,-0.0098433336,0.0101692369,0.016567938,0.0047931238,-0.0091141751,-0.0012097887,0.0169860087,-0.0075159548,-0.001374273,-0.022381749,-0.0059816195,0.015211531,0.0285673868,0.0126143508,0.0063186567,-0.0079819662,-0.0061269505,0.0076950351,0.026233064,-0.0158248674,-0.0119659994,0.0103630992,0.0178634804,0.0017148958,0.0210305937,0.0101258364,0.010683991,-0.0024410938,-0.0067464379,0.0138764605,0.0002259514,0.010504772,0.0041202977,-0.0089280233,-0.001373369,0.0027697762,0.013422342,0.0195795447,-0.0085619446,0.0303732939,0.008469129,0.0016824339,-0.0033639593,0.0058690226,0.0080297813,0.0032242623,0.0004507736,-0.0058355541,-0.0030997624,-0.0017027818,0.0150003042,-0.0123523241,-0.003832838,0.0050927736,-0.0025590525,0.0037348731,0.0127416793,-0.0132955881,-0.0083752107,0.0034589942,0.0002102642,0.0049339938,-0.0010876817,0.007810038,-0.0128644425,-0.0030368839,-0.0156301595,0.0190747846,0.0023832778,0.0117104622,-0.0234657284,-0.0040177363,0.0188947767,0.0456439219,-0.0066667721,0.0491984971,0.0107378233,0.0078108972,0.0136507582,0.0041995072,0.0061851819,0.0029584563,0.0022174446,-0.0004101444,-0.012337408,-0.0039627338,0.0080342172,-0.0039699213,-0.0093942191,-0.0026583185,-0.0064536533,-0.0060379785,0.0101276832,-0.0020833593,-0.0095473807,-0.000086221,-0.0081477296,0.0058234227,-0.0038230082,-0.0035196794,-0.011405549,-0.0034269406,-0.0324411467,0.0046391506,-0.0034661698,0.0016084714,-0.0227864701,-0.0008230995,-0.0170934796,0.0108683147,0.0045005023,-0.0218785834,-0.0025196471,0.001698311,-0.0040647993,-0.0231678355,0.0105832564,0.0057465537,-0.0016696784,0.0083120503,0.0073788729,0.0015644145,-0.0037917248,-0.002572668,0.0149908615,0.0033372729,0.0135018127,-0.0109142317,-0.0019693226,0.0152665172,0.0095692566,-0.0037658059,-0.0044177468,0.0086530689,-0.0006758961,-0.000838082,0.0078301625,0.0086467071,-0.0130998241,-0.0176054277,0.0067574671,0.0104918433,0.0130991712,-0.0004965013,-0.0101934122,-0.0005761599,0.0052516726,-0.0157224908,-0.0038700886,-0.0008690793,0.002766551,-0.0237004459,0.0026861848,-0.000934187,0.0119720669,0.009157178,0.0203543361,0.0097074248,-0.0099914623,0.0103587275,0.0091119697,0.0028166992,0.0117159002,0.0092753349,0.0004864668,0.0164740067,0.0190579109,-0.0039125928,0.0044187624,-0.0119599663,0.0003405617,-0.0075146016,-0.0041597136,0.0054045185,-0.012123812,-0.0102260085,0.0025362417,-0.0021212848,0.001322198,-0.0010603179,0.0141804237,0.0367507041,-0.0077100135,0.0343983658,0.0061709778,0.0073478189,0.0001157225,-0.0012830371,0.0127721773,0.0026955612,0.0112806885,0.0007346607,-0.0045547285,-0.0041274084,0.0098606246,-0.0104511697,-0.0085604722,-0.0023321493,-0.0079287095,0.0001981175,0.0124871014,-0.0138358967,-0.0055502779,0.0023399035,-0.0123721287,0.0008306816,-0.0097439243,0.0045745182,-0.0142044052,-0.0024493237,-0.0154215395,0.0032671986,-0.0080634886,0.0047247298,-0.021128865,0.0011344892,0.0018886316,0.0376033261,-0.0061809397,0.033514142,0.0013092691,0.0033693614,0.0072707264,0.0058695744,0.0050471993,-0.0012059053,0.0012854157,-0.0048413621,-0.0066668903,0.000646244,0.0100186681,-0.0117381644,0.0006482756,-0.0078416802,-0.0003128981,0.0038526433,0.0091221109,-0.0084150685,-0.0129350713,0.0062232064,0.0013259028,0.0014807169,-0.0023862515,0.0056949579,-0.0111971674,-0.00539851,-0.0225232709,-0.0006413045,-0.0047499798,0.0097891474,-0.0228731725,0.000744667,-0.0219011549,-0.0000738105,0.000494395,-0.0176861715,-0.0128040798,-0.0065714689,-0.0047187428,-0.0174751431,-0.014889163,-0.0140619511,0.0048806863,0.0046401382,0.0081355954,0.0104287192,-0.0224499926,0.0066178674,0.0190438274,-0.0016053665,0.0115740644,0.0080941059,-0.0055730604,0.0041162856,0.0158157069,-0.0017136043,-0.0056144828,0.0026501634,0.0059874542,0.0069000288,0.0105971508,0.0042666518,-0.0093671326,0.0027807581,0.0041365325,-0.0149955936,-0.0028760114,0.0005847797,-0.0306627434,-0.0150662102,0.0231069066,-0.0064838892,-0.0073646666,-0.0052948198,0.006693345,-0.0124320555,0.0111802546,-0.0252147671,-0.0103383297,0.0048812446,-0.0025328274,-0.0161437485,-0.0059362962,0.0021103045,0.0136873489,0.0040496546,0.0010182445,-0.0159067065,-0.020522682,0.009113769,0.0094875079,0.0017601347,0.0171449911,-0.0049291765,0.0206070896,0.0063906275,0.0040620617,0.0040156394,-0.0037057332,0.0005978305,0.0144556062,-0.0088618072,-0.0041859932,-0.0017586832,-0.0144183347,0.000855807,0.0044816285,-0.0130757084,-0.0000717149,0.0023657996,0.0025085018,0.0082142781,0.0070479102,0.00562994,0.0097503578,0.0154821528,0.0060769147,-0.0066840416,0.0005676628,0.0155081069,-0.0084782541,0.0012563792,0.022293577,0.0058914013,-0.0144323232,0.0158736017,0.0062601874,-0.001210595,0.0125650596,0.0084961494,-0.0087351901,-0.0041292585,-0.0034388367,0.0104624061,0.0057123001,-0.0056233364,-0.0008821898,-0.0008600968,0.0190839227,-0.001262046,-0.0057580615,-0.0056374399,0.0244425796,0.0035461229,-0.0046297251,0.0025169621,-0.006496775,0.0103266779,0.017707957,-0.020455068,0.0037196297,0.0074759731,0.0160021242,0.0182894114,-0.0172792617,0.0055412021,0.0006466513,0.0021041201,0.0054156324,-0.0056357486,0.0086117554,-0.007683496,0.0166233256,0.0036799747,0.0068802875,-0.0088991718,-0.0040884325,0.0084809428,0.0247268695,0.0064317826,0.0114425123,0.0110845445,0.0141976289,-0.0144760534,-0.0074178283,-0.0072352886,0.0195316132,0.0515020713,0.0019674909,0.0239227507,0.0095782354,0.0075920839,0.0104830628,0.0008283071,0.014611938,-0.0004616091,-0.0011054492,0.0094206072,-0.0167013332,-0.0052298629,0.0148250768,-0.0062662931,-0.0070061553,0.0027227276,-0.0117323818,-0.0064779674,0.0080076298,-0.0011559094,-0.0051559745,0.0016869063,-0.0066574868,0.0109260669,-0.0082298229,0.0020654555,0.0065073534,0.0100797499,-0.0079052746,0.0155866733,-0.0165421013,0.0036091288,-0.0074476949,-0.0002884226,0.0105294492,0.0316300988,-0.012032805,0.0353821591,0.0096280538,0.0041357181,0.0048198081,0.0084890416,0.0001949666,-0.0019527039,0.0060710213,-0.0001668823,-0.0061054938,-0.0027757701,0.0069456245,-0.0082489755,-0.010105392,0.004815517,-0.007641613,-0.0030289229,0.0086468663,-0.0127108293,-0.0065775281,-0.001711995,-0.004392399,0.0044048782,-0.0079635633,-0.0051457095,-0.0039839749,-0.0059408229,-0.0263699535,0.0048553576,-0.0045847031,0.0027711189,-0.0210676994,-0.0031468086,0.0051119453,0.0300339758,-0.0050153495,0.0443917662,0.0144510642,0.0041146493,0.0035174566,0.0020445017,0.008972127,0.0026773645,0.0102007203,0.0072237076,-0.00339735,0.0079686372,0.0161325689,-0.013505755,-0.0136278048,-0.0017238123,-0.0107635958,0.0084526557,0.0086535458,-0.0121434359,-0.004320628,-0.003212461,-0.0074632792,0.0043274364,-0.0023847036,0.0006339099,-0.005731727,-0.0022610491,-0.0074428073,0.0066956664,-0.0136284875,0.0063087251,-0.0319308452,0.0054324237,0.0070214588,0.0269950312,-0.009528351,0.0411686972,0.0057341848,0.0029676857,0.004143693,0.0012839307,0.0093500791,-0.0016626037,-0.002834369,0.003753175,-0.0087061301,0.0057232925,0.0179002378,-0.0158367511,-0.0109095937,0.0016415516,-0.0134673556,0.0029074638,0.0047355467,-0.0112162074,-0.0067364746,-0.0029961022,-0.0062446217,0.0000076752,-0.0043902737,-0.0022141144,-0.0135153113,-0.0053843623,-0.0162666943,0.0086468225,-0.0090278964,-0.0052637551,-0.0277471486,0.0038892825,0.0121761225,0.011550121,0.0097866096,0.0277117826,0.0026049551,0.0139941201,0.0143182594,-0.0000041902,0.0167602561,-0.0030631181,0.0027245984,0.0058455146,0.0044970014,-0.0105364993,0.0166299306,-0.0261940304,-0.0134638101,0.0002255729,0.0080813318,-0.0027625726,0.0026804626,-0.0171781555,0.0021482545,0.0048027127,0.0082029402,0.0100585902,-0.0238447189,0.0050581619,-0.0104579767,0.0026137126,-0.0035619196,0.0263473075,-0.0111518996,0.0183595009,-0.0048179301,-0.0019482132,-0.0122486772,0.0164583493,0.0242795013,-0.0147283757,-0.0075307321,0.0033591967,0.0075227674,-0.0019838475,-0.0063142683,-0.0053148167,0.0030841073,0.0076689399,-0.0006767726,-0.0043497398,0.0062274891,-0.0043778606,-0.0052308715,-0.0014694984,0.0064884941,0.0065549687,0.005321553,0.0183618013,0.0012209126,0.0029099525,0.0124831945,-0.0068743499,0.0050509181,0.0182815157,0.005767752,0.0088894442,-0.0029542667,0.0111342464,-0.0008856597,-0.0099083325,0.0098032448,-0.0070891078,-0.0031531225,0.0262076501,0.0086207762,0.0000983118,0.003808395,0.0151408454,0.0208606273,-0.0025609357,0.0263095871,-0.0168965142,0.0022192977,0.0092160776,-0.008310752,-0.0212004539,0.0227305405,-0.0064593102,-0.0200643241,0.0103559261,0.0004102462,-0.0138121555,0.0014971397,0.0100457631,0.0011885654,0.0027082448,-0.0047472445,0.0083031738,-0.0318195783,0.004118456,0.0185184609,0.0152264312,-0.0181547068,0.0349875204,-0.0343548954,-0.0004580625,0.0326966196,-0.0004299941,-0.0220086128,-0.011667286,-0.0102616083,0.0002007109,-0.0113159353,0.0004594035,-0.0013732637,-0.0032065054,0.0009545404,-0.0108726695,-0.0019914301,0.0084107425,0.0210024174,-0.0010417321,-0.0195626523,-0.0008454364,0.0212075785,0.0027844163,0.0220529046,0.0113045769,-0.0093798535,0.0013189095,0.014674603,-0.0010788583,-0.0090580378,0.0173064247,0.0146534331,0.0139152454,0.0026082846,0.0067753084,-0.0056064045,0.01046333,-0.0038036762,-0.0114983087,0.0004338378,-0.0005112418,0.0126494039,0.0289657488,-0.0138971386,0.034785185,0.0122227408,0.0052663861,-0.00098388,0.0070206192,0.0054136082,-0.0017221365,0.0031384099,-0.0064366204,-0.0118064787,0.0028380982,0.009364902,-0.0132045168,-0.0070387716,-0.0038795646,-0.0050719501,-0.0036088431,0.0119304899,-0.0078010503,-0.0014952759,-0.0052692783,-0.0097187636,-0.0032395688,-0.0010876607,-0.0031074008,-0.0018172854,-0.0048698494,-0.0175566562,0.0065161912,0.0007195203,0.000066138,-0.0288425293,-0.0028066346,-0.0078274505,0.0104867136,0.0203692652,-0.0101682507,0.0067608277,0.0047996254,0.0187678691,0.0083486373,0.0126366382,0.0013632741,0.0066638449,0.0095681967,0.0040852814,-0.0015784433,0.0043563033,0.0157900732,-0.015819652,0.0074129738,0.0235030558,-0.0196347237,-0.0088755563,0.0091906646,-0.0022135091,0.0038963959,0.0013568288,0.0051258528,-0.0089327106,-0.0018896175,0.0008387191,0.0179191381,-0.0145225069,0.0199807547,-0.0094404938,-0.0007236417,0.0294812471,-0.0019018677,-0.0239565652,-0.0196678136,0.0251208432,-0.0095664039,-0.0094771869,-0.0014021618,0.0121593755,-0.0188634321,0.0141860275,-0.0212386195,-0.0024546487,0.0147503112,0.0058820071,0.005263248,-0.0138025917,0.0038204119,0.0080790427,0.0083607109,0.0025300833,0.0033244377,-0.0052114124,-0.0033816348,0.0087323068,0.0007958791,-0.0010287468,-0.0071294275,-0.0067025232,0.0046502384,0.0071285027,0.0083597722,0.0052951709,0.0015384289,-0.0119651379,-0.0189963244,0.0128031028,-0.0021352882,-0.0021022581,0.0115756122,0.0247185882,0.0116890389,0.0025618933,0.002293454,0.0056324909,-0.0088738026,-0.005411128,-0.01027817,-0.0044349325,0.0120785879,0.0036973562,0.0068712449,-0.0185387451,0.0106495395,0.0147751663,0.0005597548,0.0250042733,-0.0014261872,-0.0130809881,0.0007689832,0.0225133337,0.0052423682,0.0117917052,0.0093853911,-0.0123374341,0.0094510475,-0.000960011,0.0132708298,0.0014139303,0.0148925632,0.0112970127,-0.0017949651,0.0209191442,0.0085488316,-0.0024307789,0.0293454193,0.0006753718,0.0241596997,-0.0026739694,0.0007418611,0.0088475421,0.0015310677,0.0084643122,-0.0036576006,0.0135448324,0.007019151,-0.0090528363,-0.0096278116,0.0121803489,-0.0225861706,-0.0163355675,-0.0037552349,-0.0031615014,0.0019484865,0.0082861511,-0.0164404362,-0.0022644049,-0.0026656436,-0.0087763378,0.0079496717,-0.0117525784,0.0141089167,0.0025736995,-0.0075534913,0.0000170826,0.0294295028,-0.0052998709,0.0244970266,-0.0176102929],[-0.0019696595,-0.0116792936,-0.0208175723,0.0109916981,-0.0226552207,0.0096786655,-0.0044044205,-0.0180047583,-0.0008129742,0.0063248132,-0.0042259656,-0.0050093061,0.0031326781,0.0092632668,-0.0085141165,-0.0037324568,0.0043161889,0.0133288018,0.0123033011,-0.0176677052,0.0142911142,-0.0014137734,0.0021650617,0.0031145986,0.0191170201,-0.0110181645,0.0222248212,0.0027752677,-0.0048636366,-0.0000813406,0.0224008597,-0.0021043671,0.0104403142,0.0291102882,0.0002039432,-0.003824255,-0.0033972529,0.0100943064,0.0253042188,0.0337833129,0.0164044406,-0.0277031623,0.0055584097,0.0121278968,-0.0011528645,0.0186979957,0.0020437394,-0.005012874,0.0056945365,0.0044126031,0.0004413448,0.003039916,-0.021496648,-0.0274550077,0.0098104822,0.0047979476,-0.0031457315,0.0048155799,-0.0127597991,-0.0276571028,0.0056368117,-0.011695737,0.0029824388,-0.0041992133,-0.0112880552,-0.0074974098,0.0153407026,-0.0100878403,-0.0045139841,0.012808023,0.0021142573,-0.0257027894,-0.0013888514,0.002799507,0.0395601243,0.0102335215,0.0216352977,-0.0197417364,0.0047631944,0.0136192422,-0.0073387735,-0.0032729101,0.008192027,-0.0132892355,0.009596427,0.015087394,-0.0059133051,0.0012986232,-0.0154505018,-0.0280233193,0.0060670022,0.0086275311,-0.0066445768,0.0055240025,-0.0215986408,-0.0321653411,0.0198676325,-0.0119654201,0.0037993842,0.00598145,-0.0098562306,-0.0041889995,0.0159000997,-0.0138066206,-0.0031918944,0.0008047719,-0.0146688111,-0.0239874851,0.0031787984,-0.0096464092,-0.0029484038,0.0072271274,0.004561069,0.003639878,-0.0001436483,-0.0283008851,-0.0108502749,-0.004374037,-0.0061586718,0.0066552381,0.0051622153,-0.0064636623,-0.0005150866,0.0073884819,0.0177139379,-0.0075410679,0.0170831904,0.0075839586,0.0033734269,0.0071667749,0.0064602606,0.0069839479,0.0248288792,0.0035370465,0.0094408216,-0.0019234165,0.0248609856,0.0075472291,0.0125063378,0.0207006689,-0.0029752154,-0.0010309628,-0.0038823262,0.0164804384,0.0052993107,-0.005161942,-0.0019452199,0.0175833572,-0.021115154,-0.0124641666,0.0035270022,-0.0108831245,-0.0125928894,0.0084914714,0.0141280731,-0.0014043665,0.0066603813,-0.0280158967,-0.0162881371,-0.0116123166,-0.0024578441,-0.0001663146,0.0122004962,-0.0240557138,0.0110026607,0.0164665375,-0.0053040753,0.0029622889,0.0301977936,-0.0120700402,-0.0010118327,0.0234137792,-0.0091286264,0.0098514622,0.0203156453,-0.0017396173,0.0067177289,0.0156560708,-0.0043305946,-0.0117789926,0.0011468545,-0.0169402137,-0.0201876964,0.0010840409,-0.0263618659,-0.0172680113,-0.0033849992,-0.0036921648,-0.0111375665,0.0104652708,0.0072783735,-0.0039450726,-0.0020558676,-0.0139904125,-0.0192611795,-0.0032925277,0.0085727554,-0.001588641,0.0111330701,-0.0145938359,0.0214723013,0.001808885,0.0040936279,0.0019069128,0.0085698385,0.0003130075,0.0148677966,0.020157434,0.0265340358,0.0092519773,0.0131730977,-0.0012245638,0.0066358545,-0.0001048783,-0.0038135804,0.0011775927,-0.00318398,-0.0126018245,0.006378368,-0.0148332147,-0.0135957357,-0.0130278105,-0.0048824307,-0.0099714641,-0.0000938934,-0.0081802839,0.015138777,0.0043770312,0.0017534296,0.0014012939,0.0097581372,-0.0144275818,0.0046340297,-0.0035783215,0.0050278744,0.0099905264,0.0149487052,0.0210315436,0.0126061421,0.0242487788,0.0194919519,0.0122677516,0.0076909368,0.0044571701,0.0255375002,0.0015962134,0.0076243253,0.0104900356,-0.0017538968,-0.0004904188,0.0102180252,0.0207396299,0.0005343796,-0.0017309592,0.0455524288,0.0045742402,0.045492433,-0.0117150201,-0.0000223949,0.0180427395,0.0080566369,0.0167334061,0.0042374558,-0.0008774081,-0.0120073799,0.0147375856,0.0116120344,0.0309432186,0.0025953858,-0.0090115098,-0.0110619823,0.0160601363,0.0062418785,-0.0055144406,-0.0216313619,-0.0274393018,-0.0001340262,0.005034396,0.0059594,0.0016461828,-0.0117423991,-0.0092359539,0.0033513086,0.0226987097,0.0108858794,-0.0066141086,0.0048874314,0.0066112895,-0.004434858,-0.0215186961,-0.0260800291,-0.0054180566,-0.0167617481,-0.0037421775,-0.0005328386,-0.0195928719,-0.0096181836,-0.009465497,-0.0002637132,0.010625937,0.0066273496,0.0076220976,-0.0151749495,0.0026138211,0.0251721051,0.0012783931,0.0026537948,-0.0094821705,-0.0095702764,-0.0090163937,0.0266869664,0.0320292339,0.009518926,0.019346131,0.0072424901,-0.0003988893,0.0082102232,0.0275881197,0.0045915623,0.0194684081,0.0074787643,0.00536768,-0.010647798,0.003365841,0.0027038259,0.0138799949,0.0256469995,-0.0009766067,0.0114375986,-0.0082080392,0.0015033567,0.017910732,0.002963841,0.0066363481,0.0022741901,-0.0053629591,-0.0027136258,0.0176050812,-0.0011586758,0.0110607902,-0.0106186103,-0.00859641,-0.0043529077,0.0127251912,0.0070807389,0.0021257196,-0.0132901827,-0.0199296623,0.0027890161,0.0102498112,-0.0004007982,-0.0075132474,-0.0049055638,-0.0101905251,0.0064136432,0.0244636964,0.0100536002,0.0086257635,0.0035431888,0.0055469531,-0.0070273262,-0.0025958742,0.0673264042,-0.0045882459,0.0533848442,-0.0163869653,-0.007455945,0.0144330077,0.0034833306,0.0166223515,0.002941248,-0.0032761774,-0.0043650083,0.0182825588,0.0112635214,0.0287098493,0.0003723648,-0.0162279978,0.0020873053,0.0155626368,0.0067175138,0.0065582441,-0.0104062036,-0.0227881391,-0.0005798147,0.0142389173,0.0113313757,0.0073020197,-0.0076376335,-0.0029472813,0.0002906032,0.004615163,0.000334595,-0.0035955855,-0.0046708239,0.0072197355,-0.0023231809,-0.0231409874,-0.0111686718,-0.0084390147,-0.0267656967,-0.0055592535,-0.0020189029,-0.0179490112,-0.0069730552,-0.0083632013,0.0099669565,-0.0087739751,0.0037065751,-0.0075332653,0.0165159144,0.0140355797,0.0215014666,0.020974908,0.0164159592,-0.0125360871,0.014117185,-0.0071280613,0.0269836113,-0.0010734159,0.0187639967,-0.0064600599,0.0094567444,-0.0008117727,0.0305301007,0.0063818945,0.0064105154,0.0036893338,0.0042199478,0.0107121738,0.016667055,0.0175167695,-0.0007060739,-0.0162210036,-0.0226728916,-0.0115548093,-0.0186802391,-0.0133172367,-0.0090663778,-0.0214045811,-0.0171502251,-0.0159818772,0.005166865,0.001509215,0.0027603931,-0.0126939937,-0.0120345661,0.0077384491,0.0120639335,-0.0081841126,0.0178135987,0.008631858,-0.0054781539,-0.0077159605,0.0085782483,0.0061595249,0.0109026497,0.0118408445,0.0011866695,0.0195591878,0.0192018896,0.0105857542,0.00516761,-0.0009495568,-0.0041498132,0.0025489908,-0.001476839,0.0254434999,-0.0006520156,-0.0023027724,0.0370563567,0.0057737995,0.0296505447,-0.0159858987,-0.0076946085,0.0148964906,0.0027795192,0.0098649571,-0.0024307468,-0.0046283044,-0.0033231641,0.0063988897,0.0135420738,0.0150994128,-0.0140141705,-0.0157866981,0.0020969212,0.0069639478,-0.0062774136,0.0017256198,-0.0208141655,-0.0265676212,-0.0061649182,0.0094094751,0.0045472761,-0.0059981626,-0.0046995105,-0.0157935023,0.0113326972,0.0143811218,0.0097431773,0.0079578524,-0.0035202904,-0.0028408561,-0.0052358871,-0.0035904881,0.0392072462,-0.0013389562,0.02510079,-0.0044448976,0.0058591506,0.0116803879,0.0008357867,0.0069351178,0.0040662852,0.0009725646,-0.0096859531,0.0139943222,0.0143115427,0.0127394861,-0.0087054474,-0.0142804505,-0.008132345,0.017567724,0.0064682551,0.0009721505,-0.0237955265,-0.0286929868,0.0000872096,0.0046030199,-0.0005136461,-0.0060408963,-0.0079167662,-0.0193016827,0.011817419,0.0152247101,0.0052151885,-0.0043569612,-0.0063575571,-0.0019954732,0.0042731799,-0.0155152045,-0.0239550825,-0.0082640024,-0.029124612,0.0003684343,-0.0084749712,-0.0131790042,0.000962809,-0.003414389,-0.0038188887,-0.0149085708,-0.0084049478,-0.0234251972,-0.016866101,0.0032941047,0.0055358717,0.0150563568,-0.0020775537,-0.0010799787,-0.0003132285,0.0077024442,0.0037289595,0.0037646072,0.003423031,-0.0075314571,-0.0081513766,0.007400848,0.006376036,0.0037021888,-0.0001982715,0.0159250833,0.0115869716,-0.0073647001,0.0143552581,0.0025523554,0.005010094,-0.0316037089,-0.0222209506,0.005466226,-0.0137887476,0.0071093412,-0.0041034902,-0.0285905283,-0.0050021303,0.0070907399,-0.0074310838,-0.0140589932,0.0003251983,-0.0033082792,0.0128726484,0.0151497778,0.0056638424,-0.0050078696,0.0060197371,0.0008662746,0.0143924924,0.011921606,0.0233170278,0.0214726962,0.0114680668,0.023280926,0.0051330519,0.0188510269,0.0136596169,-0.0004833677,0.0063094809,0.0077586561,0.0107186632,0.0283619389,0.0098185427,0.0265390482,-0.0004028805,0.0006760479,0.0048248661,0.0126007451,-0.0066665276,-0.0076470929,0.0010189288,-0.0050911154,-0.0128603494,0.0196929909,-0.0023983535,0.0053338693,0.0140712056,0.0081804218,-0.0147270681,-0.0056722979,0.0248223487,0.0073208013,0.0092868861,-0.0105101457,0.0090464493,0.0218947772,0.0201143865,0.0197177734,0.0113837514,-0.0036900614,0.0223268177,0.0059466688,-0.0002020155,-0.0017611482,0.0092324875,0.0104897255,0.0007075766,0.015808152,0.0240327325,0.0157189723,0.0026289115,-0.0019270515,-0.0235967878,0.0003095429,-0.0000852272,-0.007053683,0.002728676,-0.0049508018,-0.0200894121,0.0000191991,0.0212909002,-0.0069096466,0.0146300159,-0.0238358621,-0.0131238783,-0.0105294017,0.0030349891,-0.0069030533,0.0054505146,-0.0276262537,-0.0064795264,0.0120677603,0.0125841377,0.0170798711,0.0204441417,0.0089776283,0.0169626437,0.0143816769,0.0238749292,0.0237130411,0.0217836797,-0.0136170536,0.0192419123,0.0281048976,-0.0132726664,-0.0025407816,0.0035838969,-0.0181552004,0.0539136901,-0.0072284406,0.0334239118,-0.004083429,0.0081914803,0.0133512737,-0.0018513175,0.0003666059,0.0082192952,0.0077915899,-0.0034491774,0.0069484427,-0.0036571664,0.0203906894,-0.0157822762,-0.004784829,0.0005565946,0.000787548,-0.0072199316,0.0057142801,-0.0121139353,-0.0040772082,0.0030621476,-0.0002870021,0.0002974533,0.0040143537,-0.0006551634,-0.0010960293,-0.0036305375,-0.0198725369,0.0024165639,-0.0032060628,-0.0030243865,-0.0068376884,-0.0039122449,0.0077477894,0.0368933752,0.0012598982,0.0310058147,-0.0172117632,-0.0040987851,0.0184475929,0.0134716071,0.0152455894,0.0047603692,-0.0019347168,-0.0058492851,0.0198493823,0.0035676737,0.018188633,0.0016736113,-0.0050218594,-0.0016659203,0.0135118281,-0.0035399052,0.0007559516,-0.0113253957,-0.0201618169,-0.0061374237,0.0089947702,-0.0020674353,0.0013577477,-0.0089952424,-0.0109596243,-0.0015056407,0.0231823139,0.0116188359,-0.0034752856,-0.0021457016,0.0076814434,-0.0039942544,-0.0004722063,0.0368133597,0.0013188474,0.0256325193,-0.0218205135,-0.0064443029,0.0105394339,0.0029489435,0.0123836556,-0.0086499993,-0.0116701722,0.0055209561,0.0194761008,0.0090514505,0.0238745473,-0.0039209295,-0.0229593273,-0.0104297698,0.0104563981,-0.0037870929,0.0023392476,-0.0250579026,-0.0289316215,-0.0071055782,0.0013561888,0.0036519361,-0.008502081,-0.0115068685,-0.0147644319,-0.00133792,0.0228843484,0.011051584,0.0045609903,0.0018459052,-0.0042632669,-0.0022833138,0.0027971193,0.0321130455,-0.0004201889,0.0384183899,-0.0223808344,-0.0121814515,0.0190198943,0.0189693086,0.0220830031,0.0078117517,-0.0012642068,-0.0144557012,0.0179639217,0.0111121517,0.0258538369,-0.0091473991,-0.0147294514,-0.0007175145,0.0219350029,-0.0055886661,0.0038810575,-0.0132989855,-0.0250449833,-0.0130685503,0.0039380332,-0.0009734741,-0.0128792105,-0.0049225916,-0.014352683,0.0073846867,0.011543463,0.0088228928,0.0064341165,0.0043785907,0.0014630188,-0.0002301327,0.0112451632,0.0129949739,0.0070068794,0.0016128861,-0.0008106587,0.004137658,0.0114173582,-0.0026918019,0.0108510023,-0.0102377282,-0.0115060182,0.0013081748,0.011208442,-0.0209851544,-0.0051386473,-0.0346758477,-0.0234379172,0.009472752,-0.0001769313,-0.014864441,0.0055973241,-0.0242397729,-0.0235133059,0.0195042063,-0.003383432,-0.0168884397,0.0054730228,-0.0111010587,-0.0178533364,0.0074432618,-0.0159347001,0.004298606,0.0134730367,0.0004805735,-0.0017890526,-0.0027997021,-0.0050926739,-0.0110694766,0.0153341647,-0.0180763789,0.0021904137,-0.0085165789,0.0001200653,0.0036629315,0.0030473748,0.0057244445,0.0053696288,-0.0014221973,-0.0168196224,-0.0034638809,0.0007423832,-0.0052481275,0.006340222,0.0058233053,-0.0102037899,0.0131833665,0.0175363999,0.0022666312,0.0185672268,0.0079663377,0.0174036361,0.0141318217,-0.0029558889,0.0003844189,0.0115633551,0.0149823064,-0.0032738245,0.0119104236,-0.0052838787,0.0057447148,-0.0051488103,-0.0153837269,-0.0028383581,0.0039492277,-0.0008142566,0.0125285294,0.0093322117,-0.0026914522,0.015281816,-0.0052886121,0.0413054675,0.0026309595,0.0131729888,0.0164107308,0.0023984336,-0.0374648832,0.004561428,-0.0199776553,0.0164775867,0.0008582471,0.0051783049,-0.0196853746,0.0123564461,-0.012715769,0.016272217,0.0022649101,0.0076706321,-0.0128249358,0.02349893,0.0013176508,-0.00914199,0.0189659502,-0.0115042301,0.0002620803,0.0144719295,-0.0096484525,-0.032024648,-0.0014612359,-0.0149726933,-0.0172371473,0.0103292763,-0.0289032478,0.0057675666,-0.0052532307,-0.0203963481,-0.0220020842,0.0033128883,0.013541068,-0.0099916421,-0.0037278726,-0.0147066852,0.0120659592,0.0153940758,0.0050850431,0.008019343,0.0004381844,0.0012458604,0.00703522,0.0201754346,0.0263362247,-0.0006890845,0.0042643906,0.0046141441,-0.001401361,-0.0027409077,-0.0027571307,0.014714825,0.0068069454,0.0227140971,0.0157108884,0.0252357498,0.0129760168,0.0053037363,-0.0048523536,0.0114161996,0.0364953764,-0.0000269498,0.0309132114,-0.0212005153,-0.0003817015,0.0110716186,0.0136567224,0.0116590317,0.0025780115,-0.0095235901,-0.0107039241,0.0183562674,0.013268956,0.0138030956,-0.0061674085,-0.0073618637,0.0009776353,0.0082936203,0.0024624956,0.002227874,-0.0110959234,-0.0147460336,-0.0072823786,0.0025041951,0.0077903015,-0.0108246943,-0.0137073277,-0.004416883,-0.000276393,0.0173264779,0.0122451903,0.0002041014,0.0049461583,0.0066616223,-0.0018510745,-0.0256961156,-0.0009867491,-0.0004817336,0.0039007163,0.0081897369,-0.0037062978,0.0012246233,0.0129475007,0.0286399052,0.0153027512,0.003363844,0.0146695096,0.0080633564,-0.0179932807,-0.0072113127,0.005066995,0.0128214573,0.025498597,-0.0138550978,0.0011334168,0.0032617529,-0.0093842912,0.0059468532,0.0322949737,-0.0106575135,0.0036082335,0.0245886799,0.0122089852,-0.0053020469,0.012957884,-0.0140750054,-0.0175120384,0.0162504818,0.0005624163,-0.0297423489,0.003467734,-0.0168629568,-0.0259379465,0.0312513262,-0.0066437079,-0.0060671172,-0.0005147167,-0.0141960708,-0.0017328438,0.0158898551,0.0112748742,-0.0144322235,0.0069957026,-0.0243586134,-0.0098687382,-0.0148322172,0.0090360688,-0.0173111036,0.0243768841,-0.0166253503,-0.0041414346,0.0028896674,-0.004531472,-0.0184554253,0.0260294955,-0.0008377406,-0.0198700204,0.000466745,-0.006902976,-0.0220669881,0.0243388303,-0.0236445218,-0.0166519731,0.0169407781,-0.0110806134,-0.0100729018,0.0034011367,-0.0283251815,-0.0037414667,0.0071659517,-0.0132600246,0.0003371895,-0.0045117214,-0.0085037388,-0.0065493789,0.0135951489,0.0001857823,0.0149930455,0.0106818108,-0.0246380493,0.0129125267,-0.0097453091,0.0099862702,-0.0065172054,0.013178817,-0.0016297146,0.0100910133,-0.0029193747,0.0062305774,0.0133360196,0.0078364927,-0.0040551601,0.0208731163,0.0216102693,-0.00242634,0.0115718795,0.0204776935,0.0045874584,0.0095250141,0.0185243376,0.0027075852,0.0196994487,0.0015176062,0.0116924681,0.0236693658,0.0025495947,0.0120210992,-0.0194583852,0.0078251259,0.0132467775,-0.0078875106,0.0065715834,-0.0123625826,-0.0011115093,0.0083606886,0.0049722255,-0.0166653618,-0.0042093047,-0.0313444957,-0.0296481531,0.0139757032,0.0044431142,-0.0001161368,-0.0082689933,-0.0187174063,-0.0349107608,-0.0032432415,0.0064502447,0.0074808798,-0.0052306363,-0.0143466834,-0.0119993668,0.0062535633,0.0069060302,0.0102864522,0.0117233219,0.0121231452,-0.0099989297],[0.0019195286,0.0061138826,-0.0141120199,0.0021671311,0.006147061,-0.0048731831,0.0006564197,0.0174320787,0.0105107557,-0.0167662241,-0.001928332,0.0189001206,-0.0005490729,-0.0030868822,0.0289587416,-0.0038760582,-0.0023241909,0.0132907629,-0.0041376245,-0.0105453851,-0.0005291742,0.0151722748,0.0199114643,-0.008145839,-0.0106031578,0.0067990143,0.0131407632,-0.0173616316,-0.0021885044,-0.0168528091,-0.0099800406,0.0178753901,0.008040268,-0.0022615723,0.0109135006,0.0192748588,0.0143013746,0.0103534078,-0.0206609461,-0.013136615,-0.0049254992,0.0038353058,0.0042307959,-0.0057634246,0.0152672939,-0.0130876405,-0.0043068281,-0.0189794097,-0.0044242088,-0.0114482464,0.0160262566,0.0132037047,0.0061907233,-0.0012296397,0.0048262901,0.0051566307,0.0094836103,-0.0117955264,0.0000155012,0.0494918749,0.0175646115,0.0215251036,-0.0007162199,0.0091911172,0.0295310374,0.0099107772,0.0100996718,-0.0080172159,-0.0239849295,-0.0175722148,0.0154669136,0.0043179444,0.000911726,-0.004823104,-0.0381295122,-0.0013119155,-0.0297561344,-0.0041482807,-0.0045309537,0.0043233931,0.0159700252,-0.003792177,-0.0029301627,-0.0192997847,0.0008510479,0.0002655699,0.02780791,-0.0070442748,0.0296458267,-0.0293554384,0.0115796831,-0.0021030705,0.0209221523,-0.0033792586,0.0094914166,0.0351857767,-0.0051597306,0.0058568511,0.000790506,-0.0152567122,0.0070283678,-0.0010254874,0.0050490093,0.0173670053,-0.0090587307,-0.0066673704,0.0285231434,-0.002433609,-0.0017241627,0.0076099215,-0.0120060192,-0.0053136968,0.0039083799,-0.0104867229,0.0021869184,0.0067051682,0.0149741275,0.0128282392,-0.0055216872,0.0021962738,0.0124027422,-0.0035432116,-0.0122767333,0.0071190791,-0.0004039111,-0.0208187532,-0.015969269,0.0183730479,0.0077573867,0.0198903382,0.0145573635,0.0073892153,0.0003088754,0.0074515222,-0.0099344784,0.018399246,0.0245171431,0.004636527,-0.0050822194,0.0083741015,-0.0015382086,0.0155676063,0.0090607833,0.0102132289,0.0000094956,-0.0105406092,0.0019706064,-0.0158533026,0.018523125,0.0063455729,0.0039705122,0.0190800223,0.0143160447,-0.0034993894,-0.0230978131,-0.0100468276,0.0083252573,0.00978861,-0.0007964274,-0.0072034555,-0.0121571384,0.0142573118,0.0106134769,0.0231337752,-0.0057282727,-0.0167929698,-0.0001349736,-0.002736805,-0.0149319507,-0.0073904144,-0.002239394,-0.0248044338,0.0040719011,-0.0123724975,-0.0001686526,0.0025050766,0.0010576177,-0.0126313083,-0.012894948,0.0164808482,-0.0016163314,0.0015201074,0.0188055411,-0.0141383521,0.0229477324,0.0030219723,-0.0011188071,0.0168071743,0.007483351,-0.0205722358,-0.0232534036,0.0183851216,0.0090205045,0.0101828799,0.0052250652,0.0063804318,-0.0107273795,-0.0034194363,0.0057732905,0.0152556561,0.0141320471,-0.0016068612,-0.0037996902,-0.0074196211,-0.016708903,-0.0011459831,0.0224905685,0.0038004029,0.0179095082,-0.0124941999,-0.0047042989,0.0101314755,0.0205081832,0.0116057023,-0.0060063554,0.0117604285,0.0010207773,-0.0048559145,-0.0017977583,-0.0087674772,-0.0122954473,0.0126528777,-0.0035872706,0.0175216235,0.0255653318,-0.0003835965,-0.0178124718,0.002514625,0.005932665,0.0023733668,0.0072143381,0.014222675,-0.0166906416,0.0022302673,0.0090181576,-0.0020417706,-0.000061181,0.0180660319,-0.0064894175,-0.0042647002,-0.0091966791,0.016214272,-0.0068721669,0.0035446468,0.0048094266,0.0049772924,0.0032811612,0.0187491849,-0.0038565421,0.020587435,0.0117223207,0.0188358184,0.0078664888,-0.0003531852,-0.0383815728,0.0065458957,-0.0435210578,-0.0004374859,0.0026448432,0.0136370296,-0.003766208,0.0020633277,0.0205700882,-0.0063481019,-0.0086613754,-0.014117863,-0.0122404844,-0.0215039533,0.0169689078,0.002864188,-0.0125536863,-0.019145811,0.0054810857,0.0023391366,0.0023059952,0.0259653348,-0.0002743354,-0.0082203131,0.0033588482,-0.0059398431,-0.0097292308,-0.0112387175,-0.004334616,-0.0084517235,-0.0078408094,0.0144157037,0.0063472618,-0.0143013075,0.0016090106,-0.0062838495,0.0005458017,-0.0085362913,-0.001309874,0.0140824961,-0.0036729237,-0.0112460274,0.0138676921,-0.0017663646,-0.0183988996,0.0098665012,-0.0005281509,-0.0155450497,-0.0111344438,0.0174481347,-0.0230683796,0.0082267141,0.0013491021,-0.0227361489,0.0181385856,-0.0042958944,-0.0095551731,0.0041667959,0.0115298387,-0.0105523383,0.0246346835,-0.0135870026,0.0094535453,0.0036337683,0.0089731012,0.0155241899,0.0219741371,0.002112397,0.0040951618,0.016764367,-0.0020697718,0.0092292242,-0.0141614974,0.0182524621,-0.0064314492,0.0104437713,-0.0021325089,-0.0003725111,-0.0003428317,-0.004237866,0.0198804084,-0.0161441397,-0.0061033764,-0.0161978696,0.0094953198,0.0086451722,0.0146910399,-0.0128656402,0.0040020193,-0.0117258243,0.0096377702,0.0005647683,0.0101322299,0.0107661327,0.0188639034,-0.001876094,0.0052847983,0.0073089078,0.0113199027,0.0002231793,-0.0066170343,-0.0214024857,-0.0243482031,-0.0059297052,-0.0055197128,-0.0030427778,0.0055764494,0.0125733586,-0.0377806611,0.0056052697,-0.0553347543,0.0110132163,-0.0001732911,0.0099545801,0.0030510256,0.004876663,-0.007081585,-0.0058620884,0.0083656106,-0.0127351424,-0.0067154095,-0.0146957049,0.0296763182,0.0054382747,-0.0142544685,-0.0189707354,0.0018339227,0.0003245877,0.0065574632,0.0253741909,0.0004446262,-0.0141388662,0.0065661455,-0.002735019,-0.0003245895,0.002501169,-0.0018882756,0.0048258924,-0.0102459183,0.0143024577,0.0165515821,-0.0043979404,0.0001452501,0.0018226829,0.0058761504,-0.0241383184,0.0179159958,0.0017488515,0.0024089699,0.0179519858,0.024281472,-0.0184805784,-0.004841364,0.0212920234,0.0085551916,-0.0171566512,0.0170020964,0.0119815264,-0.02523591,0.0076841917,0.007086752,0.0058648339,-0.0114675406,0.0006228781,-0.0154956747,-0.0227802303,-0.0034339069,-0.0070996955,0.0009130874,0.028580986,0.0071650581,-0.0009984376,0.0031067256,-0.0030125361,0.0245513413,0.0126312776,0.0136584127,0.0153221255,-0.0016536673,-0.0038477504,0.0186921544,-0.021339396,0.0111192688,0.0029096704,-0.001635612,-0.004003149,0.0309112445,-0.0006751062,-0.0196847506,0.0136459162,0.0094940485,0.0150091434,-0.0059311474,0.0115198232,0.0098883379,-0.003593443,0.0024733492,-0.0204682443,-0.0129636116,0.0141445016,0.0219456647,-0.0200525075,-0.0104860459,-0.0044130515,0.0025924174,-0.0060210181,0.0138901807,-0.0118442578,-0.0024679156,0.0127146458,0.0329145975,0.0064972197,0.0125916041,0.0022898777,-0.0045262366,0.0058546071,-0.0239328109,0.0235702172,-0.0216325782,-0.0045093186,0.0092561971,-0.0030746029,0.0149908075,0.0004865952,0.0069195875,-0.0098414831,0.0064745904,-0.008003802,-0.0017363714,-0.0013434483,0.0172164589,-0.0059613795,-0.0069453423,-0.0149512915,0.0153855858,-0.0061021727,0.0154397553,0.0268646125,0.0024408696,0.0004492102,0.003163354,-0.0095721874,-0.0027889884,-0.000439135,-0.011188671,-0.0016736218,-0.0081810271,-0.0048230002,0.001332907,-0.0078725182,0.0135489916,0.0116307661,-0.0279751364,0.0184045155,-0.0155254928,0.0110949874,0.0042085093,0.0058896411,-0.0009551322,-0.011981179,0.0011171569,-0.0111027099,0.0071857935,-0.0123663498,-0.0067765727,-0.0014098965,0.0206417572,-0.0122842956,0.0031846412,-0.0051079136,0.0106904227,0.000007604,0.0186096337,0.0238066521,0.0077775139,-0.0010531779,0.0094498834,-0.0010178686,-0.0061277733,0.0034563981,-0.009757855,0.0022387085,-0.0084046861,-0.0083053121,0.0226256046,0.0024397264,-0.002994675,0.002736714,-0.0042536655,-0.0084561072,0.0190186109,0.0084923068,0.0018387273,0.0097208926,-0.0030938576,0.008215962,-0.0111387772,0.002111525,0.0038614343,-0.0018247563,-0.0148592489,0.00754131,-0.0143179195,0.0138265733,-0.0109276874,0.0059742383,0.0017525849,0.0094451392,0.0089877443,-0.0209983941,-0.0084887892,-0.0096110431,0.0098195355,0.0077214092,-0.0003770665,0.0060771895,-0.0059209075,-0.0010845828,0.0274752732,0.0174970385,-0.0089609772,-0.003321816,-0.003263012,0.006533578,0.0048627323,-0.0089483373,0.0180465002,0.0031529316,0.0005521343,0.0065255137,0.0118913203,0.0101456987,-0.0022367167,0.0231311303,0.0119791171,0.0155840637,-0.0125616547,-0.005261994,-0.0007404213,0.0091422237,-0.0093601011,-0.0050182859,-0.0180461928,0.0075336029,0.0045495941,-0.0115868943,-0.0133668398,0.0029990445,-0.0037405319,0.0096566854,0.0011610213,-0.0045079938,-0.014420731,0.0091000339,0.0132733136,0.0221257564,-0.0010989775,-0.0007779013,0.0025942619,-0.0036523894,-0.0074531343,0.0008698053,-0.0006466996,-0.006561453,-0.0012870524,0.0127599202,0.0078748446,-0.005691126,0.0020002187,0.0197167955,0.0086762309,0.0081502935,0.0034187976,-0.0118494602,-0.0087502431,0.0059948997,0.0104125226,0.0073741088,-0.0116721326,0.0043559442,0.0194236785,0.0083589572,0.006717483,0.0155745698,0.0079533439,0.0194769986,0.0221441705,0.0139429076,0.0155528337,0.0035101816,0.0307252724,0.0141798416,0.0203834288,0.0122285336,0.0004917636,0.0071467794,-0.0119443731,-0.016026387,0.0232131053,-0.007167161,-0.0002840131,-0.0086505506,0.0093517918,0.0094595598,-0.0187585559,-0.0033132143,0.0078514805,-0.000115588,0.0038167646,0.0123567255,0.0162863228,-0.0097214039,-0.0069571552,0.0240250397,-0.0013442487,0.0025649196,0.011377736,0.0161869098,0.0142852245,0.0092189889,0.0100254826,-0.0105853556,-0.010262846,0.0018726827,-0.0016473611,-0.0027595188,0.0154245626,0.0213072151,0.0012274508,0.0127173625,0.0063894191,0.0058701076,-0.0329397991,0.0155647174,-0.0418565311,0.0017517331,0.0058789994,-0.0068392549,0.0291827768,-0.0135015724,-0.0081039183,0.0044676638,0.0005887953,-0.0080810031,0.0304445606,-0.0025039574,0.0336354002,-0.0254660398,-0.0069806427,0.0011218732,0.0418051779,-0.0061727557,0.0031247132,-0.0051373718,0.0088206343,-0.0150086479,0.0158953406,-0.0154881794,-0.0032331659,-0.0162627194,0.0207287148,0.0100574102,0.0126604997,0.0076842732,0.0119964257,0.0068490393,0.0006514164,-0.0041972534,-0.0259657931,0.0127103422,-0.0309997369,-0.0011936774,0.0031781469,0.0080258045,-0.0041824747,-0.0037025597,0.0129001904,-0.0037539161,0.0023276974,-0.0148072299,0.0071370997,-0.0136285825,0.0054877433,-0.0133760842,-0.0023890163,-0.012430992,0.0137977973,0.0021732606,0.0188246425,0.0171033926,-0.0045746039,-0.007677264,-0.0036932183,0.0011229891,0.0023453606,-0.0054955324,-0.000805465,-0.012364665,-0.0161039662,-0.0018569828,0.0109818587,-0.0132778231,0.0078994529,0.0045894445,-0.0348674431,0.0232788958,-0.031971097,0.0043322975,-0.0071040187,-0.0016127946,-0.003520756,-0.012840447,0.0216204878,-0.0117510911,-0.0138477217,-0.0078761121,0.0029429717,-0.0030427054,0.023405483,-0.0013541871,0.0020127401,0.0010067784,0.0065312413,-0.0040463349,0.0082296105,0.0331364609,0.0053851842,-0.0068888119,-0.0024529642,-0.0076092086,0.0010628693,-0.0129878791,0.0032800999,-0.0072405287,-0.0024698528,0.0017846465,0.013692921,0.0021624656,0.003618354,0.0102155507,-0.0186434109,0.0247501153,-0.0246903691,0.0024219884,0.0007079828,0.0140613178,-0.006383976,-0.0097642299,0.006287979,-0.0061776266,-0.0067472467,-0.0094167609,-0.0072117061,-0.0073919846,0.0054345727,0.000724313,-0.0041660219,-0.0218542125,0.0181616955,-0.0018478527,0.0135340178,0.0132588306,0.0081697172,-0.0078206928,0.0134007549,0.0014195921,0.0127096968,-0.0031995792,-0.0045902897,-0.0045836992,-0.0024343904,-0.0062932489,0.019459011,-0.011603374,0.0168264378,0.0051441542,-0.009905708,0.0221726727,-0.0068721855,0.0116095059,0.0168055594,0.0005308088,0.0040576006,-0.0095772743,0.0188730527,-0.0057396744,-0.0044343839,0.005896423,0.0441930555,0.0161001366,0.0344513915,-0.0214914065,0.013801544,0.0096534137,0.0203544255,-0.0088224094,0.0091971969,0.0125275711,0.0218920447,0.0108840857,0.01074907,-0.0071198074,0.0261502229,-0.0010465855,0.0169352721,0.0120653249,-0.0112112127,-0.0032349017,0.0007548006,0.0030907393,0.0022210574,-0.0030575066,0.0137404334,-0.0129769193,0.0051986012,0.0044198604,-0.0037321877,0.0024503702,0.0282594096,-0.0163960736,-0.0006984156,-0.0039523211,0.0097807441,0.0033246847,0.0054501551,-0.0146802356,-0.0158199891,0.003205891,-0.004297968,-0.0134648317,0.0014622656,0.0010933668,0.0014026897,-0.0178762823,0.0172343403,0.0046189893,0.0255369302,-0.0069533354,0.0087524252,0.0034867423,0.0017363474,0.0228757728,0.0274280086,0.0020433732,0.0185936224,0.0046585649,0.0099073751,-0.0048017451,0.0057696607,0.0086058825,-0.0232448485,0.0046204641,-0.001614062,-0.00471135,0.0300137699,-0.0467963144,-0.0222191531,-0.0061999303,0.0017330126,-0.0040206974,0.0467023626,-0.0169480294,0.0354941152,-0.0437502787,0.0112360604,-0.0192859862,0.0486450046,-0.0221010931,0.0103465831,-0.0436091609,0.0225675199,0.0064880643,0.0168678779,-0.0346398987,0.0069273496,0.0011581604,0.0058902097,0.0216023214,0.0193800423,-0.0233521871,0.0325325951,0.0181711763,-0.0007628304,-0.0054420754,0.0108807199,0.0098263659,0.0217358992,0.0032389681,-0.0008046468,0.0119055007,-0.0020592916,-0.007167994,-0.0183601808,0.004887695,0.0068628639,0.0055074142,-0.0045738206,0.0151195899,0.0065747234,0.0001337538,-0.0095538078,-0.0055073393,-0.0116266441,-0.0075699817,0.0230571851,-0.0142460633,-0.0080985501,0.0157965254,0.0244306773,0.0163538363,0.0288108345,-0.0062510702,-0.0080957031,0.0146362465,0.0003389637,0.0285829809,-0.0027877162,0.0065076798,0.0035841113,0.0005097724,-0.0186616443,0.0072906967,-0.0310345832,0.0052278107,0.0096693886,0.0133008342,0.0070293783,-0.0106330141,0.0136737414,-0.0043348423,-0.0092320805,-0.0019785638,-0.0107691288,-0.0163736101,0.0118621485,-0.0159912948,0.0044114236,-0.0161515884,0.0133601343,0.0023182468,0.0147864996,0.0220699459,0.0057490477,-0.0020477076,0.0092952335,0.0132557349,-0.0043910076,0.0018886728,-0.0057673301,-0.0142572969,-0.0145543814,0.0134380888,0.0093335276,-0.0034584035,0.0026563266,-0.0134584317,0.0097330641,0.0054745697,-0.0056894016,-0.0013358857,-0.0009514229,-0.0050791013,0.0064020776,-0.0419215076,-0.045620732,-0.0001934515,0.0029474015,0.0048859683,0.0337206163,0.0059286393,-0.0088975383,-0.0073708496,-0.0065632612,-0.009391428,0.002459439,-0.0221729614,0.0085929548,-0.0220507048,0.0211463813,0.0039526247,0.0075120549,-0.0036528974,-0.003734479,0.0014735826,0.0035219041,0.0030239429,0.0277371351,-0.024503978,0.0167457331,0.03886104,-0.0013136967,-0.008793002,-0.0028775437,-0.013144806,0.0050936141,-0.0016862281,0.0039752941,0.0135904243,0.013996385,-0.0144297574,-0.0291177332,-0.0035894399,0.013047901,0.0096658608,0.0231149066,0.0121151684,-0.0058835223,0.0096193384,-0.0012594156,0.0070358468,0.0032463716,-0.0040815263,-0.0027096714,0.0205758512,-0.0086864419,0.013991666,-0.0027864424,-0.0050917743,0.0002707425,-0.004174015,-0.0019787014,0.0133391498,0.0065097138,0.0101470901,0.0083387531,-0.0029828812,0.0028132135,0.0006784814,-0.0011814251,-0.0238311142,-0.0037201717,0.0108635118,0.0041164714,0.0107242186,0.0162671544,-0.0108153801,-0.0123688364,0.0084400177,0.0028236331,0.0032540269,0.0289436076,-0.0147753004,-0.0115391659,0.0058425814,0.0025094836,0.0210050829,0.0172270183,0.0022789685,0.0026482483,-0.0036319764,0.0039395923,0.0009992907,0.0010710456,-0.0082958266,0.0007923658,0.0085084038,-0.0079669328,0.0046725874,0.0051218187,0.0088433614,-0.000964929,0.011173469,0.0065487456,0.0062695527,-0.025739491,0.0301316679,-0.0211994126,0.0057888427,0.01371672,-0.0071380069,0.0257909652,-0.0099804914,0.0079567041,-0.0151442494,-0.0028761905,0.0050075045,0.0267889481,0.0056504668,0.0347231627,-0.0147325005,0.0153472032,0.0049509951,0.023489289,0.0068716877,0.0022703414,0.0167354997,0.0115463128,-0.007994676,-0.0031070812,-0.0029966,0.0236526374,-0.0192770064,0.0166310705,-0.0115518225,-0.0004590873,-0.0096342312,0.0076105711,0.0061273165],[-0.0012870253,0.0024884385,-0.0104875658,-0.0126729831,-0.0122432448,-0.0067873159,-0.0077628768,-0.0122486828,0.0119430777,-0.0069029764,0.0327558108,-0.0104888035,0.0073128715,0.015515117,-0.0037998003,0.0062211943,0.0106902504,-0.0103648826,-0.0020901538,0.0092543066,-0.0044365199,0.0060989475,0.0152392033,0.0080118319,0.0114514297,0.0199142192,0.0155404238,0.0200309157,0.0261020977,0.015685318,0.0069998559,0.007277621,-0.006779315,-0.0000278098,0.0024852436,-0.0080287205,0.0047164555,0.004698263,0.0133743146,0.0129994797,0.0107643204,-0.0027799874,-0.0129756527,0.0108286673,-0.0094923815,0.0097193774,0.0135579268,0.0086446386,-0.0118734539,-0.0083880136,0.0067639402,0.0170907769,0.0166133102,0.0009398104,0.0072892476,-0.0268536247,-0.0004508554,0.0001353526,0.0022268933,-0.0170878451,0.0059167235,-0.0175482612,0.0126324939,-0.0329676159,-0.0289583337,-0.0136976987,0.0013515701,-0.0027745373,0.011944049,-0.0143313585,0.0103936419,-0.0268064663,0.0013480122,-0.0071753841,0.0199870579,0.0136939883,0.0241597965,-0.0170258395,0.0009595387,0.0071445266,-0.0098710405,-0.0015288403,0.0079786768,-0.0044791461,-0.0082880212,0.0151902074,0.0120576229,0.0115665914,0.0016912967,0.0139804548,0.0045042657,-0.0062866053,-0.000097091,0.009579598,0.0106848245,-0.0186528303,0.0141852386,-0.0180361457,-0.0064275973,-0.0076419027,-0.010551664,-0.004474476,0.0078268172,-0.0220060367,0.000295573,-0.0323244855,-0.0083122775,-0.0218258947,0.0028678153,-0.004592834,-0.0131266899,-0.0027202517,-0.0061045964,-0.0143521093,-0.0005009731,0.0076504066,-0.0016305863,-0.0024103862,0.0088760452,-0.0101509662,0.0096974755,-0.0084056621,-0.0009681844,0.0020000304,-0.0129920654,0.0105392272,-0.0043904721,0.0095502678,0.0033225634,-0.0037910505,0.015838705,0.0055150725,-0.010338814,-0.0012002457,0.0133264801,0.0101447282,-0.000874753,0.0027613589,0.0035224056,0.0045766486,0.0168539453,0.0161235649,0.0066330764,-0.0156550389,0.0027405275,-0.0165439453,-0.0044174418,0.0117341587,-0.0080576055,-0.0066806134,0.0019692939,0.0047605839,0.0127934841,0.0052597383,0.0433690101,0.0080079762,0.0113939969,0.009288325,0.0156596936,-0.0183702689,0.0012130212,0.0098033752,0.0147323078,0.0133906668,0.0098048542,0.0055673728,-0.0112908287,0.0109919803,0.0101388181,0.0090016713,0.0011296635,0.0213126149,0.0182946697,-0.0018969807,0.015639117,-0.0027164069,-0.01373972,0.0059794518,-0.0111466562,-0.0071729682,0.0013234626,0.0009752127,-0.022449702,-0.0166317355,-0.0018073987,-0.0059927669,-0.0063918605,-0.0022755777,0.0188151281,-0.0172229484,0.0003786614,-0.0153081911,0.0016820255,0.0108893551,0.0141385281,-0.0243282504,0.0071231229,0.0111803794,-0.0083610024,0.0213200785,0.0227422081,-0.0152678592,-0.0026424848,0.0265232529,-0.0135426866,0.0234469231,0.0174063444,0.0285205208,0.0155212991,0.013128153,0.0096716098,-0.0151982736,-0.012460541,0.0235625375,0.0169085376,-0.0045013088,-0.0013402179,-0.0019748153,-0.0205376297,-0.0079236971,-0.0179063808,-0.0059891632,-0.0055732438,-0.0140610663,-0.0034355132,-0.0119150411,0.0199484415,-0.0029073702,0.0015349902,0.0122589283,0.0052832058,-0.000058692,0.0022153792,-0.0116495537,-0.0102500105,0.0247581732,0.020057993,0.0055005979,0.0024845877,0.0082021961,-0.0121910097,0.0163801759,0.0170084983,0.0112859923,-0.0028954959,0.0127172507,0.0034351849,0.0163921081,0.0147501091,0.0156607963,0.0109344367,-0.0099380389,-0.0048202458,0.0066533368,0.0206527561,0.0201237593,0.0246359631,-0.0076369434,-0.0051840465,0.0206047483,0.0043240436,0.0109808343,0.0086917765,0.0091240127,-0.0066172881,0.0072116139,0.0129767638,0.0225604698,0.0195253659,0.012948229,-0.0155715244,-0.0154124619,-0.0049917507,0.0085914563,0.0057263975,-0.0027478035,0.0071642138,-0.0000834299,-0.0117460629,0.0089861955,-0.0121770687,-0.013039832,-0.0019497046,0.0125530092,-0.0088735288,-0.0098845726,-0.020297559,-0.0013568474,-0.0035916858,-0.0094375489,-0.0092041893,-0.0097200833,-0.0092294095,-0.0140285939,-0.0030811161,0.005203451,0.0019043047,-0.009270112,-0.0037890121,-0.0242280774,-0.0027656218,0.0067211222,-0.0138238091,-0.0042294217,0.0104301469,-0.0063791438,-0.0091504361,0.0140895359,0.0181704555,0.0239581969,0.0065709976,0.0188346803,-0.0022624866,0.0102414871,0.0046536876,0.0019031389,-0.0000495035,0.0140156886,0.0184123348,-0.0048555727,-0.0167135019,-0.0032363713,0.0115227764,-0.0142246494,-0.006751386,0.0025333532,0.0070108552,0.0102148987,0.0065886932,-0.0062197954,0.0003814299,0.0138649121,0.004698405,0.0030627656,0.0016355019,0.0189396217,-0.0133836493,0.003279052,0.0123414034,0.0237133224,0.0173622128,0.0038535071,-0.0189809389,-0.0048705041,-0.0125345076,0.0081794728,0.0082782684,-0.0154877016,-0.0080411462,-0.004764203,-0.0025220918,-0.0045563271,-0.0176423248,-0.0034125918,0.0011274787,0.0172860418,0.0048180697,-0.0008894701,-0.0001196847,0.0049953014,-0.001070663,-0.012495229,0.0266503002,0.0062453109,0.0271332208,-0.0046089333,-0.0110276695,0.0162762348,0.0024624465,0.0090990411,-0.000501757,0.0054933866,-0.0143179642,0.0073360633,0.0175197031,0.0176288541,0.0146854492,0.0164040662,-0.0102269314,-0.0029925734,-0.0084155807,0.0042924779,-0.0029513908,-0.0080164624,0.0048311353,0.0004093421,-0.0110140685,0.0008829836,-0.0099589992,-0.012531396,-0.0015456014,-0.0022684264,-0.0016001432,-0.0226052627,-0.0231458526,-0.0048206639,-0.0029101679,-0.0055830632,-0.0051078699,-0.0161020011,-0.001151173,-0.0162260346,-0.0067534521,0.0023645721,-0.0039759255,0.0006114977,-0.001496658,-0.0162506253,-0.0028561426,-0.0031359622,-0.0004301645,-0.0193245206,-0.0137617979,0.0123283155,-0.012255026,0.0278796647,0.0005769288,-0.0110635394,0.0018254451,0.0120711764,0.000730945,-0.0006772773,0.0143954298,0.0153770335,-0.0080586821,0.0229878183,0.0107243136,0.0140920877,-0.0212704279,0.0079635186,0.0041150432,-0.0142291235,0.0011688212,-0.0112403119,-0.0202149451,-0.0088170329,-0.00794545,-0.0058002239,-0.0078295646,-0.0115399612,0.0185725298,-0.0214672331,0.0069040228,-0.0131229628,0.0009200833,-0.0116214985,-0.0026863399,-0.0205424894,-0.0275620613,0.0106445234,-0.0000387123,0.0229939632,0.0098512108,0.003798495,-0.0111565692,0.0109072141,-0.0125897164,0.0127896806,0.0052540936,0.0133961076,0.0111849103,0.0046428074,0.0075467075,0.0038973894,-0.0211719684,0.0217917189,-0.0050386023,-0.0149523243,-0.0030850554,-0.0010430019,0.0171277318,0.0198041182,0.0159423165,-0.0140347285,-0.0116541022,0.020072164,0.0105481995,0.004122505,0.0040087868,0.0088520823,-0.0088532725,0.0015179316,0.0220448747,0.018680742,0.0125228129,0.0126624238,-0.0045804153,0.0010474725,-0.0068346453,0.0120524531,0.0098259598,-0.0153209371,0.0054756566,-0.002711487,-0.0112060979,-0.0068268622,-0.0093872426,-0.0078154914,0.0128556713,0.0111441147,0.0038619298,-0.0069001666,-0.0090023596,0.0033022712,-0.0096454937,0.0014623909,0.0218548309,0.0039110426,0.0132819898,-0.001247033,0.0054595168,0.0141855935,-0.0034922205,0.0090631749,-0.0003724889,0.0096902791,-0.016325701,-0.0028347559,0.0174594652,0.0170120467,0.0165901762,0.0050803064,0.0002557343,-0.0014130862,-0.0150561854,0.0114247072,0.0001014486,-0.009133948,0.0015210133,-0.0017084145,-0.0067196949,-0.0004538283,-0.0016551631,-0.0093541294,0.0085137719,0.0041066222,0.0013244618,-0.0170333255,0.0020609756,0.0099164536,0.0032440301,-0.0072276415,-0.0023642124,-0.0003380718,-0.0084568644,-0.0018711992,-0.0047148475,-0.0109436978,0.0104816109,-0.0208958145,0.0113449991,-0.0085281134,-0.0019156315,-0.0006928174,0.006541389,-0.0248562191,-0.0299135987,0.0002142482,-0.0088287564,0.0159793347,-0.0006234034,0.0043809945,0.0078494102,0.0019349918,-0.0146375801,0.0086471429,0.0042478857,0.0232914425,-0.0102523342,0.0127628725,-0.0071275425,-0.0042178873,-0.0152469361,0.000258873,0.0115239685,-0.0106562339,0.0033144304,-0.0049607828,-0.0192873608,-0.0141557474,0.001776604,-0.0135575654,-0.0059939297,-0.0149961542,0.0123128276,-0.0077455454,0.0030148735,-0.0153667973,0.0063672038,0.011218369,-0.0053493185,-0.0234407429,-0.0121814897,-0.0098244492,-0.0155166266,-0.0003643108,0.012551778,0.0152194286,-0.0050724423,0.0202940255,-0.0137235867,0.001098693,0.0247461814,0.0228781793,-0.0061073946,0.007663907,-0.0022833415,-0.0095068673,0.0103541408,0.0101381447,0.0187326781,-0.0061604865,-0.002581191,-0.0061053121,0.0047662416,0.0080032535,0.0062234956,-0.0171692017,-0.0019725594,-0.006871989,0.0279569961,-0.0085619548,0.0195433889,-0.0098946802,0.0025023834,0.0132127311,-0.000075587,0.0146404607,0.0114791207,-0.0000922284,0.005568638,0.0095954975,-0.0024507258,0.017328931,0.025295889,0.0130526293,-0.0043037492,0.0171121135,0.0222717505,0.0264306106,0.0078244293,0.0189815629,0.0115941027,0.0100420974,0.0111156804,0.0070845773,0.0109027568,-0.0255761966,0.0010292553,0.0011275116,-0.0062710028,-0.0048103286,0.00224885,-0.0041687856,0.0052521895,-0.0138057601,0.0210744925,-0.0157175679,0.0202995352,-0.0150062777,0.0146965515,0.0083586471,0.001144449,-0.0153754847,0.0046518543,-0.0027270836,-0.0010673499,0.0180274975,0.0238825753,-0.0013446431,-0.0099972505,0.0221608952,-0.0017689442,0.0116297668,0.0104987677,-0.0069440096,-0.0044740867,0.013240139,0.0094640655,-0.0109540997,-0.0014985616,0.0016613923,0.0000426289,-0.0147553459,-0.0138391834,-0.0081816418,0.023188917,0.0087569766,0.0226713121,0.005373749,0.0044475705,0.0156039903,0.0091688409,-0.0029089286,0.0122671844,0.0045210812,-0.0023643726,0.0157277267,0.0280393623,0.0112642925,0.0224015303,0.0209971201,-0.0159260873,0.0165565778,-0.0111541776,0.0112400977,0.0159425102,-0.0017212395,0.0008640369,0.0214995537,-0.0083012506,0.0092561776,-0.0064463345,-0.0064177029,0.0057566045,0.0037453473,0.0063631381,-0.0108566666,-0.019374894,0.0009257192,-0.0050182762,-0.0019367629,0.0106377052,0.0145234643,0.0144371819,-0.008442807,-0.0123463143,0.01130661,0.0026775363,0.0126009369,0.0075718258,0.0152844461,-0.0099448273,0.0091369655,0.0072898022,0.0246865992,0.0221140403,0.0049686613,-0.0075996583,-0.0093829511,-0.0061165174,0.0102068214,0.0036071853,-0.0045260405,0.0037684089,-0.0069820937,-0.0075913109,-0.0024827514,-0.0075248275,-0.0047761495,0.0081601012,0.010318297,-0.0054235654,-0.0049315649,-0.0087818718,0.0072759413,0.0040615625,-0.0041764881,0.0052407924,0.0202303343,0.0223055873,-0.0103735495,-0.0093546174,0.0095805135,0.0108073503,0.0084496764,0.0046062395,0.023818057,-0.0197003204,0.0030076816,0.0207354017,0.0170299597,0.023408737,0.0189368334,-0.0085816057,-0.0100885285,-0.0036495631,0.0144667048,0.0124766799,-0.0090163434,-0.0003720637,0.0008003809,-0.0035192533,0.000612025,-0.007150427,-0.007253495,0.0052241525,0.019061001,0.0085838661,-0.0144514544,0.0027090441,0.0050329994,-0.0046051252,0.0098076491,0.0144852549,0.0213441011,0.0198818035,-0.0096127326,-0.0145091834,0.0104914345,0.0117601762,0.0109197395,0.0002322742,0.0176817328,-0.0129303159,-0.0013330797,0.0072425059,0.0213985331,0.0134089403,0.015781194,-0.0178690236,-0.0038525267,-0.0156878717,0.0064924904,0.0000982132,-0.0092251236,-0.0023211553,0.0006980027,-0.008897922,-0.0007285078,-0.0078951428,-0.0147362677,0.003393631,0.0056846896,-0.000151614,-0.0214905459,-0.0137927067,0.004878867,-0.0021632819,-0.0004035922,0.0007253906,0.0138187418,0.00354564,-0.005398789,0.006683683,0.0127951996,-0.0002293696,0.011725639,0.0204840321,0.0145069035,0.0055591036,-0.0026994997,0.0052046948,-0.005511866,0.0282846205,-0.0011554389,-0.0045148269,0.0119530773,-0.0088952538,0.008903455,0.0151619092,-0.0129840588,-0.0028656491,0.00541481,0.0088642985,-0.0151949851,-0.0135331945,-0.0026519066,0.0087287389,0.0048312596,0.0232949592,-0.0186899267,0.0085895453,-0.0126559101,-0.0053947116,-0.0053410549,-0.0025378205,0.0075380835,0.0061992346,0.0015691095,-0.0066832951,-0.0146191241,0.0112503748,0.0096081421,-0.0011965571,-0.0179717317,-0.0026527722,-0.0092051215,-0.0062907329,0.0104123717,-0.0004390736,-0.0013977602,-0.0067090574,0.0164759476,0.0169771109,0.0081068538,-0.0055016074,0.0197772998,-0.0101314615,0.0133522255,0.0215843301,-0.0099709099,0.0238265898,-0.0031407855,0.0079797432,-0.0051880586,-0.0101399738,-0.0046480736,0.0096984543,-0.0220976751,-0.0097821904,-0.0080817286,0.0093249427,0.0067492938,-0.0001582082,0.0053686975,-0.0029622228,0.0007325169,0.0198340677,-0.0064220987,0.0448510572,-0.0010160621,0.0079413755,0.0037509578,0.0276005492,-0.0016583635,0.023965219,0.0170313269,-0.002719427,0.0294955764,-0.0149661172,0.0135165825,0.0321223289,0.0134397103,-0.0088325255,0.0203549825,0.0040729423,0.0073677315,-0.0027198361,-0.025412729,0.0151620992,0.0015876929,0.0073169861,-0.0041318438,-0.027625531,-0.0391136929,-0.0015115449,-0.0095468555,-0.0142872119,-0.0057325028,-0.0051827463,-0.0050855363,-0.0082319099,0.0012334498,0.0141031751,-0.0098390877,-0.0084975036,-0.0213158913,0.0036297434,-0.0073903981,-0.0006874945,-0.0061767562,-0.0075441822,-0.0143037485,-0.0168225784,0.0038026688,0.0164322406,0.0215260405,0.0009080308,0.0209500883,-0.0225579757,0.0170171577,0.018808201,0.0197590515,0.0055334191,0.0064518722,-0.0057073343,0.0075576906,-0.0141021134,0.0124551989,0.010835031,-0.0145350834,-0.0099121984,0.0022488446,0.0159445498,0.0141479382,0.0170138273,-0.0076236217,-0.0159864966,0.0098279575,0.0075312979,0.0018525911,0.0001576428,0.0144222053,-0.0130112125,0.0069354963,0.011122115,0.0221295301,0.0182581656,0.008768294,-0.0149195585,-0.013502405,-0.0080769425,0.011116147,-0.0009443747,-0.0058447928,0.001044319,0.0015723845,-0.0066583906,0.0058261976,-0.0126612773,-0.0123563297,0.0051093162,0.0142768212,-0.0014224703,-0.0178454239,-0.0065153791,-0.002064253,-0.0046202946,-0.0049570636,0.0028837263,-0.0039858283,-0.0152516859,-0.0011755994,-0.0141648268,-0.0064591686,0.0209936332,-0.0039374777,0.0233213175,-0.0162880011,0.00857493,0.0033269315,0.0025002526,-0.0038302119,0.0110485917,-0.0099721411,0.0119329635,0.0388743617,-0.0187037028,-0.0161924008,0.0420063473,0.014251559,-0.0170303304,0.0168554652,-0.0134762013,-0.005191755,0.0362062268,-0.0206713509,0.017080538,-0.0054683439,-0.0049490598,0.0086548217,-0.005439946,-0.0244615022,0.0023608017,0.0041076527,-0.0140846428,-0.0007596486,-0.018700799,-0.0102318404,0.0031802952,0.0043933117,0.0300729536,-0.0102004549,0.0426184349,0.0103259841,0.0114815943,0.0081715956,0.0097693074,-0.0272223037,0.0162075739,-0.0104015758,0.0066971905,0.0288934782,-0.00880461,-0.0003660784,0.0084981574,0.0005239254,-0.0094502335,-0.0019984266,-0.0096905529,0.0179355387,-0.0103570614,-0.003752355,0.0174348429,-0.0171480663,0.0020444957,0.0091900751,-0.0065436666,-0.0320501253,0.0012651628,-0.0150035303,-0.0132460203,-0.0146392742,-0.0164814387,-0.0171728451,0.0005955315,-0.0048809014,0.0103431568,0.0013178305,0.0097248442,0.01185448,0.0137470644,0.010075924,-0.002910939,0.0056902776,-0.0129639227,-0.0127864433,0.0028175847,0.0224900432,-0.0019115126,0.0048043448,0.0127780847,0.0286820829,-0.0093867322,-0.0033691661,-0.003970861,0.0033318824,0.01880759,-0.0004136172,0.0105686365,-0.013055698,-0.0016185747,0.0189685915,-0.0114157926,-0.0273873322,-0.0093910703,-0.0098515386,0.0148752714,0.0174705852,0.0165540818,-0.0149541423,-0.0023789462,0.0181529932,0.0143871913,0.0060664602,0.009347463,0.0153821716,0.0052516097,-0.0047982433,0.0150216613,0.0126411365,0.0138990367,0.0168635119,0.0061889412,-0.0103681618,-0.0108625833,0.0132254921,0.0130364001,-0.0142937582,0.0055919159,-0.004253719,0.0042820629,-0.0065511591,-0.0171109326,0.0089372741,0.0093581965,0.0052591148,0.0170658585,0.0012508503,-0.0091889128,0.0029891038],[-0.0035716647,-0.0039737709,0.001435693,0.0192242693,0.0145671908,-0.0260885581,0.0111281034,-0.0087070838,0.0279940311,0.0267321002,-0.0042056427,-0.0148567297,0.0100348536,0.0287058763,-0.0108463885,0.0169671569,-0.0189062934,-0.0016935841,-0.0077109439,0.0050480627,-0.0069876616,0.0026240242,0.0123742595,-0.0014880395,-0.0118775349,0.0197353847,-0.0024976586,-0.0054875812,0.0031865654,0.0195347611,-0.0013217988,0.0031520571,0.0066485479,-0.0144332713,0.0130085703,0.010063922,-0.0078964243,0.0056110499,-0.022762524,-0.0189744905,0.0294170696,-0.0031592406,0.0072744824,0.0097311391,-0.0188077223,0.0092359455,0.0129161542,0.0142852683,0.0017375554,0.008766369,-0.0079086795,0.012096284,-0.0007261463,0.0019876163,0.002460619,0.0016516797,0.0034386504,0.0078457454,-0.0012577855,0.0206266064,0.0119994283,-0.0225433819,-0.0150771048,0.0125480928,-0.0041065584,0.008205493,0.0037686925,0.0138832247,0.0305767655,0.0480254889,0.0404968895,-0.019620005,0.008151032,-0.0036705311,-0.0228287354,-0.0396229997,-0.0087917028,0.0070740171,-0.0005412737,0.0189007726,-0.0106218504,0.0067675468,0.0114739342,0.0175886787,-0.00432237,0.010094299,-0.0080232685,-0.001606875,0.0097232396,0.0156715121,-0.0034815972,-0.0001560078,0.0014871371,0.003094343,0.0088540614,0.022094721,0.0002521536,-0.0164333638,-0.0119724134,0.0094956188,-0.0104624443,-0.0011889418,0.0089635309,-0.0056595448,-0.0000331657,0.0125617143,0.0066430042,-0.0122219911,-0.0037461256,-0.0268253833,0.0083751604,0.0265655518,0.0129247708,-0.0176462065,0.0050255205,0.0105450237,0.0146295791,0.027205592,-0.0027947754,-0.0005820468,0.0056239674,0.0207041539,0.0212749094,-0.0077618975,-0.01375301,-0.0153160524,-0.0144664934,0.0071610282,-0.0025664112,-0.0208340157,-0.0066238814,-0.0184229743,-0.0201847181,0.0157562383,0.0068147969,-0.0163166169,0.0092693781,0.019146286,-0.009124293,-0.0019701321,0.0085984021,0.0031845237,0.0008426436,0.0116669741,-0.0040923553,-0.0105733005,0.0320006497,0.0149282999,0.0165503528,-0.0212656092,-0.0031297226,0.0071844258,0.0142644178,0.0044637262,0.013379585,-0.0038206729,-0.0059982706,0.0186421555,0.0024925789,-0.0100828689,-0.0091993371,-0.0134803252,-0.0095067909,0.0234047342,-0.0008810019,0.0066769761,0.0058802553,0.0153415492,-0.0235676598,0.0195652843,0.0002736507,0.011174717,-0.0067590903,0.0076084556,-0.0005647567,0.0082268557,0.0164847001,0.0071317879,0.0160353296,0.0001198341,-0.0041323192,-0.019179685,0.0002205293,0.013483718,-0.0039877337,-0.0294447243,0.0048298426,-0.0107358377,0.0156812575,0.0204874147,-0.0059221187,-0.0059697381,0.0016310918,0.0112207485,0.0170921385,0.0020837227,0.0178722683,0.0060159522,-0.008545558,0.0206846148,0.0162829757,0.0126471268,-0.0118968124,-0.0164861735,-0.0189462639,0.0141208218,-0.0026287094,-0.0175154954,0.0055528688,0.0063883099,-0.0055145086,0.0109671298,-0.0053795599,-0.0018586863,0.0038482777,-0.0048260153,-0.0026468213,-0.0128040276,0.0151866078,0.0089754704,0.0102031082,-0.0172534864,0.0086191501,0.0109978905,0.0060963873,0.0026501864,0.0022932107,-0.0249993708,-0.0016386521,0.0254295468,0.0204600785,0.0157706067,-0.0123967212,-0.0057533975,-0.0061029163,0.018780455,0.0126423864,-0.0090743983,-0.0037547343,0.0080758622,-0.0165228955,0.0078118816,-0.0058181197,-0.0217240099,0.0182567183,0.0009410758,-0.0051882141,-0.0017650547,0.0136833638,0.0044599576,0.0119159762,0.0217541642,0.0023405349,0.0187221374,-0.0337541252,-0.0130696595,-0.0211493317,0.0173630323,-0.0038548412,0.0121228881,-0.0150552047,-0.0134394821,-0.0085406937,0.0083174687,0.0032345969,-0.006740259,-0.0151177272,0.0011050588,-0.0127283167,0.0015963274,0.001655788,-0.0098291095,-0.0082813064,0.0033987595,0.0015254386,0.012357519,0.0123098176,-0.0154870898,-0.0034743755,0.0083504561,0.0017702691,-0.0109944381,0.0037903634,-0.0127701452,0.0150475185,0.004230985,0.0159408059,-0.0220916867,-0.0022415468,-0.01017203,0.0278961658,0.0018963713,0.0006987598,-0.0126919225,0.0085490309,-0.0042785462,0.0086414563,0.0121356407,-0.0028158978,-0.0076632495,0.0006832044,0.033770293,-0.0102791535,-0.0002428342,-0.0066799726,-0.0046755476,-0.0031985764,0.032239724,0.0158577356,0.001779885,0.0159367267,0.0087238206,-0.0172513835,0.0109288646,0.01538835,-0.0021825759,0.0185921025,0.0185287576,0.0003743257,0.0121026672,-0.0034624708,-0.0033102762,0.0070238756,-0.004279661,-0.0017829278,0.0044303914,-0.0049140537,-0.0178982094,0.0039188084,0.0097990176,-0.000587064,0.0024366402,-0.002762587,-0.0054010199,0.0015972505,0.0042169937,-0.0059791282,-0.0097762765,-0.0042641582,0.0055807987,-0.0060676616,-0.0069373497,-0.0000126645,-0.0179763474,-0.0023159615,0.0035396831,-0.001391552,0.0036018516,0.0107933832,-0.009353972,-0.0082248822,0.0031743026,-0.0014224161,-0.0039145788,-0.0033879809,0.0091772405,0.0335685201,0.0333557166,0.0330719724,-0.0170479622,0.0011503659,0.0117431665,-0.0256093387,-0.0249692611,-0.0317346454,0.0146136265,-0.0035223137,0.0142145976,-0.0022659963,-0.0143828774,-0.0001144008,0.0062681325,-0.00452006,-0.0094501758,-0.0068270788,-0.0065071764,-0.0002771665,0.0046995785,0.0001672139,-0.015547297,-0.0082265222,0.0059532383,0.0086675351,0.0116625018,0.0052278675,-0.0158134475,-0.0036685704,-0.0028518529,-0.0069545046,-0.0058800806,0.0083984472,-0.0194027014,0.0114485612,0.0016441564,0.0086038401,-0.0189382117,-0.0015620785,-0.0141068911,0.0175282434,0.0233650599,0.0207057912,-0.014890966,0.0107334368,-0.0054655159,0.009253446,0.026336113,-0.0061009815,-0.0215351023,0.0084078191,0.0220372751,-0.0059396527,0.0042702663,0.0163439047,-0.0162676796,0.0015762508,0.0169632081,0.0086306175,-0.0099751735,0.0121365283,0.0080549726,-0.0123545062,0.0110703036,-0.0008762082,0.0066723642,-0.0080936719,0.0011893755,0.0143385585,0.0040988866,0.0269421134,-0.0135099264,0.0118098427,0.0006754536,-0.0058875061,-0.0076981392,0.0005941863,-0.004805035,-0.0055151135,-0.0194877498,0.0110151377,-0.000826774,0.0284949429,0.0161710568,-0.0089390632,-0.0040367879,0.0105270352,0.0258302875,0.0166441146,-0.0007532205,0.004367929,0.0062002689,-0.0105527127,0.0127841197,0.0163860023,-0.0179957002,0.017278662,-0.0001730543,-0.0126259364,-0.005475821,0.0199295003,-0.0125378892,0.0021397818,-0.0041257115,0.0122768693,0.0000689973,0.016208984,0.0078992937,-0.0026820593,-0.0050815181,0.0005426729,0.016788641,-0.0155010391,-0.014766546,-0.005305401,0.007594598,0.0023134593,0.0092455177,-0.010489516,-0.0123102833,0.004784422,0.0013765391,0.0064122803,-0.000888016,-0.0100148311,-0.0047516995,-0.0048978003,0.0008972015,0.0038629493,-0.0061514056,-0.0032890043,0.0051677707,-0.0004915227,0.0032890213,0.0094830021,-0.0112304445,-0.0014584289,0.0033155335,-0.0054402202,-0.0039823521,0.0118611259,-0.011115226,0.0160872359,0.0158696137,0.0133856703,-0.0183560606,-0.0010661775,0.0007751425,-0.027566772,-0.0202050973,-0.0093180249,0.0083257621,-0.0013534563,0.0027095936,-0.0088929124,-0.0030499063,0.0052651637,0.0064689158,0.0042856825,-0.0056604412,-0.0179245286,-0.0078698965,0.0002709015,0.0077640596,0.0098072654,-0.0164516065,0.0035226091,0.0053090225,-0.0008572484,0.0127065312,-0.0023039558,-0.0160486512,0.001679146,0.0030416439,0.0046904027,0.0048143812,0.0104943048,-0.0079581896,0.007936812,0.0090739159,0.0115594603,-0.0184020009,-0.0030701256,-0.0250442438,-0.0014215193,0.0030206908,0.0201599523,-0.0164352935,0.0015826157,0.0032681595,0.019270895,0.0179904625,0.0067861467,-0.0064804628,0.0064345985,-0.0012186293,0.0043396493,-0.0067059924,0.0019964711,0.0042364965,-0.0145681277,0.0282047819,0.0077993316,0.0046699573,0.0144784888,-0.0126281083,-0.0236119628,0.0148078175,0.0136528332,0.0043001636,0.0015589099,-0.0021972086,-0.0011309753,0.0169338211,0.0123524964,-0.0019413222,0.0089981081,0.0100489762,-0.0061064279,-0.0274477713,0.0016002102,0.024689829,0.0007882362,-0.0180480927,0.0073753255,-0.001709985,0.0247221086,0.0061178729,0.0168706253,-0.0242986456,0.0076883035,-0.0027129464,-0.0095723476,-0.011751743,-0.0058257668,0.0068523809,-0.0121663008,0.0129033104,0.0221454594,-0.0121623483,0.0118912263,0.0134889521,-0.031328395,0.0178531334,-0.0058184103,-0.0140624093,0.0065164538,0.0172755308,-0.0078847259,-0.0102468608,0.0128650237,0.0113502769,0.019846987,0.0069057308,-0.001124168,-0.0123293297,0.0010710162,0.0287571065,-0.0062192245,-0.0135918399,0.0044367001,0.0079341866,0.0170353614,0.00834125,0.0112974988,-0.0037443656,0.00227708,0.0068003656,0.0072472161,-0.0006677636,0.0137417689,-0.0194956772,-0.0061299531,0.0130845401,0.0119488742,0.0067106099,-0.0053950772,-0.0190208238,-0.0133388937,-0.0086399633,-0.0092140734,-0.0162940305,0.0079993987,-0.0117540713,-0.0049606361,-0.0070158425,0.0102371229,-0.0047747949,0.0089425053,-0.009807271,-0.0004516805,-0.003637475,0.0279896818,0.0065016556,0.0053346953,-0.0241792463,-0.0009606428,-0.0087087434,0.0204895921,0.0137272757,-0.0110533843,0.0045856754,-0.0049485997,0.015250653,-0.0119833527,-0.0091981571,0.0051541138,-0.0183027145,-0.0059796982,0.0237031728,0.0194037221,-0.0090970276,0.0041504204,0.0120359343,-0.0191240963,-0.0073886374,0.017361274,0.0053287949,0.0132454205,-0.0044574398,-0.0088972514,0.0148273595,0.0018950279,-0.0064460961,0.0159906074,0.00509529,0.0092336526,0.0096959071,-0.0009242012,-0.0429990478,-0.0221355539,0.0109629696,0.0030504006,0.0002043313,-0.0046397038,-0.0023980557,-0.0025100848,0.0008161677,-0.0041766837,-0.0145480363,-0.0217307545,-0.008381811,0.0088170003,0.0076895547,-0.0043598493,-0.0092765028,-0.0013500908,0.0063092075,0.0132141616,0.0068397489,0.000101133,-0.0005994552,-0.0101966616,0.0012356306,-0.0015665592,-0.0004509196,0.0038772528,-0.0220448822,0.0020154326,0.0026402483,0.0020779716,-0.0054392545,0.0048337723,0.0096351067,-0.0168519635,-0.0202445202,-0.0105430111,0.01112122,0.0024270925,0.009289383,-0.0072369324,-0.0042286469,-0.004041071,0.0006917456,-0.0005999483,-0.0064460952,-0.0139682125,-0.0084529025,-0.0019147334,-0.0027535302,0.0045142882,-0.0153630134,-0.0066252425,0.0083257761,-0.0023329316,0.0013636763,0.0149691775,-0.0151875755,0.0030279537,0.0072094314,0.0016143052,-0.0026587856,0.0049546924,-0.0038137373,0.010976878,0.0156195704,0.0176390316,-0.0195920635,0.0000072508,0.0169411004,-0.0156899393,-0.0141338417,0.0052910345,0.0095339231,0.0098759541,0.0019099419,-0.0163424145,-0.008730147,-0.0051622977,0.0001706944,0.0025058102,-0.0074666576,-0.0135431578,-0.0054229894,-0.0021650463,-0.0001079528,0.0098808948,-0.0071455939,-0.0024564895,0.0078231348,-0.0039508389,0.0094846673,0.0072485483,-0.0085025942,-0.0063724932,0.0067520845,0.0022655616,-0.005165034,-0.0046711247,0.0061998358,0.0158986934,0.0223844629,0.0170553401,-0.0291797165,0.0019711363,0.0074144728,-0.0219674297,-0.0231610481,-0.0162224844,0.0062522888,-0.0017258874,0.0102711413,-0.0105240988,-0.0127120661,-0.0069246031,0.005576523,-0.001101436,-0.0091729928,-0.0180608612,-0.00747927,-0.0147511195,0.0013241316,0.0063672825,-0.016150225,0.0058319983,0.0011900013,0.0048192646,0.0060625444,0.0091604823,-0.00756113,-0.0011075591,0.0093787592,0.0055676899,-0.0054188082,-0.0002621076,-0.005969753,0.0131404996,0.0058492217,0.0141128302,-0.018649241,-0.0062245829,0.0043277461,0.0063492516,-0.0117055932,0.0121125048,0.010404068,-0.0053923526,-0.0007724098,-0.0063142804,0.005715095,0.0045494176,0.002633478,-0.0016895407,-0.0148188267,-0.0082422737,0.0094493134,-0.0087999413,-0.0068513062,0.0066595674,0.0005393303,-0.00940092,0.0035177046,0.0008517994,0.0004883761,-0.0042935163,0.0006405065,-0.0284703337,-0.002479936,-0.0127045214,0.0077568293,-0.0015504054,-0.0129423346,0.0276659392,0.0383597501,0.0286766421,-0.0049304087,-0.0003871555,0.0029306873,0.015781112,0.0062066959,-0.0083537642,-0.0123956949,0.00304605,0.0000333486,0.0158156902,0.0082550161,-0.0106136119,-0.0156454574,0.0085088657,0.021703152,0.0155503387,0.0145723075,-0.0016493675,-0.0107969465,-0.0044009392,0.0013331175,0.0057474528,0.0060927728,0.0029101791,-0.0071046459,-0.0000823767,0.0000766435,0.0017076096,-0.0014477271,0.0172529556,0.0000455934,0.0167753212,-0.0134441098,0.0172588732,-0.000160991,0.0152499033,0.009084465,0.0009409371,-0.0012361305,0.0318742059,-0.022534417,-0.0051431116,0.0003950712,0.0107901124,0.0002939888,0.0120908013,0.0214324929,-0.0114385393,0.0032247098,0.0101433992,-0.0103429221,-0.0249980688,0.0003768977,-0.0017853989,0.0091172708,0.0130485417,0.008900445,-0.0230853707,0.0102825686,0.0100523317,0.0073547084,-0.0103215547,-0.0016357426,-0.013481658,0.0008113675,-0.0134223513,-0.0042352485,0.016399391,-0.0137501145,0.0019804642,0.0162782315,-0.0019833671,0.0098623298,-0.0009730429,-0.019283196,0.0076861568,0.023237301,0.0233154297,-0.0201054737,0.0109034637,-0.0089203632,0.0160697345,0.0261131972,0.0036421374,-0.0115633542,0.0104103293,0.0101566501,0.0115148006,-0.0117529109,-0.0003522795,-0.0260559265,-0.0061267461,0.0185461771,-0.0029122015,-0.0030892098,-0.0117627457,0.0020784368,-0.0189344697,0.0034405463,0.0217517838,-0.0146324784,-0.0031902699,-0.0136209391,0.0087518441,0.0100491177,-0.0044060517,-0.0175779462,0.0078506134,-0.0012516838,0.0019467823,0.0147149134,-0.0187270213,-0.0106732883,-0.0122387875,0.0166722424,0.0064373417,0.0065392163,-0.0167711265,-0.002655816,-0.0062768194,0.003277831,0.0045084832,-0.0109564215,-0.0119919665,-0.0052297213,-0.0105109904,-0.0050078235,0.0004495666,-0.0110318037,-0.0003924013,0.0055171573,-0.0068503143,0.0097985752,0.0095503321,-0.0104595777,-0.0018750051,-0.0005146233,0.0050449837,-0.0009848166,-0.0042906874,-0.0016545441,0.0113257384,0.0042151492,0.0139989313,-0.0254586488,-0.0038019416,-0.000613445,0.0289957244,0.0094244024,-0.0059852027,-0.0056183236,0.003063936,0.0284513254,0.0100082308,0.0234572012,-0.0064668329,-0.0083303405,0.0067327521,-0.0070992825,-0.0098981261,0.0024962344,-0.0076166671,-0.0172269084,-0.001483965,-0.0030251949,-0.0179726891,-0.0013295069,-0.0066145915,0.0079306317,-0.0117378179,0.0057938448,-0.0131584797,0.0195784289,0.0033050643,-0.0067405845,0.0143169034,-0.0260637235,0.0020698828,0.0219200272,0.0059788204,0.0152795324,-0.0049742302,-0.0195273068,0.0190432519,0.006079691,0.0081955818,-0.0288068205,0.0031392088,-0.0027717357,0.0028129581,0.0096257553,0.0106806271,-0.0114741568,0.0039073955,0.0133178262,-0.0005211639,0.0095867394,-0.0090548741,0.0017937393,-0.0141124642,0.0129906386,0.0180213526,0.0136086186,-0.0064319535,0.0081916666,-0.0200949796,0.0087611144,0.0096449256,-0.0096847471,0.0043278728,0.0232556313,0.0031320553,-0.0074891136,-0.0032343983,-0.0033566605,0.0017436909,0.0112320026,-0.0034881739,0.0044192765,0.0280871093,0.0253641494,0.008785543,-0.0136407409,0.0093226954,0.0034370963,0.0023697023,0.0061894399,-0.015489433,-0.0049826694,0.0034893006,0.0236535463,0.0002275667,0.013164537,-0.0008086711,-0.0009676115,-0.0008428112,0.0017580218,-0.0084167086,0.0062593152,-0.00638601,-0.0058235982,-0.0086115114,0.0081006102,0.0166144632,-0.0019097853,0.0001185616,-0.0019195757,-0.0008803084,0.0009963613,0.0128527926,-0.0186597593,0.0179226082,0.0080688577,0.0066600805,-0.0017507671,-0.0063142991,-0.0219423175,0.0098207919,0.0041365083,-0.00679002,0.0030827497,-0.0172695182,-0.0013371001,0.0127393035,0.0046274737,-0.0032726005,-0.016402794,-0.0129747689,0.0019735151,0.0067355805,-0.0016950171,-0.0081575289,-0.0088439267,-0.0024847002,0.0052578542,-0.0010559137,0.0174058583,0.0096259713,-0.0089717498,-0.0159264151,0.0026195752,-0.0032366959,0.0069266292,-0.0066571883,-0.0029013145,0.044085227,0.0468518361,0.0389876515,-0.0090296315],[0.0035487516,0.0048722904,0.0073101679,0.0205181427,-0.0048899851,0.0178324897,-0.0046933461,0.0034912066,-0.015280853,0.0158344302,0.0015389419,0.0022412005,-0.0085848887,0.000696888,-0.0150530851,0.0114112152,0.0167299807,0.0048683723,-0.0057330169,0.0129048955,-0.0050086225,-0.008820368,0.0244394224,-0.0115345633,0.0118516311,0.0102720978,0.0041468651,-0.003443731,0.0026385013,0.0117444498,0.0007142654,0.0217702389,-0.0252532065,-0.0138484649,0.007419019,-0.0121334717,0.0020328278,0.0019924676,0.026040135,0.0148476679,-0.0012638693,-0.0011621969,-0.0058163335,-0.0090313852,0.0177608915,0.0022543734,-0.0034943491,-0.0036918947,0.0014350456,0.0075176298,0.002694488,-0.0023908778,-0.0031458158,0.0107277548,-0.0000123856,0.0103118885,0.0006556865,-0.0055257035,-0.0031761474,0.0032864572,-0.0028414908,0.0090198172,0.003217092,-0.0201828219,0.0036570553,-0.0027755552,0.0031223169,-0.0141263464,-0.0141028631,-0.0356879681,-0.0222680029,0.0013138413,-0.0096677737,-0.0118313059,0.046180591,0.037654262,0.0253915824,0.0074358531,0.0061719413,-0.0090926737,0.0193641894,0.0117860055,-0.0024526103,0.0002180452,-0.0044147531,0.0062615369,0.0040687686,0.002620016,0.0006540359,0.0144471088,0.0070725256,0.0073138396,-0.0047001895,0.0031534585,0.0043883682,0.0096733971,-0.0087522017,0.0139257303,0.0027418958,-0.0147297597,0.0060112393,-0.0018969167,0.0067318012,-0.0057212049,-0.0047642658,-0.0221784841,-0.0220653173,0.0079094376,0.0043434519,0.0058991816,-0.0108916191,0.010373407,-0.0145001849,0.0080852062,-0.0009020945,-0.0120688304,-0.0217806045,0.001515364,-0.0024839283,0.0224432163,-0.0063315672,-0.000574761,-0.0107721426,0.005727014,0.0110614588,0.0167179052,0.003706791,-0.0111639053,-0.0129938275,0.0197946262,0.0118280919,-0.0072564096,0.0099534607,0.0009741234,-0.0169539899,-0.0014926163,0.0089326426,0.014561235,-0.0008939299,0.0004162667,-0.0081936307,0.0120939044,-0.0160385538,0.0060976516,0.0033520346,0.0158394575,-0.0026993048,0.0183700845,-0.0189000852,0.0106526269,0.0016133506,-0.0084286937,-0.0088842763,0.0063280831,-0.0025437973,0.0050685392,-0.0045678038,-0.0028008081,-0.0027205239,-0.0007039254,-0.0008574773,0.0145903565,-0.0065427837,-0.0042557977,0.00988336,0.0095344428,-0.0005587426,-0.0066101057,0.0005209732,0.0168801825,-0.0170630887,0.0042028241,0.0139254415,-0.0100612342,-0.0016410805,-0.0118534071,-0.0149122272,0.0064479755,-0.0163035151,-0.0029917811,0.0044847447,0.0105835805,-0.0041046762,-0.0016638555,0.0072840606,0.0203440748,-0.0006089097,-0.0145272445,-0.000825725,0.000348057,-0.0011785778,0.0154715823,-0.0023958641,0.002623575,-0.0222198796,-0.0123132914,-0.0054088049,0.0230771061,0.0016863638,0.0021755206,-0.0017856177,-0.0021290542,-0.0095095625,-0.0023207166,0.0061845779,0.0123011936,-0.0084612714,0.0121930419,0.004382635,-0.004756765,-0.0004587565,-0.0038794104,-0.0026153675,0.0092930011,-0.0262753498,-0.017014768,0.0035032048,0.0000407662,0.0121365534,0.0144117298,-0.0143767148,0.0218742918,-0.0004882563,0.0053763599,-0.0146307275,0.006017731,0.009284785,0.0083962986,-0.0039551426,0.0082881786,-0.0125022177,0.0092681143,-0.0093462793,-0.0008382241,0.0046139136,0.0010378698,0.0047386703,0.0077986871,0.0175811145,0.0160452705,0.0045197327,-0.0015027564,0.0074148551,0.0200080387,-0.0070251292,0.0151368231,-0.0049633109,0.0067437673,0.0007163626,-0.0018181998,-0.0271428097,-0.0000467597,-0.0038381258,-0.0096623562,0.0346986651,0.007291032,0.0264492016,-0.0061564795,-0.0036931047,-0.0114916088,0.0087999655,0.0075993547,-0.0072099464,-0.009474705,0.0001934242,0.0176002514,0.009421316,0.0042249062,-0.0032264905,0.001956681,0.004506547,0.0152280647,-0.0085451333,0.0069136838,0.0001591972,0.0102395108,-0.0004288947,0.0124359429,0.0003713902,-0.0068128188,-0.0077039874,0.0136542823,0.0076207644,0.0168932993,-0.0034426895,0.0009934803,-0.0053587956,0.0225467701,0.0008132434,0.0060716681,-0.0122255003,0.0077825193,-0.0149112772,0.01550679,-0.000662544,0.0127281491,-0.01730101,-0.0029088452,-0.0076015037,0.0002754015,0.0039201998,-0.0136306901,0.0058911773,0.0021052016,-0.0108002387,0.0257848948,0.0047983914,-0.0082704378,0.0000005076,0.006278554,0.0040289029,0.0118969437,-0.0014845239,-0.0064802323,-0.0134065151,0.0220362097,0.01523815,0.0119556738,-0.0036719267,0.0139793903,-0.0203205906,-0.0142500056,-0.0125647075,-0.000052525,-0.00165245,-0.0061357515,0.0108344741,0.0007663231,-0.0015008647,-0.0041710897,-0.003512921,0.0006317588,0.0060907118,0.0090498915,-0.0100284163,0.002953615,0.0089753922,0.0160315875,0.0019120228,0.0053895344,-0.0039524771,0.0044431319,0.0002711983,0.0065253931,-0.0066381423,0.0038662197,-0.0041456739,0.0045347479,-0.0000753832,0.0081967087,-0.0020466892,-0.0063535599,-0.0031818633,0.0027474882,0.0000814465,0.0175745822,-0.011655069,-0.0156909823,-0.0143570332,0.0254566092,0.0007884189,-0.0137646832,0.0509579964,0.0072152657,0.0405235291,-0.0107506514,-0.0017623419,-0.0151828844,0.0094642993,0.0032565077,-0.002672934,-0.0043877326,-0.0038462502,0.0077027525,0.0049285786,0.004471954,0.0033363474,0.0045916894,0.00424485,0.0110344151,0.0004199776,0.0010499246,0.0021163698,0.0077877985,-0.0021956877,0.0117504038,-0.001225663,-0.0040646298,-0.0025825303,0.0062434548,0.0038901046,0.0198445022,-0.0090529351,-0.0035720875,-0.0097328592,0.0176050216,0.0025462296,0.0059274761,-0.0154586509,-0.0052836682,0.0069762338,0.0061344458,-0.0058202562,-0.0072182436,-0.0182439107,0.0064120414,0.0003403073,0.0103230271,-0.005182304,0.0130056618,-0.011586058,0.0010778175,0.0056925723,0.0137941428,-0.0000810257,0.0181484036,-0.0090556527,0.0103157209,-0.0007756177,0.0004907961,0.0006271272,-0.0037772791,0.0030564889,0.016550187,-0.0090883924,-0.0112718055,-0.0138158333,0.0122615229,-0.0174238663,-0.0024078719,-0.0056771166,-0.0158998761,0.0054739839,0.0149611188,-0.005890632,0.0080328519,-0.0133080585,0.0184150096,-0.0045033027,0.0066761295,-0.0133597208,0.0101962052,0.007381367,0.0161345955,-0.0041751075,-0.0154842455,-0.0045218738,0.0114359679,-0.0039092847,0.0201020874,0.0059756008,0.0104787657,-0.0049143112,0.0027198393,0.0177668445,0.0071798121,0.0067994706,-0.0065921899,0.0004131004,0.016338082,-0.0004204175,0.0002108845,-0.0060458891,0.0183542334,-0.0317403637,0.0051776599,-0.0079090158,0.0009006992,0.0018167713,-0.0028089932,0.0304660313,0.0093035121,0.0149545884,-0.0063510723,-0.0007063797,-0.0033890421,0.010573687,0.0124117462,-0.0041389153,0.0008957801,0.0060661426,0.0127690453,0.0011319065,-0.0022461291,-0.0126322396,0.0081909904,0.0071283155,0.0112839816,-0.002680331,-0.0000631196,-0.0006492078,0.00366007,-0.0010995083,0.006733079,-0.0034940124,-0.0025074524,-0.005441267,-0.0008119475,-0.0001640637,0.0247303993,-0.0037547247,-0.0067955637,-0.0086925989,0.0208999217,0.0014883517,-0.0130351456,0.0258887317,0.005998719,0.0139328176,-0.0021820778,-0.0087698633,-0.0095624868,0.0116330432,0.0067380955,-0.0087968344,-0.0043490641,-0.0019472755,0.0163305011,0.0025047711,0.0025523978,-0.0043309657,0.0119468151,0.0041645817,0.0131471921,-0.004352184,0.0022820004,-0.0009676003,0.0057191579,0.006473233,0.0147427237,-0.0061977981,0.000157823,-0.0036226474,0.0036010789,0.0063510449,0.020861268,0.0017581005,-0.0032867435,-0.0043425583,0.0084203146,0.00546523,0.0056840684,-0.0022217743,0.0064713215,0.0013083206,0.0127244573,0.0028047722,-0.0017392753,-0.0109738782,-0.0029627162,0.0014949872,0.0034439876,-0.0048942971,0.0007320761,0.0028317024,-0.0025123837,0.0059077027,0.0044087302,0.0019057875,-0.0053465362,-0.0068908781,-0.0008216692,-0.0035264334,0.0052588615,0.0091412729,-0.002209713,-0.0131567018,-0.0034805476,-0.0083180871,-0.0060838652,-0.0003249911,-0.0046255337,-0.0131894834,-0.001081138,-0.0217886306,-0.0072619347,0.0065564825,0.0178150572,-0.0068024057,-0.0071977512,-0.0192188565,0.0147608109,-0.0009180628,0.0087605547,0.0021354579,-0.0026070452,0.0076379674,0.0206496194,-0.0098406971,-0.0155238528,-0.0101462631,0.0128801623,-0.0101235546,0.0201674607,0.0045977393,-0.0059827059,-0.0012898849,-0.0008357476,-0.0056709973,-0.0063833669,0.008542289,-0.0047777132,-0.0004146383,0.0114883818,0.0094627589,0.0045405529,-0.0030351449,0.0059993523,-0.0080058752,0.0164604653,-0.0313086584,-0.0129350685,0.0014736411,0.0115750832,0.0013147787,0.0042515392,0.0158872511,0.0047481731,-0.0070733773,0.0008157743,0.0028924744,0.0224199053,-0.0047043129,-0.0015382291,-0.0067170612,-0.001309912,-0.005079634,0.0148425335,-0.0100970678,-0.00006654,-0.0030613227,0.0159408096,-0.000655903,-0.0007208736,0.0191019438,-0.0057531833,0.0114812944,0.0129228132,-0.0032878583,0.0128994007,-0.0020148661,-0.0042349985,-0.0028468249,-0.0047679096,-0.0213422701,-0.0161429271,-0.0148362843,-0.0069114682,0.0015742286,0.0122905411,-0.0158033539,0.0112860668,0.0090204608,0.0080319587,0.0037627269,-0.0093416283,-0.0063590105,0.0176853985,0.0076862318,0.0190617852,0.0024981524,0.0051187067,0.0081147496,0.0146760913,0.0135144629,0.0129296212,0.0037557958,0.0028180701,0.0165992565,-0.0042241276,0.0096761677,0.0145913968,0.0073123267,-0.0102790045,0.0068001747,0.002699327,0.0127921375,-0.0105298804,-0.002364716,-0.0048363227,-0.0161180794,0.0104270866,0.0079616169,-0.0063139549,0.0029670557,-0.0014369371,0.0259564482,0.0212664641,0.0427044109,-0.0000031453,-0.0058357413,-0.0057597207,-0.0053280219,0.0082911234,0.0110842921,-0.0005780383,-0.000697725,0.016791774,-0.0076441113,0.001075295,-0.0008415672,0.0140625574,0.0133267036,0.0110634351,-0.0054301629,0.0087330407,-0.0031490899,0.0072587072,-0.0060446723,0.0061784703,0.0058329161,0.0040106499,-0.000461814,0.0071617514,-0.0099954307,0.0167902987,-0.0038566475,-0.0046492312,0.0010436381,0.0074098487,0.0014438634,-0.0053310976,0.0224723984,0.004760738,0.0188985653,-0.0091762897,-0.0004417343,-0.0029373036,0.0023373968,0.0026492923,-0.0026646447,-0.0048367335,0.0014742428,0.0122102918,0.0048969951,0.0005984874,-0.0007094897,0.0013407853,0.0047785942,0.0116641121,-0.0034905062,-0.0031607659,-0.0057727443,0.0061710798,0.0011120224,0.0138264932,-0.0037722175,-0.0035326874,-0.0000539777,0.0064397412,0.0070331497,0.0201639365,-0.0039815032,-0.0055511254,-0.006548787,0.0200683624,-0.0038738898,-0.0117555773,0.030341832,0.0019785364,0.0101327403,-0.0047480902,-0.0025314235,-0.008305883,0.0086559327,0.0079814838,-0.0066976524,0.0060445201,0.0041581304,0.0156528298,0.0058122552,-0.0004966352,-0.0080329636,0.0011172501,0.0046885367,0.0151202492,-0.0019558503,0.0052711261,-0.0029042442,0.0035692989,-0.0021797717,0.0040909867,-0.0034511818,-0.0041017169,0.0040753032,-0.0011811705,0.0032373799,0.015191339,-0.0067694061,-0.0084854597,-0.0033004477,0.0135838799,-0.0068235495,-0.0108652022,0.0273480751,-0.0006141973,0.0223472398,-0.0143136187,-0.0018324917,-0.0022080969,0.0103970561,0.0123277307,-0.0080332691,-0.0054676561,0.0034371512,0.0169470739,0.0078556193,0.0058944039,-0.0017223194,-0.0005125083,0.0016860226,0.0145399114,-0.0042414325,0.0041275523,-0.0043492806,0.0020939908,-0.0057808552,0.0118210306,0.0009794009,-0.0073894793,0.0012028666,0.0027472484,0.0010334743,0.0156468786,-0.0099965222,-0.0106490087,-0.0053253975,0.0230639465,0.00032194,-0.0055653104,0.011745845,0.0094321463,-0.0112045761,-0.0056825257,-0.0026620943,0.0032604216,0.0010917197,0.0138602825,-0.0010714551,0.0018044211,0.0065984768,0.0167277884,-0.008437803,-0.0062259967,-0.015517002,0.0174198244,0.0066992464,0.0102673145,0.0024473926,0.0012512435,-0.002468654,0.0174784511,-0.002204509,0.0030897944,0.0143856043,-0.0080657331,0.0069832793,0.0132433893,-0.0058906944,-0.0013488624,-0.0173167493,-0.0327494964,-0.0099274628,0.0156665929,-0.000520112,0.0160688274,-0.0124942195,0.0047559906,0.0067044361,0.0141245304,-0.0072634937,0.0103449505,0.0068647806,0.0011954904,0.0055585196,0.0097532058,0.0031516403,0.0004275265,0.0007639985,-0.0042221472,-0.0047416203,0.027207138,0.0094269533,0.0080547892,-0.005512753,0.0007509029,-0.0040843613,0.0161494985,-0.0017832515,0.0215984397,0.0000757019,-0.0011297109,0.0106806522,-0.001870696,-0.0077955131,0.0055606565,-0.0200812202,-0.0162035041,-0.0220894665,-0.0032315461,-0.008049665,0.002029405,0.0028200923,0.0194382519,0.0362196267,0.0066374252,-0.0045251609,0.0031900285,-0.0040143356,0.015628051,0.0281607807,0.0054716957,-0.0004276492,0.0185663756,-0.0205647666,-0.0058735949,0.0036027785,0.0161093082,-0.0074715582,0.0354866199,0.006116692,0.0027827504,0.0141891465,0.0175547451,-0.0020158819,0.0099587534,0.0131882569,-0.0055699828,0.0068841265,0.0086902613,-0.0133139119,-0.0018984191,-0.0262313448,-0.022326516,-0.0042219679,-0.0173126627,0.002532271,0.0004710949,-0.0199344624,0.0181290973,0.0004566948,0.0135128461,-0.0053292629,-0.0134272706,-0.0225986671,-0.005880333,0.0085608633,0.0066033159,-0.0037303001,0.0020093964,-0.0056572165,0.0098167779,0.0068636383,0.0192358587,0.007614946,-0.0127013177,-0.0166024361,0.0113731269,0.016948143,-0.0096881175,0.0094880462,0.0039295275,-0.0223199017,0.0179513004,0.0047632512,0.0068758829,-0.0038833851,0.0104708178,-0.0278704315,-0.005758693,-0.025523169,-0.0114588961,-0.0068015284,-0.0116773024,0.0191596001,0.0081086159,0.0115048969,-0.0048643141,-0.0065383799,-0.0076459032,0.0072620367,0.005519581,-0.012156683,-0.007579898,-0.0015438785,0.0181386396,0.0084829601,-0.0006425185,-0.0053607966,0.000723062,0.0059859185,0.0110794641,-0.002736521,-0.0048975777,-0.0021618253,0.0015652707,0.0009665395,0.012572255,0.0031923815,-0.0036472899,-0.0071721002,0.0049668238,0.0068796757,0.0142346593,-0.0008725116,-0.0053112591,-0.005708483,0.0203452799,0.0023563991,-0.0024613549,-0.0197607297,0.0262437835,0.0240114592,0.0112513574,-0.004131631,-0.0038357286,-0.0007908521,0.0284605045,0.0229003932,0.0143598476,-0.0034545176,0.0209856387,-0.0161897372,-0.0023596582,0.0193066318,0.0049261893,0.0059107458,0.027974844,0.0017926638,-0.009598054,0.0204012748,-0.0041502691,0.0106827626,0.0024071513,0.0055584721,-0.0131734228,0.009143143,-0.0046383548,-0.0189947654,0.0215377174,-0.0184460916,-0.0304086022,-0.0015459601,-0.0217041206,0.0053835488,0.0168739073,-0.0081412951,0.0052430313,-0.0094359443,0.0138495425,-0.0014882291,-0.002199433,0.0008749781,0.0101989144,0.0099951886,-0.0003260295,-0.0094325952,-0.0078786695,-0.0075884173,-0.0085877245,0.0097777881,-0.0018388196,-0.0062685125,-0.0018247078,-0.0058196159,0.0022909248,0.0123652471,-0.0113328705,0.0093125245,-0.0025392836,-0.0174608193,0.0133409472,0.013738283,-0.0093691219,-0.0066774753,-0.0054307785,-0.010074053,0.0037484379,-0.0183059648,-0.0122200102,0.0022980452,0.0049599339,-0.0183624923,0.0056298519,-0.0121192345,0.0119204307,-0.0005873819,-0.000722633,-0.0132055841,-0.007715215,0.0185236204,0.0239200983,-0.0085173771,0.0062201461,-0.0152316447,-0.0071208505,-0.012903668,0.0093769943,-0.0012892474,0.0103415614,-0.0009370052,0.0058956118,0.0051261196,0.0129827363,-0.0006403956,0.0149029223,0.0102511439,0.0103490073,-0.014277366,-0.0105276527,-0.0013940941,-0.0058786548,-0.0038459348,0.0126483459,-0.002684992,0.0010469346,-0.0054553542,-0.0093850307,0.0206850283,0.0100009469,-0.0015468022,0.0013652146,-0.0004877553,-0.0058112899,-0.000487165,0.0063863043,-0.0042459513,0.0051262677,0.0064792926,0.0077173356,-0.0079366807,0.0013819518,-0.017323656,0.0172019247,-0.0010832652,0.0087975832,-0.0075641405,-0.0004135235,-0.00290204,0.0089570796,0.005758116,0.0012958155,0.0022756767,-0.0020122463,-0.0004670529,0.0010658321,0.0079377024,0.0223345384,-0.0208328199,-0.033431828,-0.0162756853,0.0086149918],[0.0064332499,0.0045274058,0.0082118623,-0.0002579439,0.0038269188,-0.0031695713,0.0132813547,0.0210348219,-0.0023565176,-0.0136678806,-0.009660881,-0.0124676749,0.0070857154,0.0179646593,0.0148257213,0.0190911181,0.0109734237,0.0011165591,0.0006110361,-0.0189017598,0.0019155788,-0.0078430399,0.0047957445,-0.0187975615,-0.0134520708,0.0111226765,0.0028078426,-0.0135714235,0.0010044135,-0.000301322,-0.0120401345,0.0114446115,-0.0139557198,-0.0265356209,0.013398082,0.0242364686,0.0125836758,-0.0078627924,-0.0135939699,-0.0119603816,-0.0090793325,0.0240499172,0.0135425655,-0.0015703593,0.0088809691,0.0054685855,-0.0080938172,0.0217564777,0.0132575072,0.0167875197,-0.0083740354,-0.0046428833,0.0060470095,0.03432386,0.0064311065,0.0089230258,0.0051552146,-0.0009682244,0.0026846319,0.0206769761,0.0074455636,0.032252945,-0.0024201847,0.0072613261,0.0126082553,0.0318454765,0.0059407689,0.0102244103,-0.0047868695,-0.0066623054,-0.0226904303,0.0393587723,0.0141748795,0.0090216389,-0.0125136208,-0.005692909,-0.0190137681,0.0180068724,-0.002552266,-0.01128475,0.0127617307,0.0104736229,0.0025208124,0.0084328363,-0.0061019505,-0.004935273,-0.0115472144,-0.0126459803,0.0019455884,0.0023206002,-0.0025569606,0.0060588052,0.0032289687,0.0009550613,0.0018507547,0.0117191719,-0.0059550782,0.0210496932,-0.0027222179,0.0015509635,0.0137770819,0.0200321022,-0.0013787681,0.0253367219,-0.0081764814,0.0035490771,0.0040947413,0.028046608,-0.0013719194,0.0040362738,-0.0006115861,-0.0030909008,0.0251682457,0.0105191329,0.0075762938,0.0157089606,0.0007063544,0.0130245294,-0.0083476575,-0.0082554296,0.0042093401,-0.0083788829,0.0107042147,0.008559525,0.0162121914,-0.0039290111,0.0016244963,0.0029974377,-0.0026084594,0.0062223622,0.0092828302,-0.0129068522,0.0021792769,-0.0071885292,-0.0008681622,-0.0154649271,-0.0007477214,-0.0082175722,-0.010289696,0.0003878709,-0.0025786972,-0.00275279,-0.0012983204,0.0148894303,-0.0002734938,0.0207594875,0.0246707797,0.0092148427,0.0097862529,-0.0012439004,0.0062209815,0.0029589992,-0.0207685027,0.0037295034,-0.0013680879,0.015933197,-0.0067051938,0.0086517371,0.0066222651,0.0019692793,0.0039923652,-0.0033664326,-0.0083638811,-0.0006864999,0.0105540194,0.0002712878,-0.0109535512,-0.0015942845,-0.0179325268,-0.0052778833,-0.0076431762,-0.0106893349,-0.0017666046,-0.0003378383,-0.0088810651,0.0076904511,-0.0051698051,-0.0198354758,0.0161051732,0.029298747,0.0006893591,0.0219915435,0.0070869923,-0.007605732,0.0239936411,0.0187821761,0.0146021396,0.0056936513,-0.0190736968,-0.0011092192,-0.0099218311,0.0003321636,-0.0006375118,0.0104007516,-0.0062469728,-0.0091818003,-0.0038694839,0.004098611,-0.0008488575,0.0001281814,0.0034693186,0.0184133276,0.0052762982,-0.004617196,0.0038376946,-0.0140775181,-0.0048168404,-0.0124741439,-0.0117630642,-0.0203041527,-0.0110387346,-0.0123657258,0.0090790596,-0.0190204624,0.0061569382,0.0173291322,0.0060553905,0.0012237984,0.0238440614,-0.0031236687,0.0117654316,0.0022080101,0.0156510845,0.0228481162,-0.0148103368,0.0166498497,0.0131746009,-0.0124964723,-0.0014381888,-0.0046756286,0.0019703833,0.0151073905,0.0192330033,0.009515808,-0.0060105007,-0.0088586314,-0.0135767665,0.0014215657,-0.0113096526,-0.0170444958,0.011083263,-0.0235311072,0.0088688619,-0.0247238856,-0.0148170451,-0.0127392774,-0.0058239712,-0.0115734106,-0.0000593157,-0.0030321861,0.0085772304,0.0146835539,0.0092270887,0.0009375646,-0.0243801866,-0.0031711753,-0.0303814504,0.0150610702,0.0104841348,-0.0219957139,0.0041864095,-0.0007824776,-0.0078223534,-0.0160135627,0.0149477199,-0.0067661656,-0.020879969,-0.0194495935,-0.0231103767,-0.0071242498,0.0180074945,0.0014917998,-0.0045782523,-0.0036673462,-0.0062510064,0.0063109011,0.010554336,-0.0041521164,-0.0078520197,-0.0097837988,0.0093535949,0.0132845184,0.0103702946,-0.0153004657,0.0030398697,-0.0028499607,-0.0089391116,0.0037787759,0.0079717534,-0.0031512757,0.0285357106,0.0232050382,0.0257915538,0.0026819168,0.0170534048,0.0305215456,0.0084611597,0.0132040009,0.0095099555,0.0155303981,0.0059686783,0.0209331028,0.0169356726,0.0085425237,0.0244677495,-0.012526595,-0.0057170717,-0.0004981638,0.0023605097,-0.0068649952,0.0077892444,