{"external":{"0":{}},"internal":{"0":{"nonlinearity":{},"pool1":{},"out_column":"embeddings","conv2":{"bias":[-0.049373012,0.0247991793,0.0027543698,0.0318028629,-0.0017067092,0.010089092,0.0243787058,0.0736669004,0.0308808424,0.0109191835,0.0177621562,-0.0585096963,-0.0239958372,0.0308637079,0.0193115957,-0.0389950387,-0.0098518105,0.0314300619,-0.0372650288,0.0022793284,0.0603671372,0.0645525604,0.0576154701,-0.002477285,-0.005745824,-0.0131911654,0.0256989785,0.0035026823,0.017480284,-0.0007588865,-0.0674590394,0.0559574664],"weight":[[[[0.017650241,-0.0327225067],[0.0012188604,-0.0066279341]],[[-0.0195153374,-0.0116507821],[0.0189952757,0.0073583424]],[[-0.0046616951,0.0482185259],[0.0004316488,0.0654802471]],[[-0.014551878,0.0225123633],[-0.0054000029,0.0140144126]],[[0.0488942713,0.0645534098],[0.0354196541,0.0376345366]],[[-0.0067092902,0.0331965014],[-0.0135403918,0.0657371879]],[[-0.0178239308,0.0462181605],[-0.0080627175,0.0224054176]],[[0.0139487274,0.0373445377],[0.0031946227,0.0250010807]],[[0.0950630829,0.0401793197],[0.0647055581,0.0350531302]],[[-0.0072518089,0.0004296387],[-0.034321472,-0.023721166]],[[0.0146899633,0.0140766595],[0.0048770318,0.0109035913]],[[0.0605398454,0.043198131],[0.0098936763,0.0629527047]],[[0.038945701,-0.036241658],[0.0236017127,-0.0571081303]],[[0.0036538024,0.0336038508],[-0.0238950569,0.0212473329]],[[0.0063248696,0.0925907642],[-0.0020294676,0.0765779838]],[[0.022813702,-0.0155506907],[0.0392073058,0.0081544574]],[[-0.026115736,0.0439775884],[-0.0342501476,0.026474284]],[[0.0772878975,0.0842354968],[0.0397328809,0.010557658]],[[-0.0034222309,0.079762347],[-0.0131980106,0.0840483978]],[[0.048064068,-0.0248310212],[0.0260409471,-0.0042801215]],[[0.0239422657,0.0317601748],[0.0257621221,0.055843059]],[[-0.0332355499,0.0589436889],[-0.002695516,0.0532879792]],[[0.0080470406,-0.0327230468],[0.009680327,-0.0408025645]],[[0.026618734,-0.0309914481],[0.0266935322,-0.0148259662]],[[0.0251106732,0.0047639194],[0.0208596084,0.0263421312]],[[0.0772615522,0.0663945824],[0.0431055576,0.0038905761]],[[0.0299407002,0.0289701931],[0.0077862153,0.0265543591]],[[0.020181559,-0.0581516586],[0.0025060631,-0.0378279947]],[[0.0457083099,-0.0148894964],[0.0422458798,-0.0374088176]],[[0.0366556644,0.0339549854],[0.0448335893,-0.0257502776]],[[0.0428502932,0.0083246073],[0.0331622995,0.0208494309]],[[0.083291553,-0.0483959168],[0.0635128468,-0.0307898857]],[[-0.0189903267,0.1196090728],[-0.0095970752,0.0819411501]],[[-0.0039358442,-0.0100745372],[0.0390033163,0.0327653252]],[[-0.0112575032,0.0375061743],[-0.0248294435,0.0357356817]],[[0.0546109602,0.0237977523],[0.002584385,0.0023106579]],[[-0.0038006355,0.0176119786],[0.0021018723,-0.0019876589]],[[0.05886342,0.0420060977],[0.0093659982,0.0334287062]],[[-0.0168497469,-0.032505881],[-0.0085222004,0.0128602423]],[[0.0905765221,0.0626281276],[0.0555969067,-0.0168864932]],[[0.0053261928,0.0207204372],[0.016320372,0.0147861838]],[[0.0716624111,0.0699684545],[0.1012641266,0.004503543]],[[0.0838901624,0.0550428592],[0.0752336234,0.0142841497]],[[0.0248886961,-0.0202893373],[-0.0029977248,-0.042397663]],[[0.0380504541,0.0287663955],[0.0059418916,0.0066331588]],[[0.0607950166,0.0197886676],[0.0935135558,-0.0360199027]],[[0.0245646182,-0.0080072191],[-0.0097432174,-0.0417389646]],[[-0.0041619306,-0.0338785425],[-0.0428190045,-0.0515244007]],[[0.0469260812,-0.0425050519],[0.0302482788,-0.0083235763]],[[0.0130151473,0.020942118],[0.029519042,-0.028681526]],[[-0.0302511901,-0.0705178306],[-0.0016235034,-0.0253770743]],[[0.0735910833,0.0555358455],[0.0618353933,-0.0137948049]],[[0.0523709431,0.0130256843],[0.0436017029,0.0031313966]],[[0.0298227761,0.0548684821],[0.025576042,-0.0047123148]],[[0.0408613086,0.0167011097],[0.0535154082,0.0072626504]],[[0.0218333211,-0.0006118076],[-0.0093967738,-0.0004855164]],[[0.0182292704,0.0693124905],[0.0404446535,0.0175410565]],[[0.004584441,0.0697460845],[-0.0188521706,0.0207405072]],[[-0.033940047,0.0424171761],[-0.0182365142,0.0534114763]],[[0.0358572342,-0.04106085],[0.0030778432,-0.0393356718]],[[0.0336719826,-0.023368597],[0.040404357,0.004622092]],[[0.0153230978,-0.0149167432],[-0.0122842183,-0.0149789583]],[[0.0168252774,0.025568692],[-0.0236616116,0.0266566779]],[[0.0445652679,-0.0245846063],[0.0000328509,0.0001032286]]],[[[-0.0184900183,0.0316130891],[-0.0073104152,0.0984088108]],[[0.0288763121,0.0142218582],[0.0892209113,0.0939576104]],[[0.070290871,0.0102860108],[0.1049994826,0.0079537742]],[[0.065138936,0.0536855906],[0.0328781381,0.0526587889]],[[0.0562129356,-0.0385563821],[-0.0155704394,-0.0464376956]],[[-0.0023103354,-0.04559578],[0.055096291,-0.0717567801]],[[0.0605643541,0.0472355932],[0.0650340691,0.0898821205]],[[0.0357980169,0.0070555541],[0.0533375517,0.0592660084]],[[0.0320543163,0.0438683741],[0.0242475737,0.026068585]],[[0.0562318899,0.0870305747],[0.0651787966,0.0624035001]],[[0.06038443,-0.0228392445],[0.0130905733,-0.0355607681]],[[0.0268705077,-0.0785613954],[0.059092883,-0.0819524974]],[[-0.0434855595,0.0026081339],[-0.0199363995,0.100127615]],[[0.0082557229,0.0157811865],[0.1052111015,0.140566662]],[[0.0460881144,-0.0586596951],[0.0157897994,-0.0418393202]],[[-0.0667020008,-0.0050446708],[-0.007362437,-0.0161648598]],[[0.042302534,0.0162482243],[0.0304152351,0.0091878008]],[[-0.0005827194,-0.071742557],[0.035578493,-0.1011560112]],[[0.0385497175,0.0008970652],[0.1207907796,0.0692162663]],[[0.0040799677,0.0786577165],[0.000158104,0.1083108038]],[[0.0549733266,-0.0175294615],[0.0119755631,-0.0720689967]],[[0.040777076,0.0152073251],[0.0648711175,0.1234045625]],[[-0.0492451899,0.0773404539],[-0.001893049,0.1636124104]],[[-0.0767337829,0.0466124564],[-0.0226288214,0.0444936976]],[[0.0540889986,0.0220235251],[0.0417551212,0.0084642014]],[[0.0264224019,-0.0263717454],[0.0211622305,-0.0189037509]],[[0.0532353036,-0.0093804533],[0.0734841824,0.0534900427]],[[-0.066020973,0.0195606109],[0.0416699909,0.1477833688]],[[0.0172854085,0.026950486],[0.0506986082,0.055868566]],[[0.0168611314,0.0132761877],[0.0544318594,-0.0381836332]],[[-0.0610066131,-0.0162933283],[-0.0194032174,0.0585324205]],[[-0.0241130348,0.0498086512],[0.0115939537,0.1604035497]],[[0.060935799,-0.0269241799],[0.1032415181,-0.0647945628]],[[0.0177681483,-0.0611472838],[0.0262723286,-0.0708203465]],[[0.0760724321,-0.0288137253],[0.0749808699,-0.0203359034]],[[0.0637028664,0.0179991517],[0.0460802875,0.0106380051]],[[-0.0021560448,0.0691969171],[0.1090132892,0.1530673802]],[[-0.016002601,-0.0841382518],[0.0116279852,-0.1016210765]],[[-0.0033150911,0.0027255809],[0.0982434526,0.0679838359]],[[0.0009088246,-0.0487421937],[-0.0195392407,-0.0358519815]],[[0.0086161029,-0.0210421532],[-0.0045305593,0.0134564005]],[[0.0157390796,-0.0049530645],[-0.0146026593,0.0129283546]],[[0.0032983795,-0.02227672],[0.0355424508,0.0131485239]],[[-0.0279007889,0.07023523],[-0.0079201255,0.1519419998]],[[0.0033090804,0.0292227194],[0.0597095862,-0.0226646625]],[[-0.0226258095,0.0547731221],[-0.026257135,0.1436085701]],[[0.0171783715,0.0826625228],[0.0543825068,0.1104492247]],[[0.0133872172,0.1220460013],[0.0774517953,0.1237991452]],[[-0.0203935932,0.0821755305],[0.05297767,0.0320606455]],[[-0.0318858102,0.0588015504],[-0.0409133881,0.0885066614]],[[-0.0485556759,0.0625538826],[0.0082979454,0.1212130785]],[[-0.0237680133,-0.0258925091],[0.0455331877,-0.0604383275]],[[-0.0353832468,-0.0161305033],[0.0002176089,0.0336783789]],[[-0.013549271,-0.0610473976],[0.0392393172,-0.0373625234]],[[-0.0058205472,0.0703328848],[-0.005939506,0.0258270334]],[[-0.0191404056,0.0073560206],[0.0057302271,0.0950671956]],[[0.0163881313,-0.0295665022],[0.0733755752,-0.0476493612]],[[0.0273046624,-0.0165559631],[0.0748100951,0.0050904802]],[[0.0245450158,0.0417703055],[0.1348567158,0.1032229587]],[[-0.0314736255,0.0783198476],[0.00784845,0.1736001968]],[[-0.0640670285,0.021719439],[0.0088112243,0.078622587]],[[-0.0518911853,-0.021672802],[0.0473293252,0.1164459065]],[[-0.010613421,0.0878415629],[0.1137700826,0.0903418809]],[[-0.0768446624,-0.0270710588],[0.0267266966,0.034342628]]],[[[-0.0185836665,0.0620314591],[-0.0099293077,0.0719984397]],[[0.0145301297,0.0615494549],[0.0147290435,0.0248874072]],[[0.0398639403,-0.0475636236],[0.1096818224,0.049894359]],[[0.0045872512,0.0999306962],[0.0385063477,0.0688896552]],[[-0.0093442807,-0.0469467193],[0.0806248337,-0.0017904458]],[[-0.0472359285,-0.0960897505],[0.0702901259,-0.0358480588]],[[0.0153966527,0.05524569],[0.0390986726,0.0655878112]],[[-0.005624067,0.0485885665],[-0.016077999,0.0198692046]],[[-0.0419836007,-0.0247266144],[0.0260993764,0.0273819752]],[[-0.0209804252,0.0722085387],[0.042026151,0.0336988866]],[[-0.0131767001,-0.015067785],[0.0250747465,-0.0183407255]],[[-0.0133765303,-0.0894968808],[0.0884685516,0.0097343978]],[[-0.0495772436,0.0566023476],[-0.0287415627,0.0561222024]],[[0.0547848567,0.1152634472],[0.0776420832,0.0714749172]],[[-0.0385513492,-0.0461925864],[0.0610083714,0.0249685012]],[[0.0450960957,-0.0162384231],[-0.0024364663,0.0380676836]],[[-0.0167987216,-0.0355762839],[0.0751571283,0.0424623825]],[[0.036387872,-0.0665258095],[0.0227014199,-0.0040777191]],[[0.0482126735,0.0571266562],[0.0525678061,0.0069826217]],[[-0.0198009443,0.0496901609],[-0.0024953987,0.0294965617]],[[-0.0121134827,-0.0251543969],[-0.0078463489,-0.0263353512]],[[0.0685531497,0.1172137186],[0.0710390434,0.0496439971]],[[0.007722815,0.1229640245],[-0.0268836506,0.1013610139]],[[0.0104513923,0.0479392558],[0.0185534135,0.0095692985]],[[-0.0357118882,-0.0476804636],[0.0450301096,-0.032968238]],[[-0.0551095195,-0.0503907278],[0.052180063,0.0480054729]],[[0.022001721,0.0367449634],[0.0292545892,0.0763565972]],[[0.0223308615,0.0867474154],[-0.0072020469,0.0908991173]],[[0.0609271526,0.0036633164],[0.0397543311,0.0781872347]],[[0.0007470888,0.0062311324],[0.0650186464,-0.0230027512]],[[-0.0602628514,0.0098570781],[0.0027536033,0.0387804545]],[[-0.0450904965,0.102501303],[-0.0121742366,0.164093107]],[[0.0260063857,-0.0398409143],[0.0855183005,-0.0306551289]],[[-0.0431442782,-0.0354943052],[0.0812929124,0.0775115266]],[[0.0266200639,-0.067642197],[0.0004945403,0.0225887559]],[[0.008362893,-0.0206018556],[0.0270373356,-0.0007345199]],[[0.0176347699,0.1281865984],[0.047327254,0.1074126735]],[[-0.0495082326,-0.0567138791],[0.0444737822,-0.0065497928]],[[0.0127062462,0.1057637855],[0.0744637698,0.0948469564]],[[0.0043923608,-0.0023092828],[0.0551258698,0.0891205892]],[[-0.0236325301,0.0166552402],[-0.0502769761,-0.0224057976]],[[0.0015171148,0.0254993066],[-0.0137593029,0.0556444563]],[[-0.0525807589,-0.0433533788],[0.0266258549,0.0300321132]],[[-0.0514337085,0.0844837651],[-0.0057871048,0.0742778406]],[[-0.0594345927,0.001852761],[0.0228055157,-0.0199164655]],[[0.0165705793,0.0513010658],[-0.0248690341,0.1278863847]],[[-0.006315731,0.1056932211],[0.0399977006,0.104392454]],[[0.0185040515,0.1461032927],[-0.0102974772,0.1103785783]],[[0.0610656366,0.0521403439],[0.0013513518,0.0740676373]],[[-0.0385748968,0.0277905241],[-0.0257510096,0.0515295565]],[[0.0468927361,0.1291032583],[-0.0189684741,0.0911652818]],[[-0.0536502227,-0.0440599993],[0.0798830166,0.0238483287]],[[-0.0625937283,0.0196406469],[-0.0062939548,0.0530386902]],[[-0.0485993437,-0.0873740613],[0.0999956504,0.0813067332]],[[-0.0100587504,-0.0122447256],[0.0517406389,0.0218979232]],[[0.0161925722,-0.0052741789],[-0.0303873923,0.0706891268]],[[-0.0211735871,-0.0532643981],[0.0087036733,0.0296604857]],[[0.0560188219,0.0047401488],[0.0903301537,0.0674119741]],[[0.0252439212,0.0616080351],[0.0418134443,0.1255948991]],[[-0.0030487205,0.0976809114],[-0.022012854,0.0557983704]],[[0.0202397313,0.0230182111],[0.007662883,-0.0116544999]],[[-0.0375722498,0.0275144801],[0.0787456632,0.102914907]],[[-0.015306863,0.0688487291],[0.0570592061,0.0483263582]],[[-0.0229453854,0.0577438995],[-0.0241190586,0.0748930722]]],[[[-0.0099984389,-0.0193356797],[-0.050971549,-0.0269392543]],[[0.0109391417,-0.0026384755],[-0.0209270455,-0.0015858975]],[[0.0419346914,0.0174804144],[0.0408672243,0.0113914674]],[[-0.0612075888,-0.0446960181],[-0.0506451018,0.0022017183]],[[0.0959495604,0.0177011583],[0.0799583718,-0.0414961427]],[[0.0645346865,-0.0018859071],[0.0827873871,0.0449420847]],[[-0.003646865,0.0209961273],[-0.0225448124,0.0054131239]],[[0.0206960458,0.0281354766],[0.0145060821,0.0133237392]],[[0.0482344814,-0.0164892618],[0.0159101486,-0.0089014852]],[[-0.001345869,0.00167819],[-0.0330824293,-0.0067618969]],[[0.0506141484,0.0179633573],[0.0420053639,0.0080409199]],[[0.0579154491,0.0375884585],[0.0104829213,0.064448379]],[[-0.044128526,-0.0105377575],[-0.0333097279,-0.0482013784]],[[-0.0063054306,-0.0010293706],[-0.0312353466,-0.0074255075]],[[0.0659585744,0.0364539251],[0.0490702316,0.0291014053]],[[0.0181151256,-0.0223303456],[0.0060589653,-0.0059439777]],[[0.0075303242,0.0002699605],[0.0062161344,-0.0125139356]],[[0.0568272173,-0.0202667899],[0.0743304119,0.0384263285]],[[0.022412302,0.0555027202],[0.0345184989,0.0177137833]],[[-0.0223338678,0.0011832919],[-0.0075945333,-0.0059522614]],[[0.0373266153,0.0544812605],[0.0849596933,0.0138386795]],[[-0.0004976914,0.006440891],[-0.0238740537,-0.00203069]],[[-0.0127898306,0.0017561264],[-0.0330677815,-0.0429068841]],[[0.0027243188,0.0181541052],[-0.0446588211,-0.0297141001]],[[0.02648535,-0.013844233],[0.0466862246,0.0283948611]],[[0.0779710859,-0.0199632235],[0.0284871496,-0.0191027876]],[[0.0701175183,-0.0188934524],[-0.0143598737,0.0169359129]],[[-0.0662501827,-0.0119884787],[-0.0355459265,-0.035427466]],[[0.0159438457,-0.0506678261],[-0.035688743,-0.0119718993]],[[0.0311340038,0.0444155782],[0.0065400251,0.0219741389]],[[-0.0028881899,-0.0098555973],[-0.0198950209,0.0030856268]],[[-0.0343765207,-0.06862735],[-0.0687153414,-0.0601877645]],[[0.0827918649,0.0219014119],[0.0710076243,0.0546307154]],[[0.0532302149,0.0119558172],[0.0068065962,0.0106043797]],[[0.0277464036,0.0601902306],[0.0522585027,0.0593423918]],[[0.0465936549,0.0045747627],[-0.0039342521,-0.035660062]],[[-0.016446257,-0.0157904197],[-0.0399375856,-0.0052749058]],[[0.0466468632,0.0329069309],[0.0337918699,0.0388784073]],[[-0.0686985403,-0.0078939507],[-0.0392143726,0.0090315146]],[[0.0455247946,-0.0253170896],[0.0180181861,-0.0140948128]],[[0.0079030115,-0.0037796232],[0.0156977586,0.0211285893]],[[0.0910519436,-0.010897479],[0.0062143872,-0.0427739806]],[[0.0631251633,0.0069566332],[0.020363044,0.0101113524]],[[-0.0081787668,-0.0207153056],[-0.0136609199,-0.045703806]],[[0.071786806,-0.0180127937],[0.0677716881,-0.0185060594]],[[0.0520876572,-0.0703516603],[-0.0096320063,-0.0335252136]],[[0.0008122168,0.007148162],[-0.0308754779,-0.0050731828]],[[-0.0452646092,0.0042870063],[-0.0125513533,-0.0117420461]],[[0.0118760616,-0.001263275],[0.0034528645,0.0178502444]],[[-0.0104179187,-0.0057934923],[-0.0456646346,0.0143412249]],[[-0.0185753498,-0.0583224781],[-0.022879893,-0.0396372117]],[[0.064934358,0.0233463868],[0.0567808077,-0.0137873879]],[[0.0124747762,-0.0025128778],[0.0066544497,-0.0037548102]],[[0.0508495755,0.0092462329],[0.0137135442,-0.0009736019]],[[0.0351942964,-0.0341874138],[0.0053389324,0.0249357931]],[[-0.0522543415,-0.0454220101],[-0.0293129571,-0.0092623001]],[[0.0805319101,0.0132819852],[0.0119740991,-0.002386048]],[[0.0438243821,0.0533325896],[0.0210982151,-0.0094849458]],[[0.0090720924,0.0503938496],[-0.033468619,-0.0045969929]],[[-0.0054048989,-0.0130516617],[-0.0064782882,-0.0047412459]],[[-0.0021167493,-0.0247448087],[-0.0449469909,-0.0096837515]],[[-0.0238349363,-0.018180225],[-0.0421822779,-0.0131658409]],[[-0.0282309372,-0.0037902216],[-0.0241339114,-0.0219280254]],[[0.0104271872,0.0086285202],[-0.037212126,-0.031895604]]],[[[-0.0196785685,-0.0314081907],[-0.0424559265,0.0199763905]],[[-0.0375126414,0.0688031167],[0.0100367563,0.0424322598]],[[0.0079669794,0.0229253173],[-0.0129497452,0.0254045445]],[[-0.0123129981,0.0594402812],[-0.0518772602,0.0745560005]],[[0.0858495831,0.0208185893],[0.0075496021,-0.039146658]],[[0.0267959237,0.0854194164],[0.0145302992,-0.0097456584]],[[-0.0220146384,0.0777164996],[-0.0034036248,0.0858838633]],[[0.0002710486,0.1027787849],[-0.0149702439,0.0736183301]],[[0.1431728303,0.0290577821],[0.1113218069,0.0138725536]],[[-0.015551175,-0.048601713],[-0.0207029153,-0.0165869799]],[[0.0328621641,-0.0040753647],[-0.0053226473,-0.0155628473]],[[0.0583751723,0.0428949408],[0.0592883378,-0.0161810461]],[[0.0513910986,-0.0175313763],[0.0123311877,-0.0404811352]],[[-0.0257360693,0.0965342522],[0.0054719611,0.1292541772]],[[0.0378240533,0.124995403],[0.0591737702,0.108151041]],[[-0.0046907025,0.0226924215],[0.0244583301,0.0232876837]],[[0.0366297737,0.021952752],[0.0345895886,-0.0099902805]],[[0.1162384897,0.0182448532],[0.0080586011,0.0199086014]],[[0.019793421,0.1320021003],[0.0410696007,0.1134291068]],[[0.0392700434,-0.001612175],[0.018394025,-0.0304311905]],[[0.0396658964,0.0759591907],[0.0106685683,0.0138412993]],[[-0.0375497192,0.1404123455],[0.0025092426,0.1154767573]],[[0.010411243,-0.0012258267],[0.0047547752,0.0086631523]],[[0.0024891982,-0.0289371517],[0.0476854742,-0.0053328983]],[[0.0497959331,-0.0135979503],[-0.0038592182,0.0155946966]],[[0.1343370527,0.0408571959],[0.1286869049,0.0159589332]],[[0.0300381463,0.0331235491],[0.0005644161,-0.0390892811]],[[-0.0277885348,0.0200497564],[0.0363863818,0.0311682876]],[[0.0749823824,-0.0341530852],[0.0465650558,0.0083932802]],[[0.0444810502,-0.0333083607],[0.0139453262,-0.0125710191]],[[0.0439935587,0.0090627475],[0.0306274127,0.0104417149]],[[0.1017752066,-0.0576548465],[0.0084329937,0.0125216627]],[[0.0375856832,0.0258748885],[0.0406151153,0.0649284199]],[[0.0796397477,0.0508015901],[0.0498208813,0.0379715562]],[[0.0273871999,0.0663605779],[-0.0004855866,0.0657065809]],[[0.069674924,-0.010969108],[-0.0195448659,0.0075126449]],[[-0.0253255777,0.1219731569],[-0.0031370907,0.1152951568]],[[0.0260669962,0.0308821667],[0.0483315103,0.030217234]],[[0.0168600269,0.0754932687],[-0.0576763824,0.0725921541]],[[0.0598702095,-0.0196370017],[0.0694675148,0.0310900398]],[[-0.0094875796,0.026590256],[-0.0261883754,0.0164031629]],[[0.1144153252,0.054195229],[0.1093824729,0.0082385335]],[[0.0697046667,0.029926775],[0.1041406915,0.0074411235]],[[-0.0034994106,-0.0315147378],[0.0129085938,-0.048572354]],[[0.1034745425,0.0548323132],[0.0109836292,0.0052903756]],[[0.1302491277,-0.0167750306],[0.0996153578,0.0242928956]],[[-0.0045547881,0.0453862511],[-0.025951799,0.0433607474]],[[-0.0152608035,0.0241971985],[-0.0643973202,-0.0007837665]],[[0.0733644962,-0.018119188],[0.0323435329,0.0249118395]],[[0.0281012394,0.0609967485],[-0.0243653134,0.0673067793]],[[-0.0213475171,-0.0226477124],[-0.0541416109,0.0344162546]],[[0.0152149387,0.0012239084],[0.0585104115,0.030901229]],[[0.0632901117,0.0055355085],[0.0331695862,0.0411829054]],[[0.063583903,0.0039483644],[-0.0162155051,-0.0229078475]],[[-0.0070145004,-0.0078889094],[-0.0123698683,-0.0533424765]],[[0.0023507304,-0.0473848172],[-0.0139892437,-0.0303018019]],[[0.0482180826,0.0688239038],[0.0654298216,-0.0056008133]],[[-0.0273645204,0.0663030744],[0.0316776931,0.0711510032]],[[-0.0274499562,0.1470521539],[0.0156224528,0.0989515707]],[[0.0141960075,-0.0189708136],[0.000510598,-0.0055272053]],[[0.0064308573,0.0237579755],[0.0088188732,0.0159884784]],[[0.010638413,-0.0044518732],[-0.0543326586,-0.0002215888]],[[-0.0387235805,0.0285542235],[-0.0227552596,0.0539941974]],[[-0.0420172587,0.0066383267],[-0.0144032836,0.0360482112]]],[[[-0.0543321073,-0.0111789657],[0.0109546669,-0.0080934204]],[[-0.0129153188,0.0047574788],[-0.0062739598,-0.0379210822]],[[0.0239962786,0.0219764411],[-0.007879856,-0.0016977764]],[[-0.0358540155,-0.0309090968],[-0.062400613,-0.0023962976]],[[0.0918433219,0.0656327754],[0.0427708216,0.0448612422]],[[0.0800694376,0.0774093717],[-0.009753881,0.0684705898]],[[0.0002539163,0.0070286714],[-0.0009163973,0.0006895754]],[[0.0033329595,0.0102774538],[0.0091712307,0.0251096375]],[[0.0839785784,-0.0060300645],[0.0160320792,0.0132109271]],[[-0.0208032895,0.0007225024],[-0.0140844248,-0.0262209307]],[[0.0583646446,0.0209114235],[0.0199463908,0.0057537765]],[[0.041459661,0.030131869],[0.0222024228,0.0751690343]],[[-0.0623714142,-0.0693296343],[-0.0497402772,-0.0187740959]],[[-0.0481359363,-0.0081996815],[-0.0281859655,0.0003359554]],[[0.0556879714,0.0337844938],[0.0046818838,0.0489268638]],[[0.0109588373,0.0066678249],[-0.0396313705,0.0280477777]],[[-0.0119615449,0.001103784],[-0.0041964413,0.0298843794]],[[0.0918712318,0.0557506792],[0.0126047563,0.0573639236]],[[0.0303277634,0.0554060787],[0.0241919532,0.0540676638]],[[-0.0314957239,-0.0281867106],[-0.0090018669,-0.0293775219]],[[0.0557760485,-0.0112184826],[0.0587588958,-0.0252479594]],[[-0.0417918973,0.0454991385],[-0.037349049,0.037636973]],[[-0.0287211835,-0.0157966428],[-0.0024738051,-0.0335727818]],[[-0.0440004952,0.0155170094],[-0.0400223508,-0.0014195931]],[[0.0291081853,0.014719679],[0.0275451113,-0.0167286415]],[[0.0361955911,0.0149513073],[0.0162180327,-0.0098896911]],[[0.0578773543,0.0387750901],[0.0397138856,-0.0340594761]],[[-0.0505552702,-0.0312206317],[0.0048479172,-0.027932629]],[[-0.0035967922,0.0036879603],[0.0367425568,-0.0623729751]],[[0.0675486475,0.0151215317],[0.0177921057,-0.0143819591]],[[0.0137149086,-0.0286640786],[0.0239354651,-0.0009877481]],[[-0.0106036114,-0.0253606047],[0.0078732632,-0.0398877859]],[[0.0877759755,0.0355082564],[0.0208310671,0.0673649013]],[[0.021274073,0.0407058075],[0.0189494286,0.0464970618]],[[0.0598117933,0.0798722133],[-0.0100462073,0.0061622863]],[[0.0047637736,-0.0158537254],[0.0252566878,-0.0368763879]],[[-0.0457204096,0.0159742646],[-0.012093382,-0.0318079926]],[[0.0395204015,0.0277320594],[0.0121826325,-0.0195839498]],[[-0.0292051751,0.0262955688],[-0.0698670298,-0.0019499958]],[[0.0658749565,-0.0005746931],[0.0491369106,-0.0342950821]],[[-0.0380451977,0.0132752433],[-0.0071999985,-0.0007676739]],[[0.066736035,-0.0292988829],[0.0714679137,-0.0156252794]],[[0.0558470786,0.0178250019],[0.0271176882,-0.0165272504]],[[-0.0527249947,-0.0709256455],[-0.031491071,-0.0706727952]],[[0.0806023628,0.0613059439],[0.0192441829,-0.0171988178]],[[0.0315476768,-0.0569627993],[0.0307259168,-0.036331512]],[[0.0025417074,0.0181365423],[-0.0089971758,-0.0149034206]],[[-0.0311555155,0.0044415635],[-0.0278430209,-0.0062499871]],[[0.0523453578,-0.000877587],[-0.0262052547,-0.0530100018]],[[-0.0235566273,-0.0076464079],[0.0199752841,-0.0020766226]],[[0.0051963357,-0.0135012148],[-0.0456953049,-0.0136832362]],[[0.0238153636,-0.0089346059],[0.0114629185,0.0315815099]],[[0.0049984949,-0.0233100783],[-0.0049325349,-0.0024294634]],[[0.0280963853,0.0085872607],[0.0057709501,0.0046871356]],[[0.0048580011,-0.0099174706],[0.0083408486,0.0212565344]],[[-0.0366253443,-0.0433925278],[0.0120150344,-0.038298659]],[[0.0358826257,0.0106351972],[0.0550025068,0.0095356628]],[[0.0316792168,0.0507671684],[-0.0170620568,0.0005252658]],[[-0.0406818353,0.0593830831],[-0.0222097095,-0.0134681007]],[[-0.0075175106,-0.059216287],[-0.0013580484,-0.0377764255]],[[-0.042165339,-0.0412239656],[0.0065766559,0.0153885772]],[[-0.0143760387,-0.0333830304],[-0.0350673422,-0.0479705855]],[[-0.030774409,0.0027500615],[-0.0318210237,-0.0170959346]],[[-0.0392014645,-0.0152109405],[-0.0018799343,-0.0458484888]]],[[[-0.0007623279,0.0145581393],[0.016845258,-0.0187559128]],[[-0.0485902093,-0.0300330054],[-0.0185395442,-0.0283095893]],[[0.0213184897,0.0163564831],[0.0011022822,0.0092915734]],[[-0.0074737589,0.0023821122],[-0.0465851836,-0.052712366]],[[-0.0118302815,0.0315857157],[0.007403349,0.0420745574]],[[0.0458589643,0.0788405687],[0.0529562309,0.0369565077]],[[0.004748316,-0.0083158165],[0.0026271574,0.0138185248]],[[0.0131086884,0.0029307748],[0.0012151704,0.0158744473]],[[0.0066633294,0.0174189862],[0.0032051525,0.0028158266]],[[0.0201107301,-0.0019977486],[0.0252989233,-0.0471488461]],[[0.0069686491,0.0323593654],[0.0353730954,0.0231698565]],[[0.0410253108,0.057738401],[0.0349452533,0.0447272584]],[[0.0028934455,0.0064334436],[0.0103593776,-0.066171959]],[[-0.0283849929,-0.0162188523],[-0.0453858785,-0.051358413]],[[0.010885057,0.0401218422],[0.012529904,0.0295215044]],[[0.0243896581,-0.0265751835],[0.025487246,0.008392089]],[[-0.014623424,-0.0020822417],[0.0215913318,0.0429702401]],[[0.0307611916,0.028942043],[0.0371805951,0.0277041867]],[[-0.0218464993,0.0056635537],[0.0066373623,-0.0108611844]],[[-0.00172453,-0.0040960801],[0.0126763666,-0.0221382063]],[[0.0517900363,0.0740130022],[0.0573560856,-0.010382548]],[[-0.0163053144,-0.0101056686],[-0.0258530844,-0.0011656655]],[[-0.0086972592,-0.002811498],[-0.0347830057,-0.0493404269]],[[-0.0263832826,0.0063363034],[0.026190808,-0.0258799698]],[[0.0541509353,-0.0036298535],[-0.0049241954,-0.0208738111]],[[0.0406897552,0.0586047582],[0.0383494906,0.0235187281]],[[0.0009666949,-0.0144850966],[-0.0131523097,-0.0041508502]],[[-0.0383408517,-0.0550120659],[0.0084978025,-0.0703853518]],[[-0.0027486088,0.0128931077],[-0.0292966757,-0.0359198637]],[[0.0446803905,-0.0111429747],[0.0018008613,0.0399682596]],[[-0.0081232805,0.0153027074],[-0.0162367802,0.0064592105]],[[-0.020148566,-0.0060205613],[-0.0304128285,-0.0727151111]],[[0.0153794419,0.0244743545],[0.0596537665,0.0580582172]],[[0.0068760323,0.0431037433],[0.0473076478,0.0378164388]],[[0.0110710422,0.0398643017],[-0.0026892642,0.009685969]],[[0.0423509814,0.0254712384],[0.024915792,-0.0253307018]],[[-0.0407886803,-0.014129688],[-0.0136688799,-0.0167220421]],[[0.0250632893,0.0464849621],[0.0099640302,0.0537801757]],[[-0.0247185193,-0.0117865186],[-0.0376675203,-0.038959153]],[[0.0349607691,0.0556975491],[0.0006815348,0.0421003513]],[[0.0115464656,0.026559256],[-0.0359916165,-0.0360214449]],[[-0.0055207275,0.0052025979],[0.0241547935,-0.007354436]],[[0.0146583477,-0.0015901916],[-0.0041765431,0.0071836314]],[[-0.0069308905,-0.0239268653],[-0.004436811,-0.0485446379]],[[0.0377361104,0.058868546],[0.0220599435,0.0619258881]],[[0.0203890074,-0.0026443843],[0.0300247595,-0.0147041734]],[[0.0022350228,-0.0458989553],[-0.0471467152,-0.066804029]],[[-0.0080638779,-0.0048582358],[-0.0550312512,-0.0578048602]],[[0.0294468626,-0.0237731785],[0.0037804511,-0.0337768421]],[[-0.0316458456,0.0167289544],[0.0045224377,-0.0449922271]],[[-0.0595904589,-0.023568755],[-0.0096912654,-0.0559153333]],[[-0.0021957171,0.0626560077],[0.0533730425,0.0619827807]],[[0.0150914723,0.0147045925],[0.0068346062,-0.0123940194]],[[0.0111883534,0.04647585],[0.0278187972,0.0185415074]],[[-0.0212423876,0.0242489576],[-0.0229166504,-0.00646572]],[[-0.0041232584,-0.0370649733],[0.0191202909,0.0109357433]],[[0.0558612719,0.0552184954],[0.0110254847,-0.0048045455]],[[0.0074552847,0.0031736183],[0.0264158156,0.0014386745]],[[-0.0217697099,0.0045095091],[-0.04941006,-0.0238758586]],[[-0.0406209268,-0.0295619145],[-0.0366459638,-0.060715992]],[[-0.0071840859,-0.0114231138],[-0.026360454,-0.01468773]],[[-0.0332242884,-0.0018004678],[-0.0460971333,-0.0312504098]],[[-0.0361518301,-0.0276025478],[0.018767843,-0.0438286178]],[[-0.005850526,-0.001647854],[0.0009235376,-0.0350299068]]],[[[0.0386409238,0.0125058126],[0.0122779161,0.0273426846]],[[0.0188765265,0.0214559101],[0.0575119965,0.0405651405]],[[-0.0376366824,-0.0904456899],[0.0203605704,0.0004689954]],[[0.0625318959,0.076900728],[0.0444791913,0.075893797]],[[-0.104714565,-0.1307897121],[-0.0510163493,-0.0123425405]],[[-0.1444310993,-0.1455968171],[0.0447278097,0.0392480642]],[[-0.0115361689,0.0022890242],[-0.0002054172,0.0008487828]],[[-0.0188648198,0.007409079],[-0.0485929549,-0.0445989706]],[[-0.0771825314,-0.062142048],[-0.0533291884,-0.0352502316]],[[0.0360280499,0.0423506126],[0.0453178994,0.0453822091]],[[-0.0459379405,-0.080823198],[-0.0039344844,0.0093355523]],[[-0.1237287074,-0.1371158808],[-0.047013782,-0.0339336656]],[[0.0489590615,0.0488526747],[0.0830489621,0.1241316125]],[[0.0369441733,0.0197798777],[0.0256664883,0.0318504162]],[[-0.0416803472,-0.0380535424],[-0.0379747488,-0.0588794462]],[[-0.0212551933,0.0479133055],[-0.030126242,-0.0072689597]],[[-0.0476650968,-0.0424845852],[-0.0099489605,0.023623975]],[[-0.1057933941,-0.0616381057],[-0.0575580895,-0.0164761692]],[[-0.0617050007,-0.0516462214],[0.0108277462,-0.0245366544]],[[0.0457341671,0.0413404778],[0.0120635461,0.0289822202]],[[-0.0877045393,-0.1184459105],[0.0519738272,0.043508146]],[[-0.0006212597,0.0321239345],[-0.0015141375,-0.0143643571]],[[0.0892095566,0.0818926841],[0.0634860918,0.0661339089]],[[0.0421396196,0.0225795414],[0.0355584025,-0.0032401374]],[[-0.0276250094,-0.0456068218],[0.0633337721,-0.0134690106]],[[-0.089336887,-0.0860638171],[-0.02058837,0.0320248492]],[[-0.0482747555,0.0049191341],[0.0245851688,0.0242088549]],[[0.0890647396,0.106891714],[0.0397485122,0.0447152257]],[[-0.0094439015,0.0633764789],[0.0330368392,0.0373334624]],[[-0.0753304586,-0.0272956975],[-0.0144560076,-0.0271679051]],[[-0.0017389728,0.0035442426],[-0.0078936759,-0.0254343115]],[[0.0505277812,0.0588994585],[0.0780161843,0.1216362566]],[[-0.145888105,-0.1191134676],[0.0025888484,-0.0397694781]],[[-0.0444645882,-0.0990868881],[0.0344632566,0.0754065961]],[[-0.0710720941,-0.1414335966],[0.0115034571,-0.0637314022]],[[-0.0087670079,-0.0196880158],[0.0365821421,0.0430642404]],[[0.0513301045,0.0506187826],[0.0110657113,0.0190183502]],[[-0.1162339672,-0.0846294686],[0.0450803079,-0.0000594554]],[[0.0624373443,0.0560221374],[0.0504793078,0.0447959788]],[[-0.1371760815,-0.0926710293],[-0.0390718356,0.0394879095]],[[-0.0339772552,-0.0050730696],[-0.0053258752,0.0180887561]],[[-0.0574366562,-0.070017755],[-0.0522090159,0.0203143973]],[[-0.0467933342,-0.0575596094],[-0.0678869262,-0.0216750875]],[[0.0568993501,0.0164882652],[0.0832450762,0.1028254107]],[[-0.1430323422,-0.095450297],[-0.0729077682,-0.038394779]],[[-0.0191300306,0.025489524],[-0.0105202543,0.0452813245]],[[0.0675389394,0.071774587],[0.0188351646,0.0525801405]],[[0.0499978811,0.0564351901],[0.0616877973,0.0853447318]],[[-0.0265039708,-0.0115450537],[-0.0112815229,-0.0149844438]],[[0.0147539089,0.048293896],[0.0080678733,-0.0091149909]],[[0.0544260256,0.0678155497],[0.0813541338,0.0790128484]],[[-0.0921244249,-0.0731796175],[0.0163427144,0.0477164946]],[[-0.0146527179,0.0019627258],[0.0218662862,0.0484673493]],[[-0.1071170047,-0.0930864811],[0.0372262225,0.047704529]],[[0.0023250997,-0.0422130004],[0.0125940796,0.0192262568]],[[0.0630744398,0.0221095309],[0.0568214022,0.051322259]],[[-0.0893393531,-0.0989554673],[0.0125502907,0.0064149508]],[[-0.0762998387,-0.0861989558],[0.0061773509,0.0216255132]],[[0.0106779039,-0.0313422568],[0.0255823731,0.0088815363]],[[0.0799064487,0.0485427976],[0.0032482722,0.0113826944]],[[0.0199692976,0.0659641027],[-0.0209891237,0.0174692143]],[[0.0246731807,0.0596150421],[0.0970645398,0.1052695364]],[[0.0409735702,0.0795009956],[-0.006747623,0.0414365269]],[[0.009080383,0.0110236313],[0.0240711216,0.0494522862]]],[[[-0.0258718636,0.0000554429],[-0.0202487446,-0.0242831092]],[[-0.0450991243,-0.0023893679],[-0.0268434305,-0.0088587226]],[[0.0283591691,0.0508231893],[0.0078856749,0.0508508869]],[[-0.0227394104,0.0006678762],[-0.0259527937,-0.0357048139]],[[0.0544828363,0.0924338996],[0.0489424542,0.0512792207]],[[0.045300521,0.0460160486],[0.0497132912,0.0340952538]],[[0.0086474298,0.027557902],[-0.0252049603,0.0129324906]],[[0.003677007,0.0097991778],[0.0047527053,-0.0095736422]],[[0.0463781208,0.0651145875],[0.0280997809,0.0313872173]],[[0.0007815222,-0.0079183728],[-0.0540174693,-0.038322866]],[[0.0328807123,0.0367773175],[0.0297729205,0.0205780305]],[[0.0679352731,0.015784299],[-0.018795589,0.0678704008]],[[-0.008992237,-0.0073762396],[-0.0200959705,-0.0697418824]],[[-0.0042375708,-0.0266823098],[-0.0414773114,-0.0611761473]],[[0.0382314436,0.0180635173],[0.0188786574,0.0485450029]],[[-0.0256445855,-0.0130954143],[-0.0025260553,-0.015980985]],[[-0.0202509649,-0.0184251443],[0.0182690527,0.0440092906]],[[0.0301851202,0.0897234455],[0.0324646235,0.044234287]],[[-0.0102739194,0.0330620892],[0.0124575747,0.0567203127]],[[-0.0166775975,0.0019794481],[0.0072460421,-0.014625892]],[[-0.00174576,0.0347706154],[0.0338271633,0.0741350353]],[[-0.0256921668,0.0196959879],[-0.0011140562,-0.0288528651]],[[-0.014831163,-0.0093196826],[-0.0251184329,-0.03834299]],[[0.0111278566,-0.0036291964],[0.0166147947,-0.0415043756]],[[-0.0038417988,-0.011603862],[-0.0004188566,0.0098364037]],[[0.0258515906,0.0582015514],[0.0326216146,0.0638914406]],[[0.0135243125,0.0587811247],[0.0390150473,0.0575682037]],[[0.0075991852,-0.0737667531],[-0.0337964147,-0.0518416911]],[[0.0392784551,-0.0179613866],[0.0080472743,0.0206296407]],[[-0.0143765174,-0.0147089427],[0.0480326563,0.0408261903]],[[0.0304747466,0.0056964899],[0.0255021323,0.0200946406]],[[-0.0154978903,-0.0204797387],[-0.0268685818,-0.0553578772]],[[0.0047632679,0.0795295015],[0.0198777597,0.0912437439]],[[0.0101959221,0.067468144],[0.0559734963,0.0226267967]],[[-0.010200345,0.0145976264],[0.0432816409,0.0200047139]],[[-0.0027180426,-0.0172978248],[0.0118366415,0.0165787712]],[[0.0050247116,-0.0456831008],[-0.0009538662,-0.011048154]],[[0.0459580645,0.0685670674],[0.0095372414,0.0267755538]],[[-0.0010981119,-0.0576548055],[-0.0618231632,-0.0216994807]],[[0.0022406783,0.0379854254],[0.0238769148,0.0102999611]],[[-0.0239653662,0.0157421511],[0.0304912124,0.0163687784]],[[0.0485017337,0.0728607923],[0.0397867002,0.0371391922]],[[0.024430804,0.0383152813],[0.0332703739,0.0410290547]],[[0.0185281653,0.0128640216],[-0.0070078736,-0.0281565879]],[[0.0641590133,0.0688848644],[0.0075687747,0.0409009568]],[[0.0661253557,0.0315151177],[-0.0009194016,0.0104758013]],[[0.0017210178,-0.0534113534],[-0.0365075059,-0.0512388758]],[[-0.0265518986,-0.0692953765],[0.0121701229,-0.0818205774]],[[0.0493684337,0.0028342679],[-0.0175375752,-0.0426245667]],[[0.004951545,0.0031402512],[-0.0016168909,-0.0164701864]],[[-0.0509211048,-0.0821690932],[-0.0361482911,-0.0377110168]],[[0.0502558798,0.0581789277],[0.0475517362,0.0287127271]],[[0.03031197,0.0118961381],[0.0140717607,-0.0058068773]],[[0.0014228023,0.0335088558],[0.0139609901,0.0323034748]],[[-0.0217254106,0.002935959],[-0.0103021143,-0.0161288884]],[[0.0209943466,-0.0341036357],[-0.0289009027,-0.0003960068]],[[-0.0008918041,0.0286458638],[0.0351045355,0.0450711474]],[[0.0144120818,0.0553981401],[0.0156519804,0.0362438671]],[[0.0127672497,0.012581286],[-0.0451550335,-0.0222042892]],[[0.0102313152,0.0041056005],[-0.0180937015,-0.0535337441]],[[-0.0072408607,-0.0366484746],[-0.0053047682,-0.0470145121]],[[0.005786181,-0.0135020139],[-0.0468744859,-0.0127888713]],[[0.0329372101,-0.0189148225],[0.0205874648,-0.0378564857]],[[-0.045020327,-0.0275814459],[-0.0385110714,-0.0561826602]]],[[[0.0399523526,0.0063280328],[0.0644392148,0.0893739387]],[[-0.0009179555,-0.0288749859],[0.0272055063,0.0477244295]],[[0.0231217351,-0.0031657533],[-0.0005160474,-0.0476189815]],[[0.0162605308,0.0611409061],[0.0511880852,0.0280869566]],[[-0.0023529949,0.0047444282],[-0.044021938,-0.055778645]],[[0.0192611404,-0.0554616898],[-0.0420999676,-0.0292031597]],[[-0.0147709502,0.0030425228],[0.0438231453,0.0443416834]],[[-0.0183520578,0.0273359865],[0.0291382819,0.0415562242]],[[-0.0248873197,-0.0210130811],[-0.0383996964,-0.0386597998]],[[0.0430745296,0.0623528361],[0.0475445054,0.0980291888]],[[0.0089010531,0.0013416446],[-0.0187020116,-0.0121888975]],[[-0.0027705014,0.0355095416],[-0.0220723562,-0.0729962811]],[[-0.0093732011,-0.0309255775],[0.0599571392,0.0944598019]],[[0.0109179579,-0.0100359917],[0.0415780544,0.0454659984]],[[-0.0279977005,-0.0454675071],[-0.0016941453,-0.0493934825]],[[-0.0001472781,-0.0087374905],[0.0054576444,-0.0162967946]],[[0.0640137121,-0.0166381188],[0.0069372701,-0.0254287478]],[[-0.0324395634,-0.0385423414],[-0.0163583271,-0.0728580505]],[[-0.0137139773,-0.0335640013],[0.0304660164,-0.0518260598]],[[0.0382721946,0.0490140803],[0.0900580585,0.0685153231]],[[-0.0327255689,-0.0394034162],[-0.0390403904,-0.0777269229]],[[0.0284383614,-0.0205707997],[0.0328481607,0.0294837654]],[[0.0416015498,0.0445462614],[0.0637032539,0.126213789]],[[0.0350205824,0.008465494],[-0.0181934386,0.0073808664]],[[0.0647798404,-0.0067499741],[0.002303239,0.0166870002]],[[-0.0132857729,-0.0420902371],[-0.0857396424,-0.0961573049]],[[0.0378881209,-0.0043785726],[0.0436638966,0.0355290882]],[[-0.004331613,0.0178750884],[0.0864418224,0.0911733583]],[[-0.0144736664,0.0429660194],[-0.0175188314,-0.01784252]],[[0.0283291563,-0.005881716],[0.059086334,0.0297014397]],[[0.0111171594,-0.008594675],[-0.0258749835,0.0097011579]],[[0.0034718427,0.0047409837],[0.0025326123,0.046504423]],[[-0.0549770705,-0.023920672],[-0.0059872572,-0.0386842526]],[[0.016104633,0.0359140635],[0.0351364277,-0.0388816148]],[[-0.017398918,-0.0470707156],[-0.0089794938,-0.0141267702]],[[0.0462845564,0.0401717462],[-0.0249641314,0.0449081436]],[[0.0134344222,0.0094688041],[0.0470022969,0.0787141547]],[[-0.0036568586,-0.0459358543],[-0.0665111095,-0.0125731686]],[[0.0363175496,-0.0243432336],[0.0806899816,0.0352869183]],[[-0.0081143863,0.0214947909],[-0.0779069513,-0.0466694757]],[[-0.0527989902,-0.0024085806],[0.0038774586,-0.0267061424]],[[-0.0403543636,-0.0135288415],[-0.0751169696,-0.0904875696]],[[-0.0376618281,-0.0071742372],[-0.0218853895,-0.0451073349]],[[-0.019935431,-0.0220899042],[0.075853765,0.0954389051]],[[-0.0098481933,0.0159220491],[-0.0364216454,-0.0371067822]],[[-0.0083542699,0.0103925141],[-0.0531811938,-0.0276082568]],[[0.0191966072,0.0463180058],[0.093295522,0.0868182331]],[[0.0654638112,0.0690358803],[0.0521810874,0.1383680552]],[[-0.0195468757,-0.014986923],[0.0485138334,0.0408951603]],[[-0.009662251,-0.0195369255],[0.0551127121,0.0144884819]],[[0.0544996709,-0.0011597783],[0.1030414328,0.1358390599]],[[0.0065277694,0.0254357737],[-0.0043664789,-0.0466536544]],[[-0.0351396799,-0.0232096389],[-0.000839962,0.0060585346]],[[0.0090236729,-0.0019760611],[-0.0284152441,-0.0472446866]],[[0.0564122535,0.0487369895],[-0.0277731549,0.053066805]],[[0.0553025119,0.0460961983],[0.0901430845,0.0671086684]],[[-0.0022031993,0.0010432086],[-0.0264673755,-0.0719041228]],[[0.0282702502,0.0021312039],[0.0099088894,-0.0523696318]],[[-0.0167641491,-0.0105008623],[0.0130135668,-0.0097301481]],[[0.044360213,0.04375384],[0.0808750764,0.1001631841]],[[0.0205178633,-0.0132391583],[-0.0058255778,0.0770438686]],[[0.0147727551,0.0018476079],[0.0976687446,0.0991332307]],[[0.0264419243,0.0743975639],[0.1029159725,0.0892747119]],[[-0.0272913259,-0.0023666904],[-0.0170500707,0.0514661446]]],[[[0.0694038495,0.0804785341],[0.0102063036,0.0525959358]],[[0.0369820818,0.0290308315],[0.0273490921,0.0394631624]],[[-0.070982635,-0.0918075293],[0.0405561514,0.004743353]],[[0.0150653226,0.0636335984],[0.0913842991,0.0745037273]],[[-0.0996038988,-0.034363389],[0.0566924214,0.0463425554]],[[-0.1177685037,-0.1435323358],[0.0408116691,0.0560868606]],[[0.0311021358,-0.005659461],[-0.00050356,0.0167955719]],[[0.0075746165,0.0165562499],[-0.0391504206,-0.0048538642]],[[-0.0948626921,-0.0542544015],[-0.04261107,-0.0411219634]],[[0.0586376041,0.0717210323],[0.0214224998,-0.0118131284]],[[-0.0635855645,-0.0668991953],[0.0064076851,0.0474686287]],[[-0.1243772283,-0.1327637583],[-0.0390125774,-0.031656187]],[[0.0408515334,0.0725230351],[0.07200104,0.1044517532]],[[0.032726258,0.0470325947],[0.0333985277,0.0341606736]],[[-0.0795457661,-0.074856095],[-0.0561627261,-0.0090422351]],[[0.0331535675,-0.021759253],[-0.0118384939,-0.0432806499]],[[-0.0337914489,0.0139452433],[0.0254784022,0.0666429177]],[[-0.154529348,-0.1165970936],[0.0377888754,0.0361414477]],[[-0.0560074896,-0.0500799529],[0.0048620407,-0.0347590521]],[[0.033348117,0.0224375781],[-0.0050425013,0.003756468]],[[-0.0729283094,-0.1197252199],[-0.0315183662,0.0498119928]],[[-0.0029400035,0.0059821503],[0.0134918969,-0.0137251606]],[[0.0440348312,0.0840234756],[0.0499239974,0.0571377017]],[[0.04951258,0.0263596848],[-0.0336936228,0.0040994585]],[[-0.0731274486,-0.0430948697],[0.0299699027,-0.0200405214]],[[-0.1129605174,-0.0408268496],[-0.0137950582,0.0612818934]],[[-0.0566313379,-0.0125507303],[0.0433409587,0.0962575153]],[[0.0786816776,0.1040644944],[0.0610382892,0.041643586]],[[-0.0134682693,0.0639541522],[0.0362182818,0.0066506215]],[[0.0046658255,-0.0637545586],[-0.0235597007,0.031388931]],[[0.0018504071,-0.0102115748],[0.003617733,-0.0317861401]],[[0.0165317301,0.0664305463],[0.0818914548,0.1366495341]],[[-0.144318983,-0.1707890183],[0.0508694798,0.0055463002]],[[-0.1100754812,-0.0883369073],[0.0790755376,0.0966848582]],[[-0.0938418657,-0.1557557285],[-0.0366228186,0.0178601444]],[[-0.023040615,-0.0094443839],[0.0341624729,0.0089637628]],[[0.0727244169,0.0860277414],[0.0255126785,0.0047848704]],[[-0.0791027024,-0.0593925714],[0.0883479491,0.0991123915]],[[0.0256709047,0.0253942721],[0.0388157107,0.1073736921]],[[-0.1581467539,-0.0170659721],[-0.0265521202,0.03997311]],[[-0.0274017733,-0.0054445448],[0.028497722,0.0144588128]],[[-0.0682669207,-0.0072362479],[-0.0349451751,0.0406405851]],[[-0.0597879775,-0.035984166],[-0.0313415267,-0.0445368513]],[[0.0356897153,0.0866464227],[0.0891335458,0.1319437325]],[[-0.1345417798,-0.0614380017],[-0.0140400641,0.026506925]],[[-0.0313307047,0.0632746369],[0.0124649284,0.0315505974]],[[0.0830154344,0.0907615274],[0.0511798076,0.0702290833]],[[0.0907752141,0.1102273241],[0.0462397747,0.0741500482]],[[0.0436781123,0.0067773927],[-0.0348940715,0.0095639508]],[[0.048882775,0.0385115072],[0.0460508801,0.0348447561]],[[0.0575835779,0.113082476],[0.1087286696,0.0625442341]],[[-0.148806721,-0.070017539],[0.0345846117,0.0376536064]],[[-0.0170946345,0.0173522774],[0.0328164063,0.0568501949]],[[-0.0905806273,-0.0813721865],[0.0487940907,0.0880725384]],[[-0.0299846791,-0.0173640735],[-0.0053968537,0.0137121724]],[[0.0094200606,0.0005175713],[0.0059003117,-0.0038836026]],[[-0.1170641109,-0.0914032757],[-0.0223437995,0.0520499386]],[[-0.0189601276,-0.1167072505],[-0.0032984694,-0.0252280626]],[[-0.0332047679,-0.039684426],[0.0492313132,0.0418982171]],[[0.0796720535,0.0770557448],[0.0342986286,-0.0006035267]],[[0.0271624941,0.0413571931],[0.0350755826,-0.0047464548]],[[0.0442284718,0.0243652444],[0.1253454685,0.1062995791]],[[-0.0036222395,0.0716544986],[-0.0020517949,0.0293083973]],[[0.0090019386,0.0604276545],[0.0397531427,0.0606117956]]],[[[0.021708671,0.0066502993],[0.008230892,-0.0315235406]],[[-0.0291549023,-0.0278016236],[-0.0004263741,-0.0307837743]],[[0.0124693932,0.0086908415],[-0.0193628259,0.0250034109]],[[-0.0103211114,-0.0153280469],[-0.0279888157,-0.0810147449]],[[-0.0213970058,0.0126544936],[0.04273035,0.0557424277]],[[0.0046150414,0.0712643638],[0.0390364528,0.0639715716]],[[-0.0418046042,0.0287673417],[-0.0474262014,-0.0125266081]],[[-0.0118345954,-0.0132311173],[-0.0338819437,-0.0056857946]],[[0.0405211821,0.0381015316],[-0.0069388077,0.0256774966]],[[-0.0533619076,-0.0487035923],[-0.0343404785,-0.0142692626]],[[0.0281362515,-0.0051131775],[0.0165549964,0.0331824943]],[[-0.0072258897,0.0138701256],[0.0188556835,0.0782399252]],[[0.0170405377,-0.0279512946],[-0.0340582915,-0.0801563859]],[[-0.0472236276,-0.0310199093],[-0.0285440441,-0.0542110056]],[[0.0022498684,0.0169238932],[0.0254145171,0.0179150794]],[[0.0013564649,-0.024771221],[-0.0574500449,-0.0286605451]],[[-0.0339182466,0.0030845033],[0.0301927049,-0.00206769]],[[0.0526194982,-0.0077327169],[0.0641637743,0.0264276303]],[[-0.0213845149,0.0249334946],[-0.0220344979,0.014620251]],[[0.0039908229,-0.0437943973],[-0.0326879919,-0.0198941492]],[[0.0334023088,0.0827806816],[-0.0315285958,0.0519317724]],[[-0.0658567399,-0.0404317863],[-0.0653375983,-0.0062190029]],[[-0.0253253523,-0.0174368415],[-0.037362352,-0.0218621828]],[[0.0100398641,-0.0390779898],[-0.0154496068,-0.0392667092]],[[0.0589522272,0.0504418761],[-0.0319862552,0.0405244119]],[[0.0198893733,0.055310633],[0.0287647936,0.0288934838]],[[0.053300783,0.0333018377],[-0.0026692846,0.0022505091]],[[-0.0225111805,-0.0113279521],[-0.0262773186,-0.0066651283]],[[-0.0063272072,0.0024628381],[-0.0267215595,0.0031624162]],[[0.0388298109,0.0767095909],[0.0350038521,0.0725908056]],[[0.0092623634,-0.0313101076],[-0.0171926133,-0.00105939]],[[-0.0034053097,-0.0677381679],[-0.0007801929,-0.0518888906]],[[-0.0169503093,0.055043608],[-0.0217706114,0.0425518937]],[[0.0246434994,0.0529341698],[-0.0098667024,0.0506439283]],[[0.0381909572,0.0246144459],[0.0320214555,0.0392202921]],[[0.0343659632,0.0129794106],[0.0445830114,0.0094345128]],[[-0.0288527682,-0.0588485003],[-0.0608027689,-0.0103827072]],[[0.0000774369,0.0182930902],[0.0450712852,0.0405254327]],[[-0.0789234787,-0.0679482147],[-0.0136020435,-0.0760597885]],[[0.0429256037,0.0259927064],[-0.0020431392,0.0230716988]],[[0.0259159021,-0.0333989486],[0.0282466915,-0.0372961648]],[[0.0505276099,0.0005234362],[0.0415728688,0.0268700067]],[[0.0232718773,0.0383877009],[-0.0077427961,0.0046563717]],[[-0.0074957861,-0.0244850051],[0.0196324997,-0.0327214785]],[[0.0342087187,0.0012987163],[0.0249705669,0.0619914271]],[[0.0251618885,0.0159270484],[-0.001184762,-0.0463096574]],[[-0.0150179947,-0.0753492042],[-0.0273534711,-0.0338399857]],[[-0.0565012917,-0.0589607246],[-0.0528179668,-0.0411335938]],[[0.052279897,0.0128782168],[0.0464681014,-0.000200297]],[[-0.0565487854,0.0155282486],[-0.0310233142,-0.05507759]],[[0.0162579864,-0.0284028575],[-0.0486110151,-0.0870313421]],[[-0.0239760317,0.0085124085],[0.0224080905,0.0475200452]],[[0.0181013457,-0.0073439092],[0.015140661,-0.006260213]],[[0.0226939637,-0.0029668072],[0.0282261726,0.0295182355]],[[0.0564094149,0.0443269424],[0.0056236996,0.0145438146]],[[-0.0199194159,-0.0470630303],[-0.025743112,-0.0364979804]],[[0.0292633232,-0.0021300993],[-0.0074240696,0.0240402594]],[[0.0036126163,0.0325426869],[-0.0260872226,-0.0111984015]],[[-0.0348675661,0.0091864932],[-0.0442543253,-0.0451767966]],[[0.0013046993,-0.0784477964],[-0.023731932,-0.0804286003]],[[-0.0184808485,0.000828996],[-0.0340444744,-0.0001899705]],[[-0.0528544039,-0.0236866791],[-0.0151461642,-0.0494307056]],[[-0.0572456606,0.0151453679],[-0.0283447988,-0.0266547725]],[[0.0285048913,-0.0252401792],[-0.0606874786,-0.0075158477]]],[[[-0.0394260921,-0.0242927093],[-0.007961466,-0.0550587103]],[[-0.0610589348,-0.0493518859],[-0.0356609896,-0.0361389145]],[[0.0101440158,0.0346266106],[0.0314561687,0.012247094]],[[0.0012793096,-0.0047597722],[-0.0458706096,-0.0550297722]],[[0.0601188205,0.0623652227],[0.0547955483,-0.0073055374]],[[0.0330596454,0.0514391847],[0.0232881904,-0.0052157384]],[[-0.0199503023,0.0030987798],[-0.0253910739,0.0245124623]],[[-0.014013445,0.0052702026],[-0.0117932912,0.0004315344]],[[0.0463887416,0.0390327536],[0.0229046103,0.0134476041]],[[-0.0069343718,-0.037255615],[0.0120821474,0.0142710553]],[[-0.0051985905,0.0606056489],[0.0259823743,0.0208681654]],[[0.0089609046,0.095948711],[0.0634642243,0.0758873969]],[[0.0110466173,-0.0491035208],[-0.0281730872,-0.0460086763]],[[-0.0495775491,-0.0253237411],[-0.0325452872,-0.0161630269]],[[0.0150374807,0.0310096685],[0.0052519809,0.0506175049]],[[-0.0572958291,-0.000492109],[-0.0291709993,-0.0258673318]],[[-0.0306197628,-0.0123771168],[-0.0189628545,0.0203943942]],[[0.024473263,0.0830111727],[0.0339890011,0.0023598645]],[[-0.0118292263,0.0285429414],[-0.0184513424,0.0405843928]],[[-0.0082174167,-0.0494956598],[-0.0257259272,-0.0014559933]],[[0.0594407767,0.0454675518],[0.0726064816,0.0103622749]],[[-0.0334868319,0.0129787559],[-0.0367165208,0.0116645126]],[[-0.0005156624,-0.0110890334],[-0.046008531,-0.0155453188]],[[-0.0266045481,0.0023989533],[-0.0189405251,-0.0063259862]],[[-0.0133708129,0.0609090142],[-0.0198440924,0.0143658863]],[[0.0090432679,0.0157597493],[0.0644075796,-0.0158953965]],[[-0.0175827164,0.0111421971],[0.0069639487,-0.006586256]],[[-0.0396758877,-0.0587027185],[0.0024263691,-0.0048366664]],[[-0.0054151849,0.005645467],[0.0425332375,0.0002928192]],[[-0.0102246394,-0.0146905538],[0.0094033265,-0.0165609401]],[[-0.0326945707,-0.0006417144],[0.0105495034,-0.0082558868]],[[0.0162342563,-0.0048356219],[0.0080301743,-0.0811026916]],[[-0.0075486233,0.0856228098],[0.0509509854,0.0454988927]],[[0.0580888093,0.0234843362],[0.0216083098,0.0022669483]],[[-0.0158946868,0.0279666651],[0.0207462925,-0.0046302546]],[[0.0276011992,-0.0032709732],[0.0442395024,-0.0146095771]],[[-0.037712615,-0.0032402794],[-0.0089741871,-0.0408362038]],[[0.0479684547,0.031832967],[-0.0071235858,-0.0044910768]],[[-0.0095806196,-0.0275420509],[-0.0490872748,-0.0371046178]],[[0.0238966607,0.0277788378],[0.0153263407,0.0334909633]],[[-0.0248231553,-0.0417213328],[0.0251267143,-0.0371669531]],[[0.0384907313,0.0410171077],[0.0520181172,-0.0266755708]],[[0.0116526587,0.0037238754],[0.0123308888,0.0252428651]],[[0.0147473458,-0.0432904996],[-0.0023207092,-0.0894600153]],[[0.0214541256,0.0802185461],[0.0179419294,0.0419883952]],[[0.03556199,-0.0404183418],[0.0339492708,-0.0630848035]],[[-0.0109429248,-0.010230449],[-0.0558365211,-0.0119281365]],[[-0.0220364556,-0.0556422397],[0.0092695076,-0.0852116793]],[[-0.0001033252,-0.0198361445],[0.0253771413,0.0187679883]],[[-0.0326986611,-0.0390042514],[0.0035431681,-0.0465268567]],[[-0.0741884485,-0.0548601635],[-0.0561288036,-0.0783756599]],[[-0.0021039478,0.0536187664],[0.0162491985,0.0450485535]],[[0.0182720646,-0.0433248617],[-0.0050270264,-0.0265036896]],[[0.0268731434,0.0508820824],[0.0204384271,0.002927236]],[[0.0171141047,-0.0138102788],[0.0335385762,-0.0207806267]],[[0.018121114,-0.0023877071],[-0.0270595495,-0.012878947]],[[0.011683031,0.0708921701],[0.0619404949,0.0026659577]],[[-0.0305781048,0.0140578682],[0.0170562509,0.0211391095]],[[-0.0576932468,0.0227816552],[-0.0613856763,-0.0146749802]],[[-0.0352201015,-0.0742918551],[0.003988272,-0.061310295]],[[0.0156808328,-0.0534032136],[-0.0035508762,-0.003783209]],[[-0.0554921031,-0.0543621033],[-0.0608847067,-0.0735174865]],[[-0.0248269159,-0.0559976585],[-0.0268041678,-0.0323439278]],[[-0.0254928805,-0.0582607649],[-0.0389319509,-0.0176159982]]],[[[0.0331489965,0.0749438331],[0.0086615579,0.0136650391]],[[0.0392147899,-0.0026499825],[0.0515916049,0.0622746535]],[[0.0084418822,-0.0664348081],[0.0151821366,-0.0006999237]],[[0.0672867149,0.0063291015],[0.0424086712,0.0307458788]],[[-0.0472523831,-0.0580711551],[-0.023308849,0.015806172]],[[-0.0330217592,-0.0996088162],[0.000437933,-0.057022199]],[[0.0006380769,-0.0112509383],[0.0105373859,0.0167543683]],[[0.0055681556,0.0082810465],[-0.0097580301,-0.0128140105]],[[-0.0303743929,0.0190251544],[-0.0227077529,0.0052499161]],[[0.052414339,0.0286227185],[0.020046711,0.0603375919]],[[-0.0351499654,-0.0381655358],[-0.0071457545,-0.0101023205]],[[-0.0624216534,-0.0186182484],[0.0271542836,-0.0485308245]],[[0.0201777499,0.0228842609],[0.079700768,0.068753317]],[[0.0572356433,0.0496026501],[0.0362787582,0.0282314476]],[[-0.0521796122,-0.0723376647],[-0.0014130386,-0.0119359279]],[[-0.0045042159,0.0133275846],[0.0360272825,0.0199997295]],[[-0.0098523898,-0.0326134153],[0.010603332,0.0237768479]],[[-0.0373219252,-0.0806551948],[-0.0279520005,-0.0200967118]],[[0.015389055,-0.0063656871],[0.0525258631,-0.0052219061]],[[0.0178820305,0.0424449965],[0.0009777925,0.0080879219]],[[0.0090729017,-0.0748694986],[-0.024327768,0.0163607746]],[[0.0429893322,0.0206838679],[0.0203823186,-0.0144113004]],[[0.0224990491,0.0796398744],[0.0518842824,0.0995244086]],[[0.0388720669,0.036949005],[0.006019189,0.0577177741]],[[0.0282754172,0.0171258561],[0.0289008729,0.000487518]],[[-0.0960337296,-0.0517617501],[0.0033204614,0.0010093331]],[[0.0212018825,-0.0156988073],[0.0159074627,-0.0059187999]],[[0.0819633529,0.0701000243],[0.0312781036,0.0455589928]],[[0.0497644134,0.0090138372],[-0.0132015208,0.0736526176]],[[0.0006702475,-0.0165493414],[0.0664475337,-0.0081069963]],[[-0.010112321,0.0309753772],[-0.0007094155,-0.0204931833]],[[-0.0036434717,0.0697325543],[0.0662959814,0.0887623057]],[[-0.0507874973,-0.122677736],[0.0379523486,0.0087305158]],[[-0.0322932228,-0.0509672202],[0.0594983883,0.0374360979]],[[-0.0668471009,-0.0691902712],[0.0476330109,-0.015075908]],[[-0.0170741621,0.0557054169],[-0.0050497977,0.0626778603]],[[0.0493101664,0.0406699851],[0.0617295951,0.0422406867]],[[-0.052021753,-0.0596820749],[-0.011727416,0.0323226899]],[[0.0408881791,0.0555271283],[0.0736227632,0.0266779661]],[[-0.0419816114,0.010178498],[0.0329949223,0.0352162346]],[[-0.0181886982,-0.0053950674],[-0.020173179,-0.0160523821]],[[-0.0803895742,-0.0228303429],[-0.0522023067,-0.0229172502]],[[-0.0495726876,0.0054569468],[-0.0491650775,-0.0134121235]],[[0.050287772,0.0647174045],[0.0456464849,0.1134874597]],[[-0.0431786291,0.0049895681],[-0.01213108,0.0169079378]],[[-0.0244452171,0.0697611049],[-0.0234116316,0.0884359628]],[[0.0508140698,0.0721804276],[0.0683032647,0.0345717967]],[[0.0413768142,0.108401157],[0.038639769,0.1047868729]],[[0.0045776358,-0.0095884949],[0.0505483411,0.0025863547]],[[0.0166485216,0.0226655398],[0.0485735759,0.0285385586]],[[0.0292593557,0.1072565168],[0.0678460747,0.1342838854]],[[-0.0440544337,-0.0184718426],[-0.0321952589,0.014598568]],[[-0.0231605247,0.0075609339],[0.0201099552,0.0435462184]],[[-0.0442871302,-0.0344018191],[0.0261979513,0.016605407]],[[0.0187791269,-0.0280825682],[-0.0079493281,0.0407376066]],[[0.0438158326,0.0746063367],[0.0443091057,0.0320787318]],[[-0.0921961367,-0.0205566958],[-0.0073637115,0.0343559124]],[[-0.0135429315,-0.0719485804],[-0.011396545,-0.0417279974]],[[0.0415911116,-0.005570374],[0.0785384178,0.0066828271]],[[0.0808920711,0.0903525427],[0.026686402,0.0605650097]],[[0.0208786186,0.0342287458],[0.0372492187,0.0244279429]],[[0.0329532474,0.0028775912],[0.0552449152,0.1219065338]],[[0.0288481414,0.0522509962],[-0.0077006645,0.040347226]],[[0.0234488994,0.0441660434],[0.0191766322,0.0308585912]]],[[[-0.0063171675,0.0823317617],[0.0341369882,0.0563288964]],[[0.0471315794,0.0571265221],[0.0034643423,0.0272038262]],[[-0.0216434952,-0.0793683827],[0.0287978798,-0.0239232965]],[[0.0449338518,0.0639074519],[0.04479279,0.0152757131]],[[-0.0561052896,-0.0429739058],[0.0491735823,0.0483130217]],[[-0.0647426024,-0.0224020332],[0.0079864115,-0.0057400423]],[[0.0377915092,-0.003909321],[-0.0012251174,-0.0090419427]],[[0.0227863118,0.037358623],[-0.0028849042,-0.0240141321]],[[-0.0409049951,-0.0460149236],[-0.051954139,-0.0330264531]],[[0.0410174243,0.0854443014],[0.0304817781,0.0025040517]],[[-0.0403671823,-0.0305023976],[-0.0003759784,-0.0133527648]],[[-0.079711318,-0.0930101052],[0.023277631,-0.0487694032]],[[0.0364504866,0.0635573193],[0.0090547297,0.0677642003]],[[0.0695481971,0.0668699741],[0.010970233,0.0257323924]],[[-0.0523371138,-0.0587468445],[-0.0220133383,-0.0552148111]],[[0.0085962173,-0.0029604642],[0.0110453488,0.0045199334]],[[-0.000994785,-0.0212034788],[0.0007027247,0.0091542266]],[[-0.0236845165,-0.0868925676],[0.0187176801,0.0327015147]],[[-0.0139771197,-0.0046921438],[-0.0129724676,-0.0229383968]],[[0.0393599719,0.0385367312],[-0.0153152049,0.0320664346]],[[-0.0162569471,-0.0653419495],[-0.0302467346,0.0168389548]],[[0.017102059,0.0216463376],[0.0372377634,0.0245505385]],[[0.0325244255,0.1095306203],[0.0348664187,0.0728159621]],[[0.0078345602,0.073249951],[-0.0374221951,-0.0265952088]],[[-0.0395657755,0.0134966308],[-0.0220205989,0.0140335364]],[[-0.0565501899,-0.0494088605],[-0.0139314663,-0.0014001059]],[[0.00234287,-0.0429043919],[-0.0128778964,0.0431358293]],[[0.0464784428,0.078196682],[0.0418787152,0.0544558652]],[[-0.0115363896,0.0540374406],[-0.0039972169,0.0570451356]],[[0.0382537767,0.0219090972],[0.0547760651,0.0335489623]],[[-0.0197269153,-0.0006522267],[-0.0493322536,-0.0115809673]],[[0.0039053441,0.0806039274],[0.0460760072,0.0460304581]],[[-0.0128440037,-0.121626243],[0.0031481967,0.0080016255]],[[-0.0371026583,-0.0764486715],[0.0635457635,0.0265492201]],[[-0.0620181486,-0.038959045],[0.0011187457,-0.0497328304]],[[-0.0146229407,-0.0260875504],[0.0312838368,0.0093062883]],[[0.0525496453,0.0721540973],[0.0362354182,0.013458658]],[[-0.0745052695,-0.0818344876],[-0.0188489594,-0.0146294767]],[[0.0168788992,0.0587535724],[0.0775009468,0.1016505435]],[[-0.0431444161,-0.0687466338],[-0.0285127889,-0.0035444559]],[[-0.0192759447,0.0207893327],[-0.0105494559,-0.0045997137]],[[-0.0763280019,-0.017139202],[-0.0403993912,-0.0286694411]],[[-0.0268374458,-0.0408990867],[-0.048104994,-0.0445255451]],[[0.0047145667,0.0397211909],[0.0604373962,0.0979347229]],[[-0.0192968976,-0.0659470558],[-0.0104995202,-0.0266936012]],[[-0.0179021265,0.0379599966],[-0.054366108,0.0615539998]],[[0.0462780185,0.0789830163],[0.0550086983,0.0349931158]],[[0.0479779318,0.1212034374],[0.076108329,0.0250033457]],[[-0.016803883,-0.0242483839],[-0.0129174888,0.0294661708]],[[-0.0001456435,0.0731573552],[-0.0324898995,-0.0217081755]],[[0.0780736953,0.1036918983],[0.0292145181,0.1146484837]],[[-0.0834190473,-0.0793841109],[0.0603867993,-0.0053703748]],[[-0.0342422351,-0.0053364537],[0.0107137039,0.0383013524]],[[-0.0340103693,-0.0505893715],[0.0130397892,0.0652486905]],[[-0.0055875964,0.0265449621],[-0.0094541069,0.0266911238]],[[0.0603990965,0.0028200205],[0.0438755639,0.0593336523]],[[-0.0250478555,-0.0721260607],[0.0108880876,0.0202607624]],[[-0.0102042519,-0.0208909288],[0.0311379116,-0.0127514424]],[[0.0304012001,0.0337012708],[0.0388147645,0.0193231441]],[[0.0713214427,0.0706338137],[0.0197494719,0.0033903124]],[[0.0097435992,0.0305361785],[0.0286625624,-0.0165523309]],[[0.0179242287,0.0544086248],[0.0376577377,0.086124979]],[[0.0241652448,0.0941828266],[0.0591018014,0.0484982766]],[[-0.032037288,0.0067676166],[-0.0058989143,-0.0190977976]]],[[[-0.0203726124,0.0024009214],[0.0016133667,-0.0498696044]],[[0.0084469123,-0.0115430411],[-0.0517208613,-0.0005659836]],[[-0.0200619567,0.0362751856],[0.0287706461,-0.0211926028]],[[-0.0573202558,-0.0604698807],[-0.041121982,-0.0400617123]],[[0.0030915882,0.0052669956],[0.0380854607,0.0272047482]],[[0.081486024,0.0651412308],[0.0356535316,-0.036710795]],[[0.0000790587,-0.0101090195],[-0.0169756226,-0.0390596353]],[[-0.0133212591,-0.0070017953],[-0.015001378,-0.0038575726]],[[0.0504934452,-0.0208625179],[0.0180578418,-0.0094176009]],[[-0.0184949916,-0.047910396],[-0.0543952547,-0.0630607828]],[[0.0078518307,-0.0113008469],[0.045552846,0.0351792239]],[[0.0621702597,-0.0139910001],[0.0588631146,-0.0367100835]],[[-0.0596729964,-0.0569885969],[-0.0855933726,-0.0187703781]],[[-0.0760735944,-0.0457425714],[-0.0793397501,-0.0273447763]],[[0.0265996233,0.0340837017],[0.027022358,-0.0092286607]],[[0.0198996607,-0.0012939927],[-0.0162008014,-0.0491321944]],[[-0.0303489175,0.0037459861],[-0.0332756117,0.0138019808]],[[-0.0060378695,0.0238964204],[0.0303998478,-0.0250101909]],[[0.0193587914,0.0524859242],[0.0191987026,0.0041125524]],[[-0.0662382767,-0.0408799239],[-0.0623451322,-0.0235211831]],[[0.0875700638,-0.0038417659],[0.0778567865,-0.0245868713]],[[-0.042398531,0.0024707157],[-0.0496109612,-0.0402962305]],[[-0.0573599562,-0.0726349801],[-0.0805106685,-0.0736989975]],[[0.0088551892,-0.0256516803],[-0.0138945282,-0.0519107431]],[[-0.0032893205,0.005830917],[0.0707352087,0.0102750212]],[[0.0579083562,-0.0318101309],[0.0121491756,-0.019641649]],[[-0.008724736,-0.0116933966],[0.0536173508,0.0248489249]],[[-0.0037919397,-0.0561300926],[-0.0395648032,-0.0305763613]],[[0.0192909166,-0.0423192643],[0.0083918562,-0.0235705022]],[[0.0349570103,0.0567782409],[0.0308206119,-0.0085816812]],[[-0.0102749867,-0.0316217579],[-0.013059645,-0.0071254056]],[[-0.0132018058,-0.0175098609],[-0.0412989408,-0.0823690221]],[[0.0295814108,-0.0054360884],[-0.0000238567,0.0233502313]],[[0.0020678961,-0.0075811516],[-0.0215985645,0.0384918638]],[[0.0831508264,0.0715055317],[0.0632245839,0.013100327]],[[-0.0132888425,0.0044265678],[-0.0255943369,0.0317257196]],[[-0.0761437416,-0.0064588264],[-0.0551703162,-0.0670690462]],[[0.0135987578,-0.0220101699],[-0.0195547286,-0.0344763063]],[[-0.0293852072,-0.0451149717],[-0.0856382474,-0.0769802853]],[[-0.0137010794,0.0038771543],[-0.0030679263,-0.0108482391]],[[-0.0408836044,0.0306990352],[-0.0610537194,-0.0080482494]],[[-0.0007864255,-0.0557602271],[-0.0239782427,-0.0171750896]],[[0.0304512866,-0.0092774788],[0.0103031034,-0.0244983025]],[[-0.0668962374,-0.0722294971],[-0.0801029652,-0.0196574293]],[[0.0826845914,0.0038010417],[0.0103728259,-0.0204742067]],[[-0.0364530981,-0.0964977071],[-0.0145835821,-0.0907736197]],[[0.0066184909,-0.0783716291],[-0.0750952363,-0.0060383352]],[[-0.0322881751,-0.0270115174],[-0.0213752203,-0.0205143169]],[[0.0013994053,0.0063645197],[-0.0301934071,-0.0372661352]],[[-0.0480146706,-0.0517355688],[0.0110420976,0.0058145807]],[[-0.0049409168,-0.0689662397],[-0.0758268088,-0.0760259405]],[[-0.0006168249,0.0433309264],[0.0495310426,0.0261633769]],[[-0.003513766,-0.0272743572],[-0.0302222185,-0.0354217999]],[[-0.0068277335,-0.0101512577],[-0.0228038412,-0.0310719311]],[[0.0283886511,0.0222587083],[0.0009250688,0.038566988]],[[0.0214972384,-0.0026730348],[0.0137080485,-0.0432066843]],[[0.0148411244,-0.0052472027],[0.0330346264,0.0083208224]],[[-0.0013389422,0.0482130274],[0.0397203118,-0.0226096772]],[[-0.0491848141,-0.0127343358],[-0.0694858581,-0.0479804501]],[[-0.0798544809,-0.0854675099],[-0.0852966607,-0.0476705506]],[[0.002436639,-0.0097679049],[-0.0303304568,-0.0084532322]],[[-0.0039095129,-0.0794472471],[-0.047883708,-0.0093244584]],[[-0.0090351319,-0.0080763632],[-0.0145563958,-0.0583408214]],[[0.0174794104,-0.0644077435],[-0.0359779857,0.0201340001]]],[[[-0.0000448944,-0.0272271726],[-0.0102667855,-0.0140819633]],[[-0.0401891172,-0.052619189],[-0.0574170314,0.003682961]],[[-0.0007770241,0.0583302602],[0.0358092971,0.0055756946]],[[-0.0297274981,-0.0226799995],[-0.0495540351,0.0016075828]],[[0.0441402607,0.0793325081],[-0.0168605521,-0.0143408598]],[[0.0743873641,-0.0094451774],[0.0697513521,0.0437292084]],[[-0.0038104833,0.0166999344],[-0.0232320745,-0.0262304563]],[[0.0014699519,0.0074706264],[0.0071667475,0.0272212587]],[[0.0335995704,-0.0277667381],[0.0379120447,-0.0367714316]],[[-0.0576724298,-0.0211160146],[-0.0011446623,0.0265556667]],[[0.0334124602,0.0032914523],[0.0330228135,0.0250263587]],[[0.0884246603,0.0492708236],[0.0494412966,0.0266126227]],[[-0.061946474,-0.0701298788],[-0.0342915505,-0.0237616636]],[[-0.044701308,-0.0410935953],[-0.0263159312,-0.0397145599]],[[0.0179115087,0.0604834966],[0.0008430155,0.0082371486]],[[-0.0587294474,-0.0323880911],[-0.0408772975,-0.0012473122]],[[0.0558929592,0.0193690974],[-0.0179554056,-0.0126055619]],[[0.0794689953,0.0449515991],[0.0600460693,0.0151689257]],[[0.0113713043,0.0040253662],[0.0164778717,0.051325202]],[[-0.01989384,-0.0538400784],[-0.0174900927,-0.0255455878]],[[0.0308414903,0.0671912655],[0.0213501975,0.0280370582]],[[-0.0392451584,-0.0000530587],[-0.0350406654,0.0051693753]],[[0.0013765745,-0.0574792102],[-0.0661235079,-0.0243505277]],[[-0.0557408221,-0.0077874223],[0.0116745401,-0.0343478322]],[[0.0593308136,0.0334578454],[0.0586387888,-0.0056876629]],[[0.0273720585,-0.0161519181],[0.0133694299,-0.0332880318]],[[0.067810595,-0.0298722889],[-0.0137306591,-0.0063051367]],[[-0.0679688454,-0.0624061972],[-0.0185310021,-0.0689184219]],[[0.0103867762,-0.0384658352],[0.038013231,0.0025232865]],[[-0.0114778308,-0.0232485533],[0.0329060964,0.0283352602]],[[-0.0047945809,-0.0014732843],[0.0100887427,-0.0373964608]],[[0.0075191762,-0.0899221972],[-0.0261286851,-0.0419532061]],[[0.0173671022,0.0347541161],[0.0380996428,0.0118776364]],[[0.0833046436,0.0431980714],[-0.0039915154,-0.0090327393]],[[0.0460030586,0.0891067907],[0.0489243194,0.0498459525]],[[0.0174364373,-0.0265245438],[0.0294379313,-0.044969745]],[[-0.0572256893,-0.0563630685],[-0.0154808881,-0.0430504866]],[[0.0435546637,-0.0079385974],[0.0352625176,-0.0341310985]],[[-0.0307012014,-0.0431635231],[-0.040342547,-0.008958946]],[[0.0798730552,-0.0031625524],[0.037592046,-0.0227889568]],[[0.015097674,0.0143100275],[0.0211303663,0.0147902593]],[[0.0261824839,-0.0301231705],[-0.0134111876,-0.048973877]],[[0.0456247777,-0.0031627566],[0.0209416077,-0.0294813551]],[[-0.002782827,-0.0598918647],[-0.0533126518,-0.0713090748]],[[0.0446836129,-0.0013974881],[0.0591667369,-0.0052506775]],[[0.0360748284,-0.0413090661],[0.0273678266,-0.0736146942]],[[-0.018078167,-0.0278559308],[-0.0495510623,-0.0542198494]],[[0.0007415364,-0.0826623812],[-0.0589734577,-0.0368624777]],[[0.0056693866,0.0158251505],[-0.0309920553,0.0029272202]],[[-0.0232980251,0.0144003201],[-0.0248787403,0.017472446]],[[-0.0861483738,-0.0897634104],[-0.0678645968,-0.0307788048]],[[0.0195952468,0.0304348338],[0.0107093183,-0.00253623]],[[-0.0198980663,-0.0178664885],[-0.0062485468,-0.008894166]],[[0.0468535684,0.0236364417],[0.0253541749,0.0059604985]],[[0.0296825822,-0.0336917713],[0.0599345416,-0.0155359646]],[[-0.0325657874,-0.026151346],[-0.0337200537,-0.0418821424]],[[0.0392795987,0.0644595996],[0.0329993293,0.0219914056]],[[0.0188156031,0.0789008588],[-0.0085644964,-0.0014432549]],[[-0.0450040363,0.0005359834],[-0.0569483079,0.0042961231]],[[-0.0665123984,-0.0687454119],[-0.0297976248,-0.0277598277]],[[-0.0572756268,-0.0319676511],[-0.0618046261,-0.0090757143]],[[-0.0468888618,-0.0785427466],[-0.0711108595,-0.0138766672]],[[0.0135432174,0.018570615],[-0.0040830094,0.0267613437]],[[-0.0724166557,-0.0417753048],[-0.0165071748,-0.0671813563]]],[[[0.02293933,-0.0160824768],[0.0116504161,-0.0351302326]],[[-0.0012830963,-0.0266897678],[0.0267948285,-0.0265517198]],[[0.0168208349,0.022809444],[0.0140018798,0.0120945722]],[[-0.0531783439,-0.0198026765],[0.0042208014,-0.0408972874]],[[0.028854074,0.0536085516],[0.0627072901,0.0282528605]],[[0.0634078011,0.0367969833],[0.0493291058,0.0900119767]],[[0.0089607388,-0.0081237685],[-0.0172365401,0.0031510005]],[[0.0005191969,0.0009550037],[0.0294251777,0.0170300007]],[[0.058846347,0.0233561862],[0.0551727936,0.029038351]],[[-0.0078565842,-0.0040873336],[0.0095792208,-0.0294041783]],[[0.007452494,0.0465418287],[0.0189257767,0.0260752086]],[[-0.0058532828,0.0917757228],[0.0407954454,0.0486140028]],[[0.029492151,0.007073089],[-0.0079839183,-0.0595132187]],[[-0.0397340693,-0.009013189],[-0.0211656541,-0.0113299917]],[[0.0116173541,0.0531978942],[0.0386543684,0.0729599223]],[[0.0318866223,0.0145783694],[0.0209102742,0.0120519893]],[[-0.0035063184,0.043005228],[-0.0150154606,-0.0241429154]],[[0.0239686631,0.0664134026],[0.0074687577,0.0406862684]],[[-0.0225833356,0.0406860411],[-0.0210962351,0.0292211343]],[[0.0186713301,-0.0289432369],[0.0226864386,0.0007672142]],[[0.0347025059,0.0826096907],[0.000986448,0.0485040806]],[[-0.0253782347,0.0077243089],[-0.0404737666,0.0346999876]],[[0.0085000666,-0.0126712536],[-0.0190463904,-0.0009980038]],[[0.0091314623,-0.0416944027],[0.0099305194,0.0177790746]],[[-0.0216357112,0.0152090294],[-0.0352588966,0.0143300239]],[[0.0457999893,0.0295586959],[0.0306211188,0.0549163707]],[[-0.0078103673,0.0328111947],[0.0550705008,0.0228541847]],[[0.0065494399,-0.0011237818],[-0.0267089903,-0.0351507068]],[[0.0408914723,-0.0139738666],[0.0419027396,0.0223262887]],[[0.0113107283,0.0208990909],[0.0061963662,0.0532190092]],[[0.0204418749,-0.0001642994],[0.0375002809,0.026023915]],[[0.0068032322,-0.0034049121],[-0.0055850693,-0.0548236407]],[[0.00462869,0.0613556802],[0.0284825321,0.079466559]],[[0.0288184285,0.0141953537],[-0.0106647583,0.0099475291]],[[0.041477982,0.0357108526],[-0.0036844055,0.0439484306]],[[-0.0018268347,-0.0248274095],[0.0025542311,0.0119174486]],[[-0.0202946849,0.0040017576],[-0.0296610091,-0.0168892331]],[[0.0527223125,0.0447983593],[0.0354203805,0.0599019192]],[[-0.01568559,0.0161342248],[-0.0202322435,-0.0282029174]],[[0.02559698,0.0142374048],[0.0695185661,0.0361196958]],[[0.026975112,0.0024862627],[0.0424444973,-0.0079067452]],[[0.0534781553,0.0523280464],[0.0636093169,0.0526631586]],[[0.057510592,0.0461630747],[0.0580442362,0.0234751925]],[[-0.0238892939,-0.0029059828],[-0.0177529193,-0.0482239239]],[[0.0583064333,0.0617012121],[0.0311772805,0.047641784]],[[0.0221078079,0.0110736443],[0.0425131693,-0.0476349704]],[[0.0088781631,0.012767165],[0.0210878607,-0.0174265858]],[[-0.0170835089,0.0027816286],[0.0215933807,0.0074837827]],[[0.0236566868,-0.0311919786],[-0.0072397874,0.0135382488]],[[0.0064175585,-0.0036586185],[0.0005135981,-0.0433069579]],[[0.0102728689,0.0056590261],[-0.0445838869,-0.004699952]],[[0.0456980616,0.0421042778],[0.0735398829,0.0422674268]],[[0.0284174401,0.0086366013],[0.0325941741,0.0019173041]],[[0.0179909524,0.0491962247],[0.0258655194,0.0080117323]],[[-0.0098359184,-0.0030014666],[-0.0271138605,0.0044985996]],[[0.0050309557,-0.0445096232],[0.0138650443,0.0113860108]],[[0.0386561938,0.0094799502],[0.0743470043,0.0083047571]],[[-0.0176508315,0.0299868714],[-0.0267455634,0.0495509431]],[[-0.0335081778,0.014881378],[-0.0362925604,0.0248340443]],[[0.0254874099,-0.0187573414],[-0.0087822834,-0.0205964763]],[[-0.0115954364,-0.033316534],[-0.0186573677,0.0108363228]],[[-0.0333538987,-0.0353635326],[0.0120434277,-0.0500789434]],[[-0.0304455254,-0.0308109354],[0.0226190574,0.0018120424]],[[-0.0205637552,0.0224946905],[0.0155162392,-0.0279067401]]],[[[-0.039596919,0.0011670492],[-0.0475352257,0.0079136267]],[[0.0109208822,0.0526022725],[-0.0446157902,0.0814234242]],[[0.012353519,0.0420272015],[0.0355210155,0.0501128994]],[[-0.0077823354,0.0123348869],[-0.0301110204,0.0321735889]],[[0.0528335795,-0.009860592],[0.038764108,0.0553945005]],[[0.0650981814,0.0351066887],[-0.0125350235,-0.0136042153]],[[0.0007682715,0.0443053991],[-0.0211519711,0.0379848294]],[[0.0075682504,0.0558842309],[-0.0047946018,0.0359749682]],[[0.0487842336,-0.0051849],[0.0684533492,-0.0009919991]],[[-0.0051548984,-0.0193598401],[-0.0576993152,0.0239746999]],[[0.0420952588,0.0003686006],[0.0270516854,0.0235376731]],[[0.0223766081,0.0118078655],[0.0446045771,0.0541673079]],[[-0.0361290574,0.0042651216],[-0.0230426136,-0.0046005407]],[[-0.0318198092,0.0807496384],[-0.047402963,0.0622852705]],[[0.0257846657,0.0532237738],[0.0487959832,0.0668159425]],[[-0.0411546156,0.0543700047],[-0.0110300388,0.0364013687]],[[0.0356708318,-0.0292593334],[0.015826162,0.0019915653]],[[0.0752604231,0.0614106581],[0.049479112,0.0431806855]],[[0.0129987169,0.1053373814],[0.0285655987,0.0824133679]],[[-0.0310409945,0.0064048595],[-0.0144465063,0.0149027593]],[[0.0533143468,0.0680235773],[0.0645821616,0.0475557148]],[[-0.0341419429,0.0716713816],[-0.0287481453,0.0864104554]],[[-0.0360178016,0.0088374792],[-0.017599592,-0.000319818]],[[-0.0284527354,0.0168461241],[0.0102225598,0.0151806911]],[[0.0515664779,0.0343525819],[0.0219463333,0.0088192802]],[[0.0925917029,0.0125755174],[0.0457584299,0.0202797912]],[[0.0313042924,0.0287680794],[0.0077891671,0.0258919299]],[[-0.0467656367,0.0127739459],[-0.0174625106,-0.0020379652]],[[-0.0276209284,-0.0321188308],[0.0270851143,-0.0427552536]],[[0.0426216833,-0.0321846902],[-0.0048020966,-0.0045852996]],[[0.0098440861,-0.0009923029],[0.0057140323,0.0299375132]],[[0.0160892885,0.002124496],[-0.0061223079,-0.0423108004]],[[0.0335948244,0.0931069478],[0.0135937678,0.0210043583]],[[0.0226602312,0.0033172667],[0.0521628484,0.0033898251]],[[0.0725845397,0.0437201709],[0.0139124272,-0.010801062]],[[0.0425172411,-0.0327146091],[0.0302337874,0.0225988328]],[[-0.0280739125,0.0725069344],[-0.0314911157,0.0826156512]],[[0.0528795533,0.0580665283],[0.0511377044,0.0384058245]],[[-0.0240370221,0.0846271887],[-0.023133738,0.0726720616]],[[0.0447875261,0.0288041271],[0.0025259913,-0.0295593999]],[[-0.0112552615,0.0162266064],[0.0345145799,0.0100124395]],[[0.0674248189,0.0179302786],[0.0482456423,0.0106312372]],[[0.0464402176,0.0088977478],[0.0666906387,0.0090367282]],[[-0.0228968412,-0.006114284],[-0.029419126,-0.0058399318]],[[0.0397991538,0.0038692341],[0.0421129316,0.0236306861]],[[0.0510128662,-0.0351513922],[0.0136034023,0.0090667857]],[[-0.0436873958,0.05734355],[-0.0453694016,0.0355581604]],[[-0.0498948656,0.0556308031],[-0.0553842075,0.055436749]],[[-0.0227842219,0.0080954563],[0.0203461368,0.0060798116]],[[-0.0460987277,0.0001251739],[-0.0315893292,0.0043620248]],[[-0.0738235861,0.0032234499],[-0.0175929368,0.0308265164]],[[0.0356260836,0.0383498408],[0.0484972037,0.0282420889]],[[0.018873373,0.0273152553],[0.0060971365,0.0348335616]],[[0.0593775474,0.0144814514],[0.0021212774,-0.0180668496]],[[0.0226692315,-0.0303906947],[-0.0286137909,-0.0282403659]],[[-0.034524329,0.0064438456],[-0.0196858775,-0.0317872427]],[[0.0383618735,0.0085368026],[0.0609515123,0.0331283063]],[[0.027006451,0.0821953267],[0.0276610404,0.0002424314]],[[0.0009380119,0.1240914613],[-0.0164518524,0.0796507597]],[[-0.0603866838,0.0195700601],[-0.0368035808,-0.0057294001]],[[-0.0118492004,0.0443023294],[0.0197890159,0.0118030142]],[[-0.0155751975,0.0559895858],[-0.0551777706,0.0094386265]],[[-0.0053471276,0.0168505609],[0.003775785,0.0008071099]],[[-0.0342738964,-0.0261170715],[-0.0364509672,0.0386534818]]],[[[-0.0137345968,0.0043108496],[0.0594286099,-0.0125724161]],[[0.0223855581,0.045267798],[0.0162516329,0.0305525009]],[[-0.0598220713,-0.0318577848],[0.0193093307,0.0587594062]],[[0.0494600125,0.0857106224],[0.0141885318,-0.0132980123]],[[-0.0655604601,-0.0402447209],[-0.0127807399,0.0217226315]],[[-0.1154809594,-0.0335762873],[-0.0590434447,0.0130781047]],[[0.0062188213,0.042451039],[0.0629350021,-0.0010582157]],[[0.018821666,0.0306887142],[0.0194276609,0.0043556266]],[[-0.0453310236,0.0549398102],[-0.0235686544,0.0393668637]],[[0.0247479342,0.0865526795],[-0.0219585821,0.0528495349]],[[-0.0226070378,-0.0231574662],[-0.0219530333,0.0085132914]],[[-0.1229669377,-0.0737003908],[-0.003140799,0.0697935671]],[[0.0837415233,0.0869063735],[0.0486863181,0.0754186884]],[[0.041151382,0.0450272001],[0.0551936589,-0.0093036667]],[[-0.1007585302,-0.0881874636],[-0.0114322258,-0.0199829489]],[[0.0154869147,0.0455296785],[0.0463288799,0.0354880691]],[[0.0341429003,0.039088469],[0.0520766824,0.0765783563]],[[-0.1047894731,-0.0210268628],[0.0504639111,0.085731782]],[[0.0169328284,-0.0577305779],[-0.0100539615,0.0442215055]],[[0.0428916328,0.0727347359],[0.0009886081,0.02780037]],[[-0.0017238099,-0.0124870948],[0.0503227338,0.0832063705]],[[0.0735935345,-0.005204617],[0.0758850574,0.0080438191]],[[0.1155211404,0.1144973263],[0.0463909134,0.0073670251]],[[0.0766644925,0.0411358811],[0.0017294551,-0.0173383262]],[[-0.0472729504,0.046880722],[-0.0166803189,0.0534255728]],[[-0.0313441865,0.0382149704],[0.0654374659,0.1096341088]],[[-0.0423839204,-0.0282358713],[0.0108212521,0.1012054235]],[[0.1054250672,0.0596334375],[0.0637678728,0.0532248281]],[[0.0415799022,0.0597640909],[0.0422230288,0.011726683]],[[-0.0228244197,-0.0003411998],[0.0427579507,0.07843972]],[[0.0300828144,0.0175787508],[-0.0014881,-0.0103579182]],[[0.0636014715,0.0724375173],[0.0521827899,0.0669591576]],[[-0.1187667847,-0.1007051021],[-0.0299011339,0.0296500288]],[[-0.0229758229,0.017474141],[-0.0041333186,0.0598164238]],[[-0.0675526112,-0.0043693171],[-0.0521093942,0.0237737]],[[0.0028944318,0.0720311701],[0.0141558452,0.0253161378]],[[0.0704318583,0.0401715152],[0.0970558822,0.022003388]],[[-0.1054343134,0.021903472],[0.0731633604,0.1315257847]],[[0.0453841425,0.058186803],[0.0208977815,0.0463241972]],[[-0.0737684518,0.0261855572],[0.0726878121,0.0519732423]],[[0.0188895017,-0.0256966036],[0.0073694163,-0.0140466709]],[[-0.0465990454,0.0483277887],[0.0480050929,0.1225138307]],[[-0.0449901111,0.0038336441],[0.0268672984,0.0539662018]],[[-0.0066661928,0.0294515211],[0.0491273925,0.0559484772]],[[-0.0402456671,0.022620609],[0.019944109,0.0881619677]],[[0.0276617389,0.1099091172],[0.0327749774,0.0447980538]],[[0.1060326025,0.0266783964],[0.0656815171,0.0516060889]],[[0.0867584944,0.1086467654],[0.0792711601,-0.016553659]],[[0.0489981435,0.0511716753],[0.0458485596,0.0255714618]],[[0.072693646,0.051498875],[0.0426185429,-0.0009455473]],[[0.1240844801,0.0430978015],[0.0516913645,0.0351895057]],[[-0.0946106166,0.0073009362],[0.0490477905,0.1143092439]],[[0.0219346918,0.0635606125],[0.0422037728,0.0695635006]],[[-0.0803555548,0.0490989983],[0.0562793203,0.1095844433]],[[0.0031671631,0.0270637348],[0.056468036,0.0568884239]],[[0.0244821329,0.0122342976],[0.0515268221,0.0000559403]],[[-0.0486326404,0.0074067344],[-0.0142911039,0.1354743987]],[[-0.0255931877,-0.0075487704],[-0.0346344076,0.0327882804]],[[0.0097764144,-0.0031242638],[0.0902644619,0.0619110763]],[[0.0855406001,0.0850869343],[0.0419430546,0.035474766]],[[0.0745535865,0.0641703978],[0.0102609955,-0.0388571918]],[[0.0913724527,0.0300316364],[0.0759096667,0.0365507416]],[[0.0139217908,0.078004919],[0.0614020489,0.0377129875]],[[-0.0025876111,-0.0007800517],[0.0290095992,0.0565366074]]],[[[0.0374523811,0.0444744788],[0.0393934771,0.0649883896]],[[0.0093565546,0.0025815845],[0.0411321372,0.0604780093]],[[-0.0314504057,-0.0580469444],[0.0169042908,0.0009564496]],[[-0.0023201413,0.0403296873],[0.0516429916,0.0553261191]],[[-0.0260632485,-0.068009153],[0.0293112621,0.0199456159]],[[-0.1109717712,-0.064098835],[-0.0355580896,-0.0137279471]],[[0.0094572995,-0.0178094357],[0.0018118692,-0.014319676]],[[0.0069896551,0.0120305223],[-0.0074616307,-0.0043012779]],[[-0.0632091016,-0.0282597262],[-0.0734015554,-0.061695423]],[[0.0603173859,0.0847421363],[0.066422537,0.0067033339]],[[-0.0297777019,-0.0480536334],[0.007142147,-0.0184290763]],[[-0.0768368468,-0.0478546582],[-0.0138973752,0.0171790309]],[[0.0026452313,0.0345826522],[0.0820231661,0.0680347309]],[[0.0307699908,0.031372413],[0.0422866717,0.0478198826]],[[-0.0688465983,-0.0794404224],[-0.0580910482,-0.0570902601]],[[0.0302776527,0.0167800672],[-0.0307095926,-0.0299776644]],[[-0.0369959287,-0.0304389205],[0.0505154654,0.0439884737]],[[-0.0567912757,-0.0569698922],[-0.0488883182,-0.0210070461]],[[-0.0113578793,-0.0481606126],[0.0097620208,-0.0485630259]],[[0.0306121558,0.0285458956],[0.0141431428,0.0452390388]],[[-0.0594109409,-0.0370928012],[0.0100246016,-0.048630733]],[[-0.0148703046,0.0012630896],[0.0051138448,0.021919392]],[[0.0667335242,0.0825561956],[0.0736897215,0.0755629987]],[[0.0087742787,0.0528582782],[0.0112292711,-0.0149329845]],[[0.0158126876,-0.0392661877],[-0.0122175617,0.0070949099]],[[-0.0483880304,-0.03842761],[-0.0257688947,-0.0286957808]],[[0.0293288082,-0.0150076365],[0.0017327648,0.0534422249]],[[0.0608011372,0.0566679835],[0.0676529929,0.0785169154]],[[0.0098670954,0.0562063418],[-0.0224793423,0.0214314517]],[[0.007398169,-0.0391589217],[-0.0024851742,-0.0374045447]],[[-0.0087797344,-0.0098577403],[-0.0123138595,0.0109864259]],[[0.0214571878,0.0598281845],[0.027751606,0.067021139]],[[-0.1131269485,-0.066703245],[-0.0235637352,-0.0723637044]],[[-0.057451535,-0.0609101281],[0.0381906554,-0.0265955273]],[[-0.0561214872,-0.0599871948],[0.0192619935,-0.0281144232]],[[-0.0261680558,0.0196716432],[0.0358525775,0.0095457183]],[[0.0436688587,0.0400824957],[0.0431042388,0.0463868491]],[[-0.0916404277,-0.0301792286],[-0.0082234023,-0.0281133875]],[[0.0439684838,0.0569006242],[0.0263552666,0.0326381288]],[[-0.1079858243,-0.048261404],[-0.030722037,-0.0204795282]],[[-0.0204144381,-0.0103008458],[-0.0045744977,0.0019931199]],[[-0.0410986431,-0.0049954886],[-0.0769858137,-0.0249474812]],[[-0.0418082103,-0.0506176762],[-0.029471321,-0.0448324233]],[[0.0548519082,0.0203481428],[0.0945499837,0.1093911603]],[[-0.1039264053,-0.0422193818],[-0.0445363708,-0.0495131239]],[[-0.0436630249,0.01426706],[-0.0248648655,0.0024563652]],[[0.0494804531,0.0757060498],[0.0712507516,0.0451315753]],[[0.0164854508,0.0854273438],[0.0220142789,0.0831342712]],[[-0.0248439889,0.008549138],[0.0450299345,0.0117171584]],[[0.0121702626,0.0299813543],[0.0374397784,0.045556508]],[[0.0272957236,0.0764082074],[0.0429960415,0.0677137598]],[[-0.0668256804,-0.0702522546],[0.0339483246,0.0111868763]],[[-0.0188104976,-0.0036628693],[0.0108279334,0.0254480112]],[[-0.0632904395,-0.0577866398],[-0.0000255702,0.0210638549]],[[0.0148808388,0.0071926601],[0.0263344925,0.0263052694]],[[0.0385822989,0.0735875666],[0.0217992812,0.0051077898]],[[-0.0464253351,-0.043650873],[0.0157269221,-0.0316693373]],[[-0.0293548536,-0.0617519282],[-0.0148564242,-0.0354843959]],[[-0.0274845138,-0.0341469347],[0.0387226418,-0.0164540187]],[[0.0806385502,0.0740229264],[0.0287576057,0.0717472881]],[[0.0248596855,0.0218849052],[0.0244791638,0.0406777486]],[[0.0026051248,0.0062988293],[0.0607845038,0.1055942029]],[[0.011671829,0.0182582643],[0.0634284914,0.0552834794]],[[0.0288773291,0.0243713707],[0.0305307489,0.0414560437]]],[[[0.0395373069,0.0368541814],[0.0747184455,0.018222345]],[[0.0324625336,0.0360758379],[0.0745086074,0.0647026002]],[[-0.005466931,-0.0384472013],[0.0273034684,-0.0140677262]],[[0.0160101913,0.0476732627],[0.0619552843,0.103742063]],[[-0.066114746,-0.0468687452],[0.0122177787,-0.0599942394]],[[-0.0276055913,-0.0780344233],[0.0298622791,-0.0713743344]],[[0.0103165479,0.0229676701],[0.0500767566,0.0455200374]],[[0.0222831704,0.0252982415],[-0.00293322,0.0057046083]],[[-0.0594276078,-0.023303885],[-0.0330689102,-0.0374832712]],[[0.0748548657,0.0194349438],[0.0119877812,0.0407950319]],[[-0.0022682613,-0.0276356284],[0.0263917632,-0.0173670594]],[[-0.0580043383,-0.0548937768],[0.0179074965,-0.0277686343]],[[0.0365721695,0.0481220186],[0.037611939,0.1102113724]],[[0.0505035818,0.032555081],[0.0474124923,0.0759430975]],[[-0.0294734873,-0.0177424587],[-0.0073061641,-0.0692889094]],[[-0.024309393,0.014515413],[0.0305836815,0.0000108177]],[[-0.0198998041,0.0384873301],[0.0213296898,0.0222500358]],[[-0.0590553544,-0.082590133],[-0.0150028486,-0.0261983108]],[[-0.0228477251,-0.0149761476],[0.0541299209,-0.0456612334]],[[0.0244319923,0.0730142221],[0.0323514678,0.0490061343]],[[-0.076961033,-0.0023831781],[0.0353906639,-0.0789819285]],[[0.0367816575,0.0166901555],[0.0438150503,0.0310475826]],[[0.0723203868,0.0906158015],[0.039711915,0.0610243976]],[[0.0175760761,0.0146550229],[0.031244358,0.0453669578]],[[-0.0247951169,-0.02018019],[0.0805607289,-0.0381588489]],[[-0.0177165698,-0.0067542922],[-0.0378242992,-0.0390928611]],[[0.0537075996,0.006967776],[-0.0072464952,0.0154625969]],[[0.0226206221,0.1101895198],[0.068878606,0.0731438696]],[[0.0022593464,0.0058010584],[0.0389247537,0.0020321568]],[[0.0184197612,-0.0004960494],[0.0364020281,-0.0013693577]],[[0.0009625014,0.0055941152],[-0.015695665,0.0140752913]],[[-0.0013907687,0.0388549864],[0.0040312586,0.0616208501]],[[-0.0185635258,-0.0951755494],[-0.0192186609,-0.0829879493]],[[-0.0394714437,-0.0298257675],[0.0542060174,-0.0080423392]],[[-0.01558444,-0.0952899903],[0.0638216957,-0.0249899253]],[[0.0287401695,0.0280250572],[-0.0176310372,-0.0166006796]],[[0.0545409471,0.034024626],[0.0759292617,0.0332933292]],[[-0.0493054427,-0.02729013],[0.0446724594,0.009523279]],[[0.0704632849,0.0208805241],[0.1156978533,0.0820144638]],[[-0.0464108624,-0.0277825985],[-0.0128303347,-0.0380461775]],[[0.0013188515,-0.0380605645],[-0.0139595121,-0.0296732392]],[[-0.0550007448,-0.03757089],[-0.0131356725,-0.0037674613]],[[-0.0158974789,-0.0268012658],[-0.055017855,-0.0303516109]],[[0.0569247827,0.0158972293],[0.0875719264,0.0604289509]],[[-0.0152697796,-0.0328869596],[-0.0107339025,-0.0681993365]],[[-0.0375181511,0.0588343814],[-0.0127715748,0.0691580251]],[[0.0798251256,0.0497092307],[0.0759038106,0.0441861749]],[[0.0733047426,0.0643217936],[0.0894787312,0.0456693992]],[[-0.0096522942,0.0688154772],[-0.0088900542,-0.0029924475]],[[0.0221121572,0.0599134304],[0.0149170384,0.0504887328]],[[0.0888652727,0.0645786822],[0.0431930646,0.1354727894]],[[-0.0476372913,-0.0882101431],[-0.0061770817,0.0369425341]],[[-0.0256659929,-0.0114788879],[0.0004743018,0.0211149491]],[[-0.0188401286,-0.064149864],[0.0259200949,0.0237490628]],[[0.037751548,0.0006217352],[0.0168892257,-0.0044811266]],[[0.0405303501,0.0801588818],[0.0665684417,0.0646663457]],[[-0.0433431678,-0.0177653823],[0.0104379188,0.008365389]],[[0.0316246375,-0.0067779729],[0.0723093152,-0.0426792242]],[[0.0542308278,-0.023365004],[0.0722481236,0.0375640988]],[[0.0390423387,0.0601658188],[0.0635026917,0.0530673638]],[[0.045107197,0.0394298211],[0.0059125768,0.0123922229]],[[0.0453853942,0.0297083762],[0.1044154316,0.0998490378]],[[0.0305842459,0.0589872897],[0.0368875973,0.0750611424]],[[-0.0302820709,0.0337996148],[-0.0284026377,0.0747189224]]],[[[0.0476014093,0.0379547365],[0.0751732141,0.0376719646]],[[0.018808851,0.0304058418],[0.0442118421,0.0594164319]],[[-0.0443506502,-0.0762368292],[0.0298800878,-0.0401621945]],[[0.075327687,0.0589154363],[0.098333247,0.0733736157]],[[-0.1231134683,-0.1064000353],[-0.0252749547,-0.0066341255]],[[-0.1166815609,-0.075865604],[0.0275990777,-0.0501635075]],[[0.0269951969,0.0174156595],[0.046066232,0.0164626651]],[[0.0097076511,-0.0080649965],[-0.0333424583,-0.0382137187]],[[-0.0633906648,-0.0217176955],[-0.0737839267,-0.0542353317]],[[0.0238104723,0.0485657491],[0.0044560218,0.0513990782]],[[-0.0432417467,-0.0513563007],[0.0061243386,-0.0110971257]],[[-0.0771111101,-0.0692260489],[0.0207768753,-0.0782158822]],[[0.0116051231,0.0336224139],[0.0823437199,0.0946789607]],[[0.0643770248,0.0363636054],[0.0818520635,0.0333149619]],[[-0.0539103933,-0.0237682033],[-0.003060671,-0.0580376275]],[[-0.0140464772,-0.0106618963],[0.0248212945,-0.0239913948]],[[-0.0005889099,-0.0025319464],[0.0313110948,0.0122388275]],[[-0.116344139,-0.0821844116],[0.0117128352,-0.0034871721]],[[-0.0133595429,-0.0318779722],[-0.0034024289,-0.0492327064]],[[0.0564208627,0.0276793633],[0.0062970668,0.0135796452]],[[-0.1176420301,-0.0348511972],[0.0298437532,-0.0741181523]],[[0.0283166096,0.0301123466],[0.050896477,0.0198553428]],[[0.0723959357,0.0669217855],[0.0272480268,0.0616087504]],[[0.026012864,0.0405122377],[0.0229468513,0.030051453]],[[-0.0044924929,-0.0477627814],[0.0060154884,-0.031981729]],[[-0.051019609,-0.0737350881],[-0.0755222589,0.0027078365]],[[-0.0116124619,0.0066164113],[0.0431266017,-0.0086917188]],[[0.056717921,0.0605286658],[0.0816750824,0.0799256563]],[[0.0185908247,0.0657969341],[-0.0122479955,0.0181548819]],[[-0.0201860275,-0.0090389336],[0.0347403474,-0.0120087909]],[[-0.0081160218,0.0190527327],[0.0001899734,-0.0024766068]],[[0.0152035635,0.0403478183],[0.0364548489,0.0660745427]],[[-0.0787213296,-0.0725454241],[0.0020499399,-0.0390586182]],[[-0.067865625,-0.0685170591],[0.0039375951,-0.0222465191]],[[-0.0285663269,-0.0818142369],[0.0205065291,-0.0695195049]],[[-0.0035316781,0.0205232278],[-0.0146587146,0.0439228415]],[[0.0500907935,0.0471614823],[0.0677868277,0.0539568141]],[[-0.0932487249,-0.0764944181],[-0.0154070146,-0.0080635902]],[[0.0105392765,0.0072965231],[0.0900960341,0.0392796658]],[[-0.0684242323,-0.0753187463],[-0.0380901136,-0.0058153453]],[[0.0041723452,-0.0134947365],[-0.0208811164,0.0221512504]],[[-0.0508164242,-0.0303194467],[-0.0399606265,-0.0019750933]],[[-0.0413231589,-0.0480596721],[-0.0613103621,-0.0489927083]],[[0.0161035713,0.0600581579],[0.0899301842,0.1161488891]],[[-0.085066095,-0.0633092076],[-0.0748316795,-0.0264815632]],[[-0.0104653342,0.0369913056],[-0.0225345045,0.0656005666]],[[0.0571857542,0.0812109113],[0.0546440445,0.0757381171]],[[0.049872309,0.0535029471],[0.0167736858,0.0394852124]],[[-0.0114158606,0.0341582373],[-0.027763458,0.0381002054]],[[0.0454672724,0.0598432943],[0.0234220587,0.0275809672]],[[0.053626541,0.0542554185],[0.0852025375,0.1487265229]],[[-0.1042711809,-0.1106249094],[-0.0080046123,0.0184777081]],[[-0.0223819539,0.0003897652],[0.0069511803,0.0272104405]],[[-0.0930626094,-0.0712460354],[-0.0042258054,0.0036098119]],[[-0.0183246974,0.0110470392],[0.0061389026,0.006239925]],[[0.0486699156,0.0531860478],[0.029878296,0.0618036725]],[[-0.078633979,-0.0500192381],[-0.0157131311,-0.0112072947]],[[-0.0506158583,-0.0526888929],[0.0457535498,0.0055285115]],[[0.0438634381,-0.025977971],[0.0673190132,0.0385674834]],[[0.0765434876,0.062187396],[0.0077981274,0.0617017113]],[[0.0416886769,0.0353284068],[0.0064520007,0.0547257215]],[[0.0232234001,0.0050656507],[0.089165546,0.1166743785]],[[0.0431916602,0.0272363368],[0.0526368618,0.0266223177]],[[0.0125730122,0.055462867],[-0.0028903773,0.0281713717]]],[[[-0.0026370077,-0.0077779642],[0.0542539321,0.0604669079]],[[0.036603678,-0.0008275876],[0.0582557544,0.0556192994]],[[0.0205195192,-0.0002505247],[0.0223879237,-0.034302827]],[[0.092993997,0.0167269967],[0.1376706809,0.0482760631]],[[0.0721800998,-0.0270796325],[-0.0352198705,0.0106478147]],[[-0.0346453935,-0.0044823606],[0.0018517213,0.0085653784]],[[0.0557886548,0.028763013],[0.0673731044,-0.0009425489]],[[0.1160033122,0.0210954621],[0.131310463,0.0085901795]],[[0.0274778008,0.0822974518],[0.0777279809,0.0756681263]],[[0.0813949853,0.0165921878],[0.0190830287,0.0583807789]],[[0.0473358072,-0.0007446262],[-0.0026474898,0.0310468171]],[[0.0586663447,0.0503595658],[0.0295214336,-0.0487141572]],[[0.0223792493,0.0428602695],[0.0267391745,0.0668712705]],[[0.1341891438,-0.0287680402],[0.0971054807,0.0480148606]],[[0.0270579327,0.0035841293],[0.0715932995,0.0072906003]],[[0.0032037406,-0.0245249234],[-0.0234650578,0.0453060381]],[[0.0623710342,0.001004701],[-0.0343692452,0.0574049018]],[[0.0280374996,0.0330658369],[0.0240434706,-0.0137480013]],[[0.0630553812,0.0524094254],[0.0742428079,0.0172015987]],[[0.0716637075,0.0840274915],[0.0838490948,0.0730104744]],[[0.0322737508,-0.0043236879],[0.0030165862,0.0001146517]],[[0.1503199041,-0.0385535322],[0.1547759175,-0.004307556]],[[0.0224902984,0.0090328632],[0.0907504112,0.0694521517]],[[-0.0054800748,0.0097860657],[0.0407119133,0.0273691434]],[[-0.0087424526,0.0052680676],[-0.0385293216,0.0224768929]],[[0.0329481922,0.0210656654],[0.053478431,0.0190523975]],[[0.0559841655,0.0104617188],[0.0014256369,0.0612264909]],[[0.0015342461,-0.0181535762],[0.08898139,0.027841555]],[[0.0394849107,0.0088469731],[0.0054136822,0.021994479]],[[0.0351836905,0.0058833188],[0.0627252609,-0.0105801532]],[[0.0158372335,0.0609256662],[0.0573482625,-0.0166528728]],[[0.0131493323,0.0161069147],[0.093746528,0.0942356363]],[[0.0649813786,-0.0291247498],[-0.0067118024,0.0267459061]],[[0.0210787784,-0.0098047778],[0.0436288044,-0.0211071186]],[[0.0363387577,-0.0037362794],[0.0369505621,-0.0262043998]],[[0.0245114285,0.0725760385],[0.0091636917,-0.0202101711]],[[0.1527804583,-0.0098324707],[0.1588215083,0.0566801988]],[[0.0294186715,0.0152750397],[-0.0016089196,-0.0057597044]],[[0.1231514141,0.0112909088],[0.11960724,0.019970214]],[[0.0193033479,0.0061265081],[-0.0018202182,0.0619341098]],[[-0.0242132638,0.0035924693],[0.0128562646,0.0074394774]],[[0.0666606501,0.0348749347],[0.052939672,0.0103552211]],[[0.0724205822,0.0310165342],[0.0483414717,0.0291394349]],[[-0.0218256619,-0.0385085382],[0.0210742839,0.0218029637]],[[-0.014259018,0.0183352195],[0.0207465943,0.0325227603]],[[0.0444553122,0.0947587043],[0.0699657872,0.1111978963]],[[0.0564745069,0.0040992014],[0.0904036313,0.0485093631]],[[0.1340756416,-0.0158200152],[0.1798549294,0.0986401513]],[[0.0107296305,0.0043339808],[0.0607073605,0.0408723131]],[[0.0194747373,0.05040453],[0.0627264604,-0.0196198728]],[[0.0781539455,0.0288981963],[0.0839577094,0.0872666538]],[[-0.0079812035,0.0208659861],[0.0119676543,-0.0153325228]],[[0.0315775126,0.0126624741],[0.0169144608,0.0514949933]],[[0.0157730579,0.0326633975],[0.0254160594,0.0009831334]],[[0.0739543214,0.0202260893],[0.0153583903,0.058514297]],[[-0.0009233474,0.0058371015],[0.0238663331,0.0217841472]],[[-0.0125860469,0.0311683863],[-0.0399731025,-0.0103737377]],[[0.0071412427,0.0325836502],[-0.0104403794,-0.0026040343]],[[0.1212638915,-0.0209000465],[0.1623475403,0.0424011573]],[[0.0745704472,0.0742031261],[0.1221367493,0.1243622005]],[[-0.0098909652,0.0001284503],[0.0748225823,-0.0142729869]],[[0.0455283411,0.00661457],[0.0503056236,0.0234506428]],[[0.1008092165,0.0558755621],[0.0870688558,0.0034825392]],[[-0.0012469831,0.0102842543],[0.0189979319,-0.0205361694]]],[[[0.0091111232,-0.0230259821],[0.004576446,-0.0514242463]],[[0.0444546603,-0.0302869659],[0.0253804643,-0.0108185513]],[[-0.0266962647,0.0096630864],[0.0227296818,0.0185225308]],[[0.0151389986,-0.0314467996],[0.0185035132,-0.0156078087]],[[0.0004592561,0.0117414463],[0.0532835871,0.0145932967]],[[-0.0200557988,0.0253249072],[-0.0098317983,0.0254765078]],[[0.0207008272,-0.0216524061],[0.014931554,0.0145637533]],[[0.0183171555,0.0032034297],[0.0106036877,-0.0064672627]],[[0.0123237986,0.0750072673],[0.0381562188,0.0233346485]],[[0.0090889093,0.0144074],[-0.059821859,-0.0227581952]],[[0.0099987695,0.0464201868],[0.0036918146,0.0079028169]],[[-0.0144753018,0.031866651],[-0.0017644238,0.070745036]],[[0.0415463001,-0.0130942008],[0.032404013,-0.0406807102]],[[0.0175463762,0.0056069377],[-0.0129593937,-0.0563727021]],[[0.0226855408,0.0226521417],[-0.0070143729,0.0477203429]],[[-0.0136275832,-0.0358964838],[0.0154986568,-0.0458738543]],[[0.0081752865,0.0327598341],[-0.0165866446,-0.0077965967]],[[0.0020439536,0.0598901287],[-0.002120364,0.0529251359]],[[0.0246949177,0.0162231643],[0.0355320163,0.0134563847]],[[-0.0099788569,-0.008340166],[-0.0182236414,-0.015965458]],[[0.0201355647,0.0470100977],[0.0095085036,0.0572005287]],[[0.0098909894,-0.0391369127],[0.0340928361,-0.0219897907]],[[0.0343220569,0.0052359793],[0.0146613801,-0.0219661202]],[[-0.0092804777,0.0212591756],[-0.0160490088,0.0061059361]],[[-0.035815265,0.053604085],[0.0023524973,0.0373674594]],[[0.0058838134,0.0948697403],[0.0689232051,0.0681795627]],[[-0.001306496,-0.00275554],[0.0241105817,0.0182009097]],[[0.0209517144,-0.0068028355],[-0.0011871128,-0.0129871694]],[[-0.0168466307,0.0377778374],[-0.0226918701,0.046375636]],[[-0.0028440834,0.0337447487],[-0.0376985259,0.033511769]],[[0.0256046895,0.0017168566],[0.0187442154,0.0071226414]],[[0.048479531,0.0297328364],[0.0074632359,0.0011410856]],[[0.010446758,0.0669135675],[0.0275139026,0.0245239381]],[[0.0011187489,0.0686264411],[0.0573151857,-0.0174761228]],[[0.0179872382,0.0448229387],[0.002066819,0.0355584845]],[[0.0258579049,0.0236651544],[0.0397418663,-0.0077819754]],[[0.0282695182,-0.0315877311],[0.0093658268,-0.0307796244]],[[-0.0015287013,0.0181143247],[0.0161292162,0.061879497]],[[-0.0273434054,-0.0690605789],[0.0246319845,-0.052554056]],[[-0.0146498913,0.0243009608],[0.0624089874,0.0652229711]],[[0.0128156329,0.0126508223],[-0.0202230532,-0.0188546926]],[[0.0210359655,0.0790016055],[0.0392320007,0.0807217136]],[[0.0451820418,0.0649717078],[0.0238540471,0.054389026]],[[0.0308248866,0.0184470434],[-0.0150473742,-0.0045642732]],[[0.0256320368,0.0817755982],[-0.0167599972,0.0572282523]],[[0.0390713997,0.0527530983],[0.0332065821,0.0534252375]],[[0.0398912393,-0.0072825598],[0.0103190476,-0.0571740903]],[[0.0103776231,-0.045279],[-0.0096842041,-0.0754821301]],[[0.042683538,0.0602313615],[-0.0068418481,0.0105286175]],[[-0.0072843032,-0.0127540855],[0.0086624827,-0.0444770083]],[[-0.0005214849,-0.0474264584],[-0.0175894666,-0.080959782]],[[-0.0204381831,0.0504047759],[0.0142800566,0.0529678613]],[[0.043829456,0.0173700135],[0.0307495352,0.004548776]],[[-0.0152928503,0.0116268415],[0.0177941099,0.0258348808]],[[0.0268476699,0.0459507667],[0.0100511853,0.0535028689]],[[0.0024869388,-0.0044596177],[-0.0269649029,-0.0261993688]],[[-0.0193371382,0.0782994553],[0.0408366583,0.0156076765]],[[0.0056141224,-0.0087447092],[-0.0145159932,0.043040242]],[[0.0426632315,-0.0078547345],[0.0016854918,-0.0226496253]],[[-0.0093689319,-0.0312612206],[-0.0055583525,-0.0518002547]],[[0.0072076819,-0.0112253502],[0.013920459,-0.0364382006]],[[-0.0136279464,-0.0298252832],[0.0150087737,-0.0415908433]],[[0.022546038,-0.0329397954],[-0.0213569328,-0.0418435335]],[[0.0343903936,-0.0389626473],[0.0328880809,-0.0538710542]]],[[[0.0291500669,-0.021063799],[0.0169157088,-0.0221151542]],[[0.1243575364,-0.0488102436],[0.1201768443,-0.0184790753]],[[-0.0284215305,0.0772365779],[0.0323129296,0.0487070456]],[[0.0390719026,0.0015069204],[0.0914679989,-0.0772982165]],[[-0.0346168466,0.0524356477],[-0.0397600904,0.1010608003]],[[-0.0672315434,0.0875531808],[-0.012412007,0.0535413064]],[[0.0930342898,0.0495324656],[0.0715206563,-0.0132924225]],[[0.0815251395,-0.0215204153],[0.085505262,0.0199592374]],[[0.0768065155,0.0871021375],[0.061959628,0.1125178784]],[[0.03211293,-0.052096609],[0.0747343227,-0.058772292]],[[-0.0425716192,0.073198773],[0.0263129286,0.0304468982]],[[-0.0730508938,0.1147446781],[0.0124337841,0.0786061138]],[[0.0527397655,0.0757157207],[0.123478286,-0.0046349582]],[[0.106933631,0.0007433798],[0.1790680885,-0.058446303]],[[-0.0204919986,0.0709858164],[0.0302105751,0.1088981479]],[[0.0290115699,0.0182580557],[0.0584731624,-0.0232932977]],[[-0.029621033,0.0420150161],[-0.0284785647,-0.0059882468]],[[-0.052704107,0.0756585598],[0.0227681845,0.0978437439]],[[0.0866389275,0.0771164522],[0.0632806569,0.0407468081]],[[0.0776505768,0.0410356522],[0.0287523232,0.0425534174]],[[-0.0192852914,0.0730262771],[-0.0736708939,0.1122704819]],[[0.0779902562,0.05857905],[0.140038684,0.0701983571]],[[0.057422433,0.0237547643],[0.0916958526,-0.003252866]],[[0.0120395757,0.0518246219],[0.0933527574,-0.0074415063]],[[-0.0026841171,0.0216494668],[-0.0588637404,0.0947976261]],[[0.0194668844,0.176755935],[0.0730154887,0.1059964001]],[[-0.0037465261,-0.008493728],[0.0550741591,0.0754653141]],[[0.1047310457,0.0815135539],[0.1034933701,0.0295209028]],[[0.0394477323,0.0662458315],[0.1009063423,0.0239984617]],[[-0.008543116,0.0029473146],[-0.040805541,0.0777057037]],[[0.0719048008,0.036796581],[0.0517967418,0.0821292326]],[[0.0509320013,0.0773348212],[0.1211506799,0.101372391]],[[-0.0010553779,0.0805383027],[-0.0477856547,0.0538008325]],[[-0.0136968624,0.050312195],[0.0154290926,0.0451675691]],[[-0.0439931899,0.0383103378],[-0.0156379789,0.1158472747]],[[-0.012477872,0.0444036797],[0.0549038798,0.0620088205]],[[0.1668573767,-0.0083770119],[0.1468874365,-0.0445986949]],[[0.0009903685,0.1182701737],[0.0247731879,0.1242916435]],[[0.1347586662,0.0267517474],[0.1456910074,-0.0525468923]],[[-0.0123142879,0.1289436668],[0.0914668143,0.1037593037]],[[0.0742759779,-0.0382275879],[0.0629143268,0.0427960902]],[[0.0419207513,0.1220869347],[0.1337438226,0.1622293591]],[[0.0355462953,0.0742701665],[0.1134765893,0.1086228564]],[[0.0293291621,0.0674133301],[0.0478541479,-0.0094122393]],[[0.0296425112,0.0625248477],[-0.0110521056,0.065722838]],[[0.0655298084,0.0789459422],[0.0900908485,0.1467087418]],[[0.1453507692,-0.054804381],[0.1202677786,-0.0548778549]],[[0.0513166636,-0.0418332629],[0.092095308,-0.0795305669]],[[0.0739184543,0.0160174817],[-0.0190729164,0.0640471205]],[[0.0827358067,0.0395783894],[0.0994983539,-0.0090128798]],[[0.078316696,0.0040579289],[0.1182128116,-0.0568028502]],[[0.0243609902,0.0324347951],[0.0444720946,0.0414027199]],[[0.0880656168,0.0535937473],[0.085996978,0.0202085506]],[[-0.0283461306,0.0932072327],[0.0122397374,0.0219558235]],[[0.0678064078,0.0488574877],[-0.0249462072,-0.0006226014]],[[0.0637220666,0.0159847103],[0.0302931406,0.0241592433]],[[-0.0664189905,0.0648740306],[0.0283628702,0.034746509]],[[-0.0016582259,0.0042004171],[0.0366443098,0.0129837561]],[[0.1620063335,0.0168910492],[0.1014252156,0.0484996103]],[[0.0768613666,0.0427171849],[0.1043685228,-0.0008551322]],[[0.0794313848,-0.0258902591],[0.0627972633,0.0190097187]],[[0.1151625589,-0.0277285799],[0.1440367252,-0.0607505552]],[[0.0479068682,0.0044074743],[0.0662220344,-0.0399605893]],[[0.0835789293,0.0387632735],[0.0054974034,-0.012097816]]],[[[-0.0367739461,0.0015386186],[-0.0180099588,-0.0125852162]],[[-0.0501105338,-0.0619263537],[-0.0124720437,-0.0150546357]],[[-0.0174000598,0.0155949583],[-0.003132375,0.041456759]],[[-0.0532973669,-0.0009665801],[-0.0396893919,-0.0735495761]],[[0.0654971674,0.0408297591],[0.0339037329,0.0558604337]],[[0.0579360239,0.018312389],[-0.0063548801,0.0193674508]],[[0.0062135756,-0.0004031596],[-0.0113886325,0.0111771952]],[[-0.0116456673,-0.0375623479],[-0.013974282,-0.0034475455]],[[0.0242987424,-0.0073297434],[-0.0179042649,-0.0142105557]],[[-0.0213190503,-0.0081264153],[-0.0511850566,-0.0332628861]],[[0.0024688146,-0.0000594818],[0.0047993595,0.0467562228]],[[-0.0118674478,0.0380846635],[0.0234867632,0.0619281121]],[[-0.0411564633,-0.0321466997],[-0.0440637805,-0.0222625025]],[[-0.0519833975,-0.0525111966],[-0.0736926273,-0.033775162]],[[-0.0106863109,0.0112648271],